{"BiasWeights":[-3.730293819836838,-2.9531092555259666,-1.1111284364299243],"Weights":[[[0.5297966670252735,-0.9382647048991107,0.0413705844959294,0.9274798885916168,-0.013719014982636463,0.31098905763723,-0.8726233789700756,-0.16623795008957193,0.4471424068878567,-1.0106129857425294,-0.7287875567827881,-0.35705332769321346,0.6950924961673893,-0.4014695252895251,0.870157946153561,-0.9459465454677435,0.5163956876789567,0.2280003064776992,0.9203742545061991,0.36667394081063837,0.5564113372137259,-0.5678020552247406,-1.0293804599705476,-0.7815992851321215,0.031834131900069784,0.20995507104406053,0.33051752625145453,-0.9895527867216961,-0.857305200391182,-0.8873988959079236,0.44707549788522666,-0.8776609614919161,0.7785162452130336,0.4368583413867078,-0.8906835304254478,-0.9104606541166796,-0.009344702353034466,-0.5249981011624433,0.6631573129762804,-0.6535888072153528,-0.48840506010811235,-0.48507926161024106,0.04124572459262848,-0.22948202813537594,-1.0007672995269012,-0.16006123879527304,0.40999502950484806,0.025017838157684283,-0.3737874060473691,0.21809260391953292,-0.9311425445291527,0.15521810606699987,0.0340111403833933,-0.6135979178090204,-0.7727839723699285,-0.8476058897449296,0.5525373854788095,-0.2974892853694788,-0.6254630559821391,0.7072053077391217,0.7022274867098882,-0.2463193004686542,0.1931579450476206,-0.20966784010453443,-0.6202625510441058,-0.08595291420999956,0.7923090116009497,-0.09521801299962893,1.03046003996705,1.5442969225969096,1.7106176149640333,1.726653690987383,0.862678421766044,1.046102038924155,0.6501863447418916,0.026867035953404787,-0.10976278930344224,0.45884528502678873,0.14651454144220308,-0.6363214211473152,0.3930930267337071,-0.4091514858878038,0.8038475855606265,0.7999543652272937,-0.07784464322310379,-0.9450973826628052,0.9181123096053578,1.2588951659140692,0.9857628931157897,1.1677019185861923,1.1205495047945377,0.6439369684232489,0.29371069881436224,1.0758302755380178,-0.013415572933596716,1.3498609512192659,0.9995113131192315,-0.1932841397342094,-0.7367603734397242,-1.1371200819985297,-0.784453398013071,-0.23937773060403855,-0.6171595171733016,0.42638077495933663,0.8384085573705196,0.3605695445465105,-0.3161941377806424,-0.3715148166909292,0.2717639733849719,0.5575948388453037,0.4163591978551126,0.28224542595173113,-0.4941065399079653,0.01838527135596963,0.22653760660191313,0.02205419217223024,0.01055277795675894,0.8538546991763187,-0.6219810097396058,-0.3743459546255583,0.2813738816558746,0.20412152640975745,0.704676581806236,0.21795241902065643,-0.3188201274846119,0.7919744365594611,1.3653863066177772,1.9255487191954792,1.2627963014917847,1.1640888191871306,0.49812867043602693,0.7422557594308485,1.05704984008156,0.7948350091214862,0.9062785566099255,0.7309403927881627,-0.2106204330623325,0.9226796484641657,0.43561027762829424,0.7897597851518722,0.5067020781238475,0.8218276937508785,-0.5183867021506374,0.7442859105897449,0.17920715569374882,-0.020131642786269062,0.19330916045781243,0.502766112755946,0.3099994568565872,0.5772955661503129,0.7801104305034039,0.4655332614084302,0.6664271508155188,-0.799403995801941,-0.34889308104245925,-0.3990442392854204,0.19860925050374922,0.5805784454940753,-0.6017320115286595,-0.6696717119466183,-0.3394098846621014,-0.6251547829925794,-0.7324806565128382,0.21743678008380043,0.7706034414525799,0.6915461208456669,0.37709473541424915,-0.28451962844125483,0.4120340273175043,0.2641587275363255,0.018836107053345624,-0.35960533375909665,-0.5795430225197233,-1.0120763762066816,-0.09684038508052627,-0.22127479015512166,-0.40139545363922907,0.026846928252909248,-0.5535736714467367,0.7095785814953156,0.44620843043313396,0.08807560551224558,-0.5040616500185532,-0.2194486432640379,0.1220727695649698,-0.00940636797405767,-0.3568874784287662,-0.11448149039593893,0.686311822877453,0.844107951628714,-0.028245127439586085,1.0261328515547548,-0.32809645947773663,0.17045337610202752,-0.17437363485923613,0.8969298315089237,0.379886429780991,0.19121980739816616,-0.1268306621718452,-0.775914014139017,-0.6213945413042439,0.6868948548386314,-0.34090508480321735,0.879997727107419,-0.09325899634226706,-1.17190044581152,-0.4800538442257794,-0.638409950440291,-0.8888265059491441,-0.20261362285778453,0.1997893409661586,-0.10979013143936585,0.8449694355420959,-0.06894742720488892,0.2530812811336675,0.3108695465107541,0.5415060891698565,-0.22978857387604595,0.3702181463767144,0.3215843278068409,0.6162873584909352,-0.1254921723546579,0.20358581276397475,0.17148832364162908,-0.9733911260503868,0.519239243337218,-0.1030113780466563,-0.5372923088287729,-0.44494653801441325,0.0685434082122766,1.0989536285099004,0.31320120231471593,-0.13857030519169813,-0.23796698595738047,-0.7310721654620659,-0.4968624184075689,-1.1008212211943182,-1.093389561264059,-0.3639326422292757,0.4956438164973933,-0.8992851738780957,-0.5340679763677414,-0.3955442296573379,-0.8425444375875215,-0.7244397026110995,-0.3933874375991371,-0.5080186634346263,0.6465995699630742,-0.6950810418986253,-0.6223154652044932,-0.9489203343526654,-0.5324416788576908,-0.38669955018665997,0.838750949093877,-0.4861879074036947,-0.07279790039409675,-0.4087320666527956,0.8497791501923039,0.34792769044154165,0.9418678942515415,0.19258270057945856,0.21542236847782995,-0.04382374438125931,-0.008426749183463979,0.28437229769416106,-0.04350556459575489,-0.244008251987872,-0.1933319520605764,0.40105443647945027,-0.6978789177576171,-0.4403405784784379,-0.3439132760556175,-0.1611195736736149,-0.8378129973280994,0.46702154648589855,-1.0311291060118442,0.08009729226510415,0.5544117585716876,-0.5290110962731437,0.8215810346852336,-0.17561546131212863,-0.7461674911859866,-0.02892532441169453,-0.23048171610304855,-0.6070898139031479,-0.6704435024046349,0.5717188770279743,0.2828907729414769,-0.7717596291548655,-0.9246030950145679,-1.3488831646551345,-0.7624882126296086,-0.44482647191852787,0.20953540730563078,0.04875272620286549,-0.7163021325008294,-0.8872610197090499,-0.5584316887005274,-0.05886225121418982,-0.44530842501235524,0.35877228080472784,-0.24985907133043347,0.026750891023142636,0.4098399826189217,0.17558959064253196,-0.3714815519571205,-0.40823101333172024,0.4656466507062024,-0.180491895651747,-0.9578141332787797,-0.38810680576938866,0.5799872064418484,-0.7536111632841159,0.3481223964341606,0.5474079306617256,0.603638378019778,0.5093452985894023,1.0133295739487003,1.0038351970839903,1.2718003075740043,0.912535536494006,0.785357501493899,1.1177403706043307,0.8628800265123286,-0.3410950402842567,-0.5933959638598749,-0.32878082996095825,0.6186890527721575,-0.8843687381423613,0.5852847746143388,-0.55699682851929,-0.5488576624319303,-1.056504400349623,-0.672805317808984,0.6928310843020259,0.6514018565990406,0.8183244976635106,0.2719156966508272,0.061189377217308556,0.3982423630854456,-0.5502702741127065,-0.4358039475851159,0.10472626715652965,0.7657051362644279,0.10403045019630552,0.3742873261524644,1.0901881627687828,0.7726170816017113,0.5054385958101653,0.27604962828745994,0.025732667965643007,0.23597698184503244,0.32495758172745226,-0.03971785662674325,0.36073090561310195,0.25566057824630267,-0.19442318794331798,0.17940758423179312,-0.5801199521780108,0.508738201670198,-0.17367284683430514,-0.5978848283764364,-0.4607104793138888,0.6268638555420295,-0.8378332728361498,-0.39713413940742337,0.5469383725570861,-0.8559367948236258,0.3435250230140674,-0.051399077152631326,0.5469502632244291,1.4972081938874935,0.8246876371673897,-0.26008346052559245,-0.22595709359826852,-0.12071701090749913,-0.09758846627484374,0.18417131215297183,0.4941723887320339,0.2277143608492664,0.11867795070053878,-0.18343590862607545,-0.659896916608912,0.3067723112381486,1.1055926298587455,-0.51287349582165,0.4606025030477082,0.9075946202796102,0.7154575220556483,-0.6285809064877536,-0.24294373838747935,-0.8488037014272646,-0.33841872572271475,0.02773504619998361,-0.1862334339501663,0.20438943800771683,0.08817168360355358,0.8708604398894155,-0.17001009214368956,0.9100939026417708,2.079429739539859,1.8436018974297461,0.8639737332227093,0.7587848570649437,-0.30990804742678074,0.37792285807996984,-0.1574876212842705,0.35418168602639316,0.1109067520876268,0.8729212286389161,0.49103153773041575,0.19672568559823467,0.796107994413604,0.26605923114165814,0.787861813543888,-0.0933996280974838,-0.3963991342957826,0.27252899018417565,-0.8810884725345344,0.9094049816864002,0.24788188045834286,-0.7480429356498526,0.21753881102627745,-0.8146764944037411,-1.5968221067409554,-1.1252298378492998,0.14930661260996242,-0.6836623435956123,-0.9621998081394549,0.621590274906206,0.8937122396766215,0.3258544870204291,0.4868838468065997,-0.2832966191962989,0.5224844229795311,0.06185602126324087,-0.22210019407559606,0.17532128054791526,-0.27978673405698945,-0.5142683413574688,-0.46521868883548745,1.2137968973623248,0.030875930861523727,0.22262471444059026,0.5532695656145717,0.6288329520420716,-0.9348778507034289,-0.7134963171750389,-0.7446289733391024,0.02065063682707772,0.21498531585865877,-0.6434534631908218,-0.996602934508647,-1.253750895667845,-1.123631365047172,-1.1023916839675605,-0.49114457672922496,-1.350883534357757,-0.41589162115256634,-0.9847964952215159,0.4696692386443883,0.00499311543622443,-0.3482141087611554,0.16531532198447518,-0.3257622757521262,-0.3981879216633509,-0.07324992751427514,-0.5592733265960453,0.10580716311286922,0.5309312551179161,0.5641373015804437,-0.8418112345048883,0.37467262450472455,0.7830015965804464,-0.7271048254590603,-0.5509405694338795,0.20906542096329273,-0.8553997922630702,-0.1729216565394996,0.32971804657062187,-0.16906436811961936,-0.8207489573574069,-1.1447352611804367,-0.7960502706671198,-1.119728076143383,0.0969612436569752,-1.3518926013214487,-0.9159074750654659,-0.19904075603519908,0.23679686624398072,-0.39868732671841245,-0.17331789003433107,-0.6484194065624553,-0.7298496810431168,0.9328786088785184,0.23182612525643126,0.6285808257453122,1.0133032862045412,-0.2123076751172359,0.3393401799354845,0.05833854185144036,-0.3919962584031641,-0.21776022042423404,-0.27606074260741836,-0.6797131164967242,0.8016420981229504,0.05522250237886372,-1.499724317688746,-0.5879826387582974,-1.2356152690677078,-1.478473129445024,-0.9401810048320032,-1.0573984470360425,-1.3780945737211354,-1.1496484604345842,-1.2669688161264645,-0.4489009215732558,-0.17005639374303874,-0.08584594752654,-0.3125409268984509,0.2693750774936631,0.3211580781085858,0.5133428090637955,-0.15463394100402508,0.2480698084543891,-0.1636594307303811,-0.354395615766944,0.8592571105717631,-0.0369439607495381,-0.4170741833989742,-0.47519970024158614,0.7341927650412877,-1.0327997144129633,0.2787884555254545,0.2733480273002188,-1.3581394994176104,0.1434447348635203,-0.650115532596205,-1.0683045890631102,-0.9869130534555239,-1.253769875064765,-0.19368680207647526,-1.2576552808352544,-0.9184941424409998,-0.2001542792213979,-0.24326267069940866,0.03199496703563724,0.3450601224801892,-0.5437695159047133,0.5186420607732729,-0.27914794941622273,0.7641496999315692,0.8088649896820008,-0.6029810698167593,-0.6140547067803005,-0.9585856791535835,-0.06302803871210716,-0.5184731352824359,-0.6038515525553249,0.47507132317263306,0.5771967816395106,0.6440290629989606,-1.1212733006040205,-0.3011320340629064,-1.4351183252574762,-0.9777829729983833,-0.39200393909915504,-0.5738408932808291,-0.06446196068618308,-0.48525035459577986,-1.0041297654711652,0.03670052463181037,-0.1848107188210967,0.35758225543596683,0.15696017166674917,-0.17829438895659375,-0.5073319552219208,0.09553940164695764,0.053774285130482186,-0.37522921228631184,0.42287426799939454,-0.8046685845248309,0.8009349996707097,-0.5863510241516475,-0.6741527941044615,0.14033759287811762,-0.8317071712388789,0.40543446693444923,-0.7030497007217121,-0.20175336858940043,0.5276839707578634,1.0717388024098737,0.6725094888857306,-0.5830505203989664,-1.6045586912870349,-0.9598915965657394,-0.8351024381293302,0.22610231565655306,0.2783712734005393,0.045678895754163854,0.5192303455689065,0.10935317586581861,-1.1427565156588526,-0.5650005864205362,-0.6542661683816019,0.45440160845125177,-0.0021191307951158958,0.19825183674957353,0.025785641126731505,-1.2042903587200453,0.5862411175997846,1.052857707613155,0.5480060334998793,0.6182199123828044,0.396603463715173,0.2738902708263053,-0.7883872320486737,-1.027890656889176,-0.5100655449161214,0.5616471241298356,0.8475199848066395,0.8905629944219272,1.5091541889642273,0.6167283158220709,0.5115696562999076,0.5903999943029927,0.7940476172924723,0.8146683432822723,-0.6252735448113501,-0.1265133661948434,-1.0159442143828867,0.5086849202719841,0.308955117635271,-0.2807686892136288,0.1620273287558787,0.25904746134708484,-0.7432300943535713,-0.6037958737396478,0.3127337828766345,0.7560229068452509,-0.5271787022975423,0.17105631195473447,0.29297461871284364,0.9306610061798896,0.2958900322987614,0.10939987031051139,1.170629898328418,-0.16035587348742134,-0.08613136267697244,0.4280164084432098,0.5528391408404142,0.03640002640474709,0.8514097661449683,0.39970013611380634,0.2602455502628279,-0.36467627130489205,0.054995484425171534,-0.705164196891028,-0.29317003872767433,-0.055292039441428374,0.24628204543319382,-0.041198534835924575,-1.1044630626370264,0.13406670803283696,-0.6809046843137742,-0.5082394415056435,-0.06306035863049599,-0.42763942180006964,-0.3945465758637169,0.814057862861789,-0.5804875855839852,-0.9715027102733141,-0.4838707944434038,0.7715290857184115,1.0636190289211367,1.212111530053474,0.6751617670864335,0.14099276558627213,0.3952156950072859,-0.06945005482852531,-0.012703502883921969,0.027398286102982755,0.2767805778131096,0.07622824242689819,-0.6505588577336805,0.7167028412909832,-0.002759827425599201,-0.3715562960829523,-0.415010609133473,-1.2317216616566813,-0.25495518277524476,-0.20911222771005367,-0.1318832464916327,0.677282879292933,-0.132786263795614,0.8206688291976381,0.43724472637603495,0.061372994495295624,-0.9041234442183025,-0.23492421142900466,0.08274350024507236,0.7618501048692171,-0.7592941555344296,-0.5299992458723836,-0.06771723004672321,0.6675161034341325,0.16902235602996526,1.1243957980795656,0.3129786162279702,0.7616015426960041,-1.279919553742846,-0.20502908386542773,-1.7977392267065075,-0.5656345171365121,-1.3508388022820743,-0.14437861561411494,-0.8939021899271463,0.8633170756936179,0.1399399268023521,0.257746447011363,0.6741346980716103,-0.3387180770717021,0.20183910798165416,0.3223962633098893,-0.06303171757488467,-0.8855413987815145,0.30915463994305886,-0.035102875606746325,-0.22875340262284105,0.263410245038244,-0.715196386465485,0.04415305923483884,0.24219557312971868,-0.2922237620783655,0.9253419314498178,0.5162096639108326,-0.4010858348241047,-0.25959595087344306,-0.17477144743452283,-0.028840634206777814,0.2364823412654546,0.16455452974717905,-0.7583434367955032,-0.7682836060861148,0.8621858877754139,-0.15618393313341888,-0.050428252377822114,-0.9522636641191248,0.15697670580298578,0.5280028601176486,0.537495938692882,0.5640096004288123,-0.6631848365027951,-0.705136104036708,0.6033585189260716,0.2822685329961406,-0.6079878629819065,-0.8382386030472627,0.221187697208036,-0.03128647634733974,-0.5780688598315186,-0.7700221436555234,0.5146404468391647,0.2503934776979865,0.48994455354375516,0.19734801392498857,-0.19058773457945594,-0.36844052173967873,0.06755196989485314,0.5329484689071903,-0.6773712351012474,0.2681241230759845,-0.1888010271438207,0.21231883852005118,0.6049721340075372,0.26321184492442,-0.8762775991132478,0.40823819538584455,-0.1376269927554723,-0.8369511157111601,0.12325796102875973,0.3164438633193894,-0.3526663853231699,-0.3801330787633737],[-0.15310728601282844,-1.0371073842915193,-0.5783278446307388,0.16129246084586593,0.647128415618971,-0.6498439147132952,0.22032756417581004,-0.03146960678535762,0.0064959824352579364,0.19024616584234008,0.3133575554770851,0.17018167405438786,-0.3603844220328435,-0.24405454434136084,0.13996274452230203,-0.3438776737511904,-0.5897026115744198,0.21869212960339499,-0.47915059394586557,0.730629107347405,-0.1406069649801108,0.18534530523988738,0.4598933144057339,0.09932517965800577,-0.7787306130528314,0.537385029992156,-0.8833580533194348,0.6621488666687666,-1.0969917024699805,0.04784030797833703,0.5475752867395637,0.0956406794767519,0.058862532893061474,-0.8562470090344646,-0.04170279341561692,0.2608981038511342,-0.8939477180909324,-0.20551759548493284,0.8433442559091407,0.6184117240610625,-0.27309789977142235,0.549612854871822,0.8538819364911425,0.7674126676888613,0.9608265262932437,-0.32452458460732725,-0.4793557199759566,-0.22752354824522494,0.3905250533977609,0.31582995093276434,-0.48924244752898843,-0.0884270053259342,0.2003203759137359,-0.651352471951682,-0.5398190000509341,-0.9242163462906409,-0.7235117660242897,-0.43677344270687096,-0.5081524933847733,0.008384226365985736,0.7716548231590378,-0.7015447366373654,0.48977598408695483,0.7148732151285252,0.6595617374159495,0.7396722606286024,0.8122410416906449,0.33097050139533274,0.5828926224200391,0.7043956676179928,0.24359429580116465,0.416226959768114,0.8129053785661983,0.36389934934403706,1.0964019135669982,1.4284806746958418,1.1804176465639988,1.2106425151185314,0.028040763820804133,0.2660317568314079,0.6002504210294934,0.6992181307100805,-0.8958829365880802,0.6684916143860907,-0.20749934211215273,-1.1743168987618477,0.5378079275696127,-0.23025728571141368,0.8526116846546197,0.2997915195912455,0.47739150774442085,-0.037583913843995696,-0.10697690000808992,0.8222354502902888,0.20166268547233432,0.5381238693910422,0.865152746683042,-0.12045257939923354,-0.1366310782729666,0.2499594428917111,-0.12318489546956012,-0.2839130787745449,0.166625577468213,-0.3282093157674689,-0.197697699383571,0.15504324249514104,0.5437486607499683,1.2082712594473923,0.22572615976180505,0.8615411742252016,0.5921796917183973,-0.11725437597666336,-0.7590004264881122,0.0003426568288443495,-0.9052241958540814,0.4298140154091842,1.02168568208208,0.13000630487740808,-0.44781843764742485,0.06579057663409456,0.961687807767514,0.9149958829670485,0.33429191349892634,0.07857459576483364,1.0653062524263242,1.5677305278510296,0.5731241478318232,0.3679326267160209,0.31859383623903526,0.2318374329548766,0.21898233470045353,0.6809361064621166,0.06418187477665944,0.5583878182343232,1.0022655233783886,0.131484597856386,0.8082785054422729,0.4664374896085517,-0.5046599905257089,-0.22387803912767293,-1.2165918574508097,0.003256301345712951,-0.6972276644286761,-0.7103896267106838,0.6779053047287604,0.6525156304579279,0.20719820141098813,0.35667956977430704,0.06366919514025193,-0.3164210939735807,-0.6165918300486598,-0.6535662742493417,1.1435498561582387,0.5874145137275874,0.7123131680592986,0.9710420913660036,0.5993173107226678,-0.45845416628625274,-0.4070782309810669,0.764101045164421,0.8558608590231553,0.001720663417131126,0.028952154099508527,-0.213926817690957,0.38664707599022163,0.628324287150113,0.47192776274068393,0.39962332902967557,-0.36841910719755,0.7111849895014077,0.46937538718665456,0.5228456754779525,-0.6289665713068516,-0.7741254324921137,0.14664653589524723,0.2700003176729955,0.784514388736958,0.5239067591329374,1.9239198968652012,1.1557062731509846,0.7072427955903531,0.8635771454893278,0.42935216775185714,0.33800848141718215,0.9895558204740117,1.2399727910573137,0.0026649069906109516,-0.21582600286361558,0.31300571754036577,1.3274447836079102,1.0237479045630489,1.2878994944085067,1.3600354751110946,-0.39358565433445497,-0.4002519367958054,-1.096279144308184,-0.5324702414133257,-1.284004106579289,0.5992755670309968,-0.3837555265633449,-0.16584630537076364,0.9150551973180051,0.6391775990366496,0.6031573145482286,1.0113318758590555,0.06836220473516713,1.0479429206182296,0.55333862388611,0.050389891583697805,0.22525539811792372,0.06460643744192016,0.40854197852727464,-1.0758920034110568,-0.1461486221725896,-1.3044863713804937,-0.10393830578851566,-0.4266928433495391,-0.04315506904658301,0.2777427831836942,-0.4239993109184158,0.43685854046857236,0.10814049405741676,-0.038796551519944204,-0.09231982894306695,-0.5749348912035143,0.5768327347331128,-0.5928518320750197,-0.4306671809540891,0.20349017631017344,-0.6702962772303767,1.291562679779221,0.8319322878465317,0.7730110384577786,0.48662194177032086,0.09834163819194523,0.33799622776273175,0.01316987695851396,-1.0654557439051136,-0.8867006564685364,-0.4283692237120683,-0.17598382404595572,-0.09498169115392505,-0.5939038803389499,-0.6396678620032923,-0.8651736906567522,-0.830218502759989,0.34496718027752404,0.5112800726212205,0.42100147928076664,0.0221901448381312,0.1343916888280188,-1.135855390729764,0.4629933086754433,-1.0472653967873906,0.09366885747059575,-0.5156182579803918,0.11687211970902939,0.39832872622399745,-0.05189030996362718,-0.420145440062256,1.262662758457178,0.6203855277105634,0.10951703873103485,0.6636839048020332,-0.39071298448660946,-0.1587984271098187,-0.3549705074018908,-0.2497425356856185,-0.18160095892882505,-0.9028171654414632,0.325853322809525,-0.4846519108090415,0.062181660223268036,-0.28026091350815696,0.5953515088476232,0.8755873306082841,0.4216592976388515,0.6527122331087671,-0.5951551690438813,0.5311552922157176,-0.3696614309766968,-0.8874988542119466,0.37493065001398224,-0.46158431544257295,-0.040992676546997474,-0.05504708720838459,-0.2523007720518018,-0.16288813324086532,0.27550331614017476,0.29627587745382983,-0.4237558021212627,0.19428311814794832,0.5764926404823019,-0.16090523779746477,0.6050284884457803,-0.5276399621405661,0.3072965400745888,0.918997721636686,0.24322442982291653,0.6268647240203792,0.2515353286142194,-0.13609827453619835,-0.06575489700660862,0.17599901447146754,-0.5928835952390138,0.5134316441704576,0.3369942337218349,-0.3445616133015813,0.7266295602439853,-0.20210491086956445,0.5838967240677032,-0.07584134776158408,0.21605688924645877,0.2869119396151331,0.623761104478254,-0.2913353474315937,-0.3554927033521567,-0.42845253931078253,-0.01676387943053969,0.24839511180855237,0.4976192517704912,0.8562805431215613,0.5859915688364816,0.5470026333995784,0.5250232636063085,0.41740575915172273,0.8267467051345324,-0.2702689606616024,-0.0848401559816001,1.2417465504592349,1.0983640527321217,-0.14507565897774077,0.34313822283738005,-0.7600932774014255,-0.4351137962118694,-0.5140757083256294,-0.5693779990629523,0.5198515795876212,-0.2647569460728329,-0.29962694392867834,0.0870726153972684,-0.98044485726128,-0.4193089449903895,-0.08612428703621852,-0.6476011283715339,0.556777318693396,-0.4044802259539177,0.5801675516177669,0.6820120132587262,0.11321909017428052,0.09055633746772829,0.6748707490398677,0.2324265650852814,-0.2996987225842568,0.282132116080396,0.5912542562343073,0.46118826926939427,-0.15144624156085695,-0.8998985501973255,0.4924337830813389,-1.2916755153413504,-0.9074684582851578,-1.050151409115239,-0.30386165774098206,-0.26091628484894336,-0.555547008693003,-0.16452979250748148,0.48171056607596985,-0.3728775995992131,-0.8247180962030921,0.4450171247761555,-1.720492147680471,-0.607752937955496,-0.44754425236859713,-0.038741011619106897,-0.20996220008825306,-0.3490527865892467,0.48358736178223644,0.7059467879914275,0.6309192636121608,0.2560165140528432,-0.3106788708175235,0.01739816800426256,1.1819673268275883,1.5863367559366146,0.046988182981987404,0.49673115618728453,0.36739862253996824,-0.32195600753764037,-0.49600886792702237,-0.995494979873642,0.0855746283831485,-0.24101245551841274,0.5270738315569603,-0.24434771391168178,-1.3125258667601258,-0.49465462046127445,-1.761764542095883,-0.9769394493668871,-0.20600757322143615,-1.351261703447165,-0.9504448748944748,-0.7381565216340817,-0.30952961760529873,-0.17379948334216916,0.5483701592374972,0.32426985787062745,0.3097305749090462,0.43317480826167665,0.03649990477197686,-0.1855818014673395,1.0974634770703815,0.3551764453833724,-0.5322027657105826,-0.4093581192366167,-0.7648774245833024,-0.6700353476225209,0.3788786694596739,-0.9053414360874247,-0.6282322162657495,-0.11661632222388468,0.20348531289704797,-0.49046871210509196,-0.7820440587852746,-0.6759422544945805,-1.6280971041452947,-1.9013239785984997,-1.496474356410202,-0.2230081667424287,-1.028262891982191,-0.3744646648252792,-0.899433528876145,0.26688067261742104,-0.46187546313793976,-0.16750616069360477,-0.04151889640590149,-0.33039241436234695,0.8719993754390987,0.8483845766649317,0.026089644714189352,0.009496816174091777,-0.5734123270535155,-0.3788092250137243,-0.33428941297172216,-0.6716748595682542,-0.24777198470155298,-1.2008928661932519,0.7267897058173779,-1.2201021877904759,0.33647097226101713,-0.2879567134800238,-0.884025533339526,-1.6031170753454425,-0.9765470577512904,-1.4330578615704586,-0.9590465311370654,-1.6927828473826576,-0.6649322804604946,-1.2851449270565845,-1.851613430748442,-1.1600507825260644,-0.5733444191751503,0.008516167528998317,-0.45060457958116906,-0.20766485759551973,0.4264122545601798,0.1875950092400185,-0.20140866908766814,0.12073058492792194,0.005360081186315422,-0.9325670796290568,0.7256393029981869,0.019550095865446874,-0.28938752528499584,-0.389016604208429,0.6770412282682029,-0.07727842686062772,-0.4999436237999245,-0.2629411783868351,-0.9373990923153713,0.33833445293751013,-0.9624654218414193,-0.5934141468029388,-0.7626304161023127,-0.9125194156854357,-1.9823581965521795,-2.597596108219324,-2.5441708172888586,-2.768294824997907,-1.0437468311359375,-0.6019804599714458,-0.5163691036551145,0.5075418660434872,0.1946835455132,0.18395279793141697,-1.4791109852974522,-0.37103091796894244,-0.2729862316230219,-0.5014641418074094,-0.4115482940660137,-0.7111694720088162,-0.48041130349769096,0.35606598174525617,-0.6472125428712362,0.0016155755391958882,-0.01575906960428367,-1.4053677849173027,-1.1733732242952981,0.2005989611456417,0.47167314832836793,-0.3745863562730699,-0.3113462663924433,-0.33911849747508216,-1.200812616579245,-2.2369079445295306,-2.8110195296332146,-2.278332323789161,-1.1990572838486857,-0.7964054374929755,0.02215001384615146,-0.4754875095955142,0.045737860953117306,-0.3619498354282787,-0.33841501612300257,-0.1390331258687477,-0.42575930086328756,0.4497816148707978,-0.17213127721337393,-0.4134323405159448,-0.52369372015757,0.4826561699311861,-1.1578811919814376,-0.8728235782226844,-1.2568651179039865,-0.8562350150835675,-0.4618253452380169,0.21763967206054177,0.2755718548954003,1.0794720520332868,-0.19954799294073824,0.590773214367942,-0.083237232328914,0.3017267849523492,-2.1004074792991716,-2.550785989059944,-2.0493387559759952,-0.6131344259568371,0.3000782839973462,0.6490766917616207,0.6564999172510558,-0.19858730628809784,-0.10596056757452975,-0.8258142276569894,-0.30967093556554365,0.1282129556162842,-0.581916485245594,-0.37059302013982676,0.6681110558970494,0.4209651683792037,-0.6754256182465225,-0.3348357590306158,0.32396287610459307,0.5398364075232551,-0.04356775029063652,0.7285121042351155,-0.08524282211481533,-0.9941616439090057,0.9657014533024192,-0.06212525057906867,-0.009042015862473109,0.2869884692248452,0.3151422525868977,-0.7390324177419975,-0.4310459864066042,-0.2268522461776957,-0.6839389918071259,-0.25624038736698945,0.09560591931458365,-0.06869384721673212,0.42496576684356707,0.620072310002036,0.7822343692481495,-0.2243171691073309,-0.2099841055252745,-0.9723202863907717,-0.7549441087329213,-0.6386726249884508,0.48937865790923424,-0.10764604343879955,-0.4874729653279772,-0.18325004210726217,0.05973812123202335,0.395212733565186,0.5126413449490909,0.7221504369092403,0.5378390821404826,0.5985989751892986,-0.09925101028903045,0.7454275639160372,1.0074287805281736,1.0678435734211897,0.472704832865818,0.9189871915130771,0.8488465558931336,1.0355559284349407,0.7437215072550415,1.0690181311358813,-0.5380520815206404,0.029623727036024013,0.4704638852769071,-0.5823356878492182,-0.2996281986933344,0.3872801541098447,0.4922771418008521,-0.8871631994081678,-0.3748164849001413,-0.3749705466088119,-0.919251120255259,0.5372567341790331,0.8043015232156618,0.9425078079940232,-0.3294985225867244,0.6331180109096173,0.5757736686387525,-0.05360895021708335,0.541794709174515,0.09124947836738645,0.4773890358346739,0.3628433577526004,0.28684117148377974,0.35230015388486313,1.0664468521458927,0.33326556809765917,0.10157972325476772,-0.13806768099383254,0.4674211210955442,0.28813184573106704,0.690923930291433,0.5511435605515677,0.9959361589655108,0.31296945061365006,0.058586980804035335,-1.0495371096760615,0.40756810105335717,-0.6206102159665278,-0.7956063259152585,0.19035939242816596,0.26461740363059016,-0.4683277595820057,-0.6444094924389775,-0.5994463927346526,-0.1498936991852818,0.02001033899901535,0.35460452194435943,0.17756597894908396,-0.15227729974312523,0.38970548225685436,0.18245734336953087,0.49053084967945426,-0.022083425349143457,0.5155978372041566,0.4520004048396352,-0.3972726682978814,-0.5826927703947424,0.32932254445414594,0.7555228679376976,0.2605837801017437,0.6293819903700205,-0.7171415254069758,0.973692179767846,0.1123469621703174,-0.38468618194282034,0.4566644260229541,-0.15146373508495106,0.2430947775836949,0.7146157470491833,0.26002211045956064,0.2514729039596993,-0.12925619786388104,0.3976816637745473,0.33242063378927944,-0.4558497694638142,0.3753992390546962,0.09420700351816493,0.29644401059638037,0.9583800430128476,0.45112407199838706,-0.22556804326801255,0.2886608964258049,0.47024952414710236,0.8380950794547195,-0.1847143491865506,0.20877081304299214,0.9651005173938766,0.28445425234428623,-0.5531071972121018,-0.8686098918518639,-0.0005938739300459747,-0.8056324775120581,-0.9904873794595374,-0.2908820785768136,0.7342916968208929,-0.20980064662441708,-0.6857366407324434,-0.020583479292019542,0.7552958353440301,0.8500728771749718,0.554079070256071,0.39719312397277434,0.3209889298275238,0.7336880845549794,0.02775771267813651,0.8674129479614521,0.24191541317703433,-0.055676648114735605,0.2557703322706607,0.05149573783543445,-0.2882146393561013,-0.40600834693269183,0.0910730943119924,1.0831769758193408,0.28418062783473463,-0.3139865292288831,-0.3788687032868696,0.4026247137645368,0.3444692016794804,-1.0779500859914974,-0.30962228787070745,0.09545721306761878,-1.0897633307793826,-0.6761312869495734,-0.06038240483471464,-0.3594536908476291,0.10814656883433543,0.2491272829007551,0.17829868953171144,-0.3631557986662888,0.3941679585003727,-0.1048581511964703,-0.7075592827316443,-0.5949226094149874,-0.6577414263072455,-0.6356922097434096,-0.059120968919342605,0.00015646640727129787,0.6165925146394186,0.132550061765794,-0.06867756974779118,-0.910654081897761,-0.20316413424549193,-1.0484146652731186,-0.12751907113781133,-0.10016088283119506,-1.1969914669850676,0.2554490912269659,0.4038222243333006,-1.135416559914301,-0.14987160176921885,0.11000918278512578,-0.2034082278388157,-1.0323380231770343,-0.5773675704964604,-0.15542015764141634,-0.17141411552230226,-1.0664084144008292,0.6165763659716287,-0.16392132831412817,-0.6179646493714396,0.02892314832649799,-0.16559798694900515,-1.1977555249569596,-0.7371081708401265,-0.07341324678738581,0.7075967727035081,0.5871500073177319,-1.015916340502418,0.28836104429293763,0.23122773286054568,-0.6313882673069114,-0.7639376887647363,-0.23231705705701458,-0.24944573277540089,0.3760457948907149,-0.3632074442283654],[0.34656707422278116,-0.6781432345491265,0.8590959205018176,0.30809888140771385,-0.8903596673199414,0.48025302074957216,-0.6130539961769192,-0.2710665589147288,0.7934738021695702,-0.9806802805972628,-0.6716180863741565,0.2959262117640972,0.29992079445253056,0.23334878856100938,-0.3587274941972782,-0.09034080319493747,-0.5659774858895281,-0.36259897140811254,-0.5022090487275873,-0.8461816964503919,0.5532994615078739,-0.48668339569338076,0.029291898250259445,-0.9222305880115205,0.5265606343786347,-0.1937328538446243,-0.1101968547460458,0.019804946846247205,-0.16803541485499923,0.31664678864120716,-0.5869316544087051,-0.009541376185034721,-0.4965456259086646,-0.8620051954539615,-0.010837042124609206,0.08317516726612757,0.2591258421237568,-0.8502796220386283,0.2909088904710523,-0.8850652792328663,-0.7010094744807056,0.650143715569256,0.27847631454058513,1.0540632833950994,0.4857815887451151,0.3279197592837578,1.0838569403749478,0.29094633413114834,-0.05266773719732035,-0.36211611468942384,0.2666461238322617,0.6583505117690174,0.362462521762847,0.16564260965570382,0.11883821692357764,-0.9218241807258496,0.0982617906202966,-0.7091528768874558,-0.5451129016897844,-0.10896986942924544,0.45957910020266224,-0.23153342150837478,-0.887677547501908,-1.0153000051557386,-0.31301789614031444,-0.8119614134617694,-0.7272688028776814,-1.7069738270490473,-1.3760408407812459,-1.0786007241675843,0.12152434925529043,-0.42784571190917264,0.1643539536576937,1.3071832177772758,1.2109917325447215,-0.1912068247678602,-0.2673504999019138,1.142882654503031,0.14872981917497707,1.0750701233008928,0.8015530518865416,-0.7904100315513821,0.9764803407986395,0.5647587976636477,0.11963606234717077,0.08596517007720106,0.4543687840774611,-0.3810254938757527,-0.43175772540306767,-0.9981578103864125,-0.9276398368065026,0.14456176764148987,0.23765285657531732,-0.7737427339294631,-0.629884372211225,0.15899835121581657,0.09822838047137204,0.30872105865753785,-1.0711946760144506,0.017094442620704437,-1.1884719314888268,0.32442396851238936,-0.02360215497581065,0.04634398708371425,0.7714549193119914,1.1839986256508357,0.17812118836891555,0.29248644924201267,0.4673487796961695,0.2321442402855775,0.16577188654234642,0.9089202454271659,-0.19982535099508103,0.4288364322213975,0.6031640643958095,-0.10932929682384279,0.1320954229029297,-0.44986767954984963,-0.786193249977941,0.17559967317053188,-0.9660824060409017,-0.5416747080452572,0.11443379713696428,-0.13667891540117733,-0.6297734798733464,0.15754401879649463,0.48831378103038564,-0.046370210522058405,-0.352484775698701,-0.7453564623008575,-0.612304589993066,0.9875620153043184,0.9804822006016053,-0.4807083795183941,0.24950744784315942,0.4982378560042333,0.9027486064350738,-0.7150559166442982,-0.4274083142845661,0.07809776093816488,-0.16221753818923107,-0.039793653799870404,0.5986061215726981,0.795324484983869,-0.2545975018513378,-0.6780622844686919,0.30564447051990296,-0.23171048994196883,-0.25459640783250703,0.7952139680740535,0.17887304413772517,-0.8404665508040692,-0.1639992703064111,0.668585297642609,0.22872397893655302,-0.5888935721904032,-0.9431839885921839,0.25508012119759416,0.7062001401781526,-0.10620833508394995,0.23398714304367196,0.5035242925865749,-0.011354832282536623,1.2717041187972533,-0.3549474346952988,-0.0792981951257209,0.1887150796459724,0.7428652254049344,0.1887505583794689,-0.23163003505516128,0.7686981936191266,-0.461744746316616,-0.6723416127911364,-0.6747076187855379,-0.18780611248107704,-0.6391769915982387,0.3907058911332782,-0.6640207682270781,-0.959494200043651,0.1555904688514383,0.19881724117428445,-0.17011739658066521,0.09847447949167966,-0.1435595244184527,-0.6613534127014948,-0.4526376791081948,0.8029868330198736,0.6101593395748977,0.6363167342664608,-0.4915256987591682,0.553827538092645,0.32645321295472074,-0.008986793299808811,-0.4744304281681929,0.07527700278782372,-0.40721203103901554,0.5095275249293145,-0.35523776590127404,-0.8232703200670942,-0.18561653488690688,0.255306816113041,-0.8194897224241325,-1.2754633506212396,-0.9055114674192981,0.5274176024891325,-0.7769667574935277,-0.31487076476837955,0.6337181992184606,-0.6760165411756831,-0.3839169053196238,0.05793051078863452,-0.4268946949465476,0.8333413299159204,-0.3774857503395766,0.3386763612819483,-0.15449968377792295,0.20958739022700468,1.028695353901992,1.1161461659954608,-0.5804296958540236,-0.19428967150400395,-0.30774288886599394,0.5661785886847619,-0.6941748881768945,0.9081692161924366,0.4013646509856006,-0.3961440861889046,-1.0252696573133635,-0.9524059238509007,0.18961554924854446,-0.03661071805509401,0.2532031167846748,-0.7235761904097334,0.021921966471021723,0.09880112264441673,-0.3597555679669023,0.27320637075638793,-0.6171579307589261,-0.6642909758873152,-0.33385747554709766,1.1616019943190754,0.5891171531631741,-0.2872497946465181,0.11848916635266768,1.023162198189516,0.7995279830866383,0.6669754127573009,-0.8585291500108846,0.09162307089230153,0.771634790605097,0.8610932418811874,0.3655147826520598,-0.4298474034051362,0.962532336404313,-0.16261155401239294,-0.28965101707969376,-0.887396767866269,-0.17507644112987153,0.816211143136342,0.4123414676217796,-0.2992813996197037,0.14599622074513185,-0.4389635427763074,0.09215831964938606,-0.571851996873483,-1.0751971091973662,0.32958149609625353,0.8321907451385724,0.5519653055635403,0.5076544501287105,0.12615642107975106,-0.806660142050654,1.1144719408974573,0.09030899318027716,0.7308679821200583,-0.29532765083796736,0.9780583690644548,-0.2973190882931885,-0.38423173590664467,0.8087867862968017,0.4508674926743495,-0.06205325533157641,-0.0049466187828591844,-0.7660389831579874,-0.6581409063520229,0.6225352985086872,-0.5081113087349549,-0.12587083965492335,-0.10224964294110485,0.3672013289834372,0.12169696362766559,-0.7175711186074998,-1.2117088382845869,0.10999780280955584,0.8772234461256246,0.4223316828782844,0.02756923157264533,-0.1295157325035058,-0.9515956616776384,-1.1096117201738687,1.0221291854264016,0.18543687154517668,0.05968951698376236,0.47719964712010376,0.15381862336466814,1.3124550617697701,0.24043614963184318,-0.6703496436533911,-0.7253867370278209,-0.09023906762198507,-0.7346454883272976,-0.34071688129982614,-0.024546358088701866,-0.8332875373880452,-0.21539193138402746,0.42486550685579505,0.18949135015442786,-0.5291966479008878,-0.8723678048190148,-0.18799684530069904,0.025727941063809483,0.5516902384395437,-0.6024942856056891,0.3688154850687845,0.17705158754106912,-0.6821423693600853,-0.9740429932671438,-0.9463014767677828,1.8424765693788243,0.2176616419713657,0.9135825754110483,0.44548532807968544,0.12493352754858926,-0.06210593938526375,0.3467934778094531,-0.3126945541382939,-0.5025245072415312,-0.04773834517392413,-0.46314008727696715,-0.19543670103503724,-0.28848164344106647,0.08613944873046075,0.5974134245257797,0.00926846017988786,-0.2752179368193903,0.3217784126919925,0.5885153502963675,0.3986791662806607,0.21807275144949617,-0.5310352068200328,0.5042777586192196,0.0693730237766242,0.8286162347821044,-0.4632038273160866,-1.1048866570412887,-1.2555140242602547,1.7999600959363022,0.4635302543962528,-0.06994060329642768,-0.5382866306020884,1.1009104811873074,0.09480885523236454,1.0055930458416562,-0.06692180344131625,0.09229465693902343,0.8469112308560486,-0.032418157966333995,0.42165893392203135,-0.00552266810568729,0.482297123146642,-0.20839329549001226,0.27199005621059097,-0.0597890317033224,-0.04127404635417513,0.6435628567728126,0.863859540651561,-0.25322847638479495,0.5041381213168223,0.6450713873079154,0.6918708289307821,-0.11782975526385725,0.26670174912370387,-1.2895630922932388,-0.8868863645266121,1.5622269139656086,-0.05092779865253231,0.8284006349244787,0.13288141762095004,-0.781274263520426,0.3806587725752593,-0.1787650853845928,-0.5467890217270346,-0.7906896086915509,-0.7321024616079383,-0.6819174222357764,-0.261747979054429,0.025938187106437135,0.4094790453461971,0.6682690879268309,0.8701402215655711,-0.09245448963043276,-0.37593402406523124,-0.5494764175002713,-0.5256227192237826,0.18414775031157107,-0.05771150992450313,0.4745319752504195,0.5684958509093714,0.28487817171367297,0.9374016306977827,-0.459820149543682,-0.7686422042252143,0.9682080110281571,-0.2779255324746007,-0.22656271015518364,0.07706760062336669,1.1177493640218843,-0.24295656387203474,0.2580929611530843,-0.0813236090351356,0.8180148044135795,-0.1555365854917268,0.035005048105359614,-0.3943679636765009,-0.20209126408226954,0.5840218498798635,0.5730904354313843,-0.43044530876773934,-0.1286986105797774,-0.6636287602595398,0.11562846163502259,-0.5232981055511802,-0.05413012544623203,-0.22258771081431195,0.7173048235043842,-0.1216022212934083,0.5193134663794606,0.6634221825116756,-0.30873910404803495,0.8935776771875067,1.6311044884292554,-1.1236798519158548,0.46687670808897846,-0.471275232476558,0.8708274330652295,0.4155417465976552,-0.6507269866618615,-0.09200342447030126,0.04604976416010123,1.1871286769198361,-0.5233624068853711,0.8362144826877049,0.0319900232084194,0.33028375226909773,0.9260899696640184,-0.6763601564548806,-0.438396433651401,-0.36337072882325205,-0.46437708205917005,-0.6867393004469776,-0.6622597483632469,0.4451432955191721,1.4854859444125261,0.3073665176978198,-0.1957256132628303,0.14200380904346477,-0.5439919944534936,0.9751493359648228,0.5477993242688238,-1.0955713362532025,1.1211943559239814,0.5543757879733738,0.8607600858936031,-0.11650394801741844,0.12906133272271092,0.4816168346273129,0.8111316833147766,0.6912791241956475,0.20900348720060735,0.0007405894208700007,-0.7623748081295039,0.759278491393572,0.7094447378794198,-0.6916702910286562,-0.6523652239254331,-0.41101798485732266,-1.1064762832675659,-0.31760874663518457,-0.1593742146965522,0.2469234623429186,1.0242984003082392,0.6093501244772348,0.3483942228945695,-0.6212105609464387,0.44572834823486185,0.42694687217718547,-0.7027445519686479,-0.4388044452586132,0.7242523305433559,0.32025809948696193,-0.6118366598650323,0.07275701600049807,-0.23112307290970135,-0.8656643370090047,-0.5255202753671702,0.20462843495875552,0.6783005732264901,0.1339768583582766,0.19149689199216374,0.20661279526130671,0.2446645739743401,-0.9948397725243752,-0.39527028381082774,-0.8254546684863934,-0.8217344478972086,-0.9531297246755618,-1.1513034686558492,0.514671671548345,0.4376873593229692,-0.3116817840913831,-0.013500135331765051,-0.2652845676846496,0.897341328742189,-0.201347406598488,0.02812874124101621,-0.4241555350421173,-0.5280476514458574,0.28909015154700424,-0.2718794575090631,-0.13390107175315308,-0.15851990304723923,-0.23797234369253156,-0.9509687071986979,0.8600449989800792,-0.2313469151232212,0.2839261227835305,0.4221810761947728,-0.22825195224850867,0.4786277209707086,-0.7345026796565847,0.4542280630413245,-0.7217164848694779,-0.8629133241752284,0.22060493188614538,-0.6234579197744472,0.4879682683193773,0.5328723230102357,1.2055956744331708,-0.36456073889850515,0.6581885714960558,0.3713976401465703,-0.8786741027063028,-0.7792465185933817,-0.4554597681347634,0.24602909265227743,-1.1359157141826608,-1.005102011864736,-0.23862674205522783,0.1990424723741928,-0.2864391332512634,-0.9613821722936429,-0.6260001058106061,0.8040877432975158,0.6850727621859267,-0.7741379711386052,0.5338305567102314,-0.12982960408442829,-0.10759624985455869,0.45534678360457737,0.6170552658005483,-0.1507711363717953,0.5689251809030369,-0.2598420804604559,0.648955059649678,1.367289526467418,0.8763172825733908,-0.4369716565727197,-0.40967268887250835,-0.5484489867693214,-0.09341905359705649,-0.9923891284709242,-0.6056588778827956,0.13030121584127383,0.3887682215277083,-0.049069088978632054,-0.38887352790626595,-0.4014901425314286,0.9499558217041293,-0.4244875223107774,-0.3147776493781644,-0.32031806716932293,0.3188303879720686,-0.7113652960678735,-0.21138772820052767,-0.6226236273474973,0.5120375084592791,0.28044063473076813,0.5440313680656734,0.015931099148342252,-0.49736485081764253,0.11929915365578127,0.07955565547281412,0.7436363049742286,0.27663104514382925,-0.28994245841837374,0.04227910928078396,-0.22988120514790975,-1.5960654631582332,0.533602216592503,-0.5784566310483781,-0.4319052082684544,0.5003544019944892,-1.0469086813450494,-0.6909037745812848,0.10247744367667581,0.676538980639821,-0.8968424151720373,0.8288421886721931,-0.2728188473049197,0.9387003393474592,-0.4103046055320399,0.5394157100342266,-0.44819015042732374,0.05910692092753532,-0.23503279663597326,0.7078135627327307,-0.5298339398515983,0.6407692783151385,-0.7120187325535061,-0.3588480788803052,0.4625469460219662,-1.0952760891166273,-0.16510845791341314,-0.2747620807624261,-0.384344662609143,-0.46761043754112974,-0.17860402624464453,-1.0807920557447066,-0.3590303175974911,0.1012478112931309,-0.7507657278483556,-0.3582915751911175,-0.12223869033168351,-0.22425052045948157,0.04299291946227525,-0.7233767288093768,-0.2867782406819256,0.5784637695954674,-0.8416415739761993,0.7136017846288627,-0.3246205704957141,0.5956963249686555,0.5010564545132598,-0.19027825374524518,-0.9046704520940816,-0.17266584088478654,0.23490409453175906,-0.3286338743618111,0.5105258117765322,-1.0133046511737267,0.3185170741191908,-0.7792714799868612,-1.220902848071132,0.34627225547245394,-0.5471351515559909,-1.1959497699263286,0.1798488063980465,-0.4813451616254521,0.28591292362489656,-0.9927941970886619,0.9899959221817838,0.3191899591131358,-0.21160702627598243,0.945048925168297,0.06764216133873466,-0.5091128368925713,0.14754278439148374,-0.23347491029272532,0.42010986128024463,0.4521434723550079,-0.3181056586907558,0.5308155525301568,-0.18015643551596522,0.337014181883195,-0.14368869219845215,0.09568092922767872,-0.699846534361368,-1.1953087840904582,0.061149113956478485,-0.3386381064499779,-0.7587827822488485,-0.31297149841129696,-1.196977000353156,-1.0626233163802676,0.0445334698410909,0.5012297145530717,0.32373640482806715,-0.9727236982217106,-0.5698256548902767,0.8621139504686832,0.7104319721425405,0.9158470748913998,-0.4400997493025246,-0.8237830294804376,-0.1402656550439235,0.3031405580294097,-0.2498062156966977,1.043177931576353,0.6559418218455516,0.6546675324615868,0.7961729917948058,0.7387760216296254,-0.6402003729705312,-0.38170117121896924,-0.3048916367765299,-0.2226450010385318,-0.7798593523998085,-0.49221289692087034,-1.2973812966011251,-0.9076413136871196,0.3783534127735779,-0.9071742189665618,0.31682740431429046,-0.6003313225395983,0.05181380794489174,-0.9667599697284954,0.02151514985763255,0.4426772631354327,-0.904430321614428,0.3907306314784979,-0.22392471541739045,0.9712368875990167,-0.6597529850796273,-0.6745662215130874,0.504839170718044,0.799116575290068,-0.11286989442577718,-0.29892002130712486,0.1418542166351684,0.7022548714579644,0.5491193486522812,-0.9593984673159817,0.7839055523583529,0.016099373576286748,0.8403923634078623,-0.49100999487981306,-0.7085232703138413,-0.3463699211665951,0.5306711932703578,-0.04092921761744961,-0.4944829079380266,0.174151799481446,-0.41117467029444726,0.5535528655329804,0.6808344326740596,0.9500266161896718,0.05636489695794407,0.8590973798842927,-0.7460775739811418,-0.562541989647074,-0.3835317403550604,0.9161643690421384,-0.4525941065375397,0.4629543982190137,0.856709905126493,-0.15297622497703317,0.9208012206493255,0.30309341046267707,0.059659997719191504,0.43491917285927434,1.009601723631582,-0.14686441592166022,-0.3463016668633762,0.22758804620691403,-0.5524880681514845,-0.044078331702414264,-0.5677073910299884,0.7010787567976602,0.9320587303555217,0.6705641723948668,0.357490733656822,0.9763600064713627,-0.5621498558111881,0.06580242679818345],[-0.5779232325076118,-1.2768536025232378,0.4023615416935152,-0.1423273054761177,-0.9878652868882376,0.545077714842569,0.028982432092290206,-0.4366587081309971,0.14755427796208595,0.0974967629024722,0.6287032876150913,0.5102443650731772,-0.4828075219477856,0.3473765329997686,-0.5238009614661496,0.21671574478278857,-0.7850046026597126,0.5667149007950263,-0.6258588841451955,-1.003166607131635,0.48166429132696104,-1.235474907917509,-0.4205631969738873,0.29130394629195516,-0.9620651947304231,-1.0245160390884231,0.29446953361062883,-0.8100172350376245,0.04296292970489961,0.42702986364978707,-1.2328730895310718,0.759477947593937,0.10268769792174454,-0.5732625963543192,0.4049264756102952,0.12747180213228249,-0.08182105183878638,-0.1821667671627927,-0.5452317488306048,1.4841826137564367,-0.054553748781055025,1.4751758852244308,0.9266157294316513,0.7704131574642095,-0.5572747673555509,-0.24289278493909988,-0.5869165993402381,-0.36127141917362804,0.09453318001530002,-1.3277422502467224,-0.16428489598646515,-0.9686276289758977,-0.0566506424511745,-1.0557857226055891,-1.126346815916729,-1.2438492357151236,0.6750608140805767,-0.47671266186843125,-0.6829119523356091,-0.46783112521401593,0.6707462476860016,0.4237389450264397,0.6996508883381615,1.3905701489724882,0.6362247648030883,-0.08434403323487194,1.2855421262446338,0.49596664719203154,1.8570874523619612,1.336992319322133,0.7337227115672222,0.016352915871632095,-0.13465254013420125,-1.0460795209743032,-1.4701210912061267,-1.2697395388896202,-2.120713875794696,-1.5522457914833676,-2.273957214974175,-1.7987501659850234,-1.1423571488263198,-1.2720905609310007,-0.47014802438282083,-0.9986556512444265,-0.1736038267636393,-0.6195986015615191,0.6690303174278094,0.7692135667043557,0.42562226553753857,-0.35046233349786393,0.48074619631088944,1.2204108080684923,1.327287571126441,1.8177627845565676,1.6381278795955088,1.3875651769250814,1.9128591196795497,0.327455503588225,-0.09986363756829798,-0.7613197412398033,-0.6537368494421361,-0.550616850326136,-0.2672768570796243,0.12210340905293443,-0.19873035938475583,-1.2469576528253206,-0.5467754295347523,-0.8377338974610027,-1.1202721923243415,-1.519192669488449,0.5349787885805242,0.23193060429786863,-0.43762039647860546,0.5256385496686427,0.4344437619329685,-0.26145381609456786,0.22378323135766973,0.1877910134415987,1.2863367524236025,1.2503932248340472,1.7729484837550114,1.665122591833981,1.506060626345248,1.4636814416004498,2.0163470897062497,-0.5141950961139623,0.9670495260136297,1.0017015641237368,1.180196497698506,1.1874817477895967,0.927058261730393,0.13419966509844383,-0.21911924564106838,-0.11482026802217993,-1.6512800531234544,-0.8756884175516598,-0.6888781502653616,-0.3533687090616551,-0.9243958121891365,-0.7222332846157782,0.10653632184258299,0.6816039621633359,-0.556646353887546,-0.36743083193910414,0.17144168876377655,0.5143787731391308,0.9394893615993506,1.6789380258074762,1.3977436001167223,2.0223408307191586,1.471236248178215,1.272653156784734,0.6142298282725551,-0.23688245109902367,-0.4518574183044501,-0.2335767954737045,-0.4035505398392772,-1.1039703730771742,-0.27226948736997314,-0.021634588391230565,0.0891051127049351,0.006526502520838855,-0.3390116329094526,-0.9860384450200508,-0.3375772504340717,-0.24537087475202757,-0.11357653892836828,-0.8089314060473747,-1.052330526096726,-0.03729986412323889,0.3940144599538664,-0.40706434394114244,1.1250376291020074,-0.1916241764721917,0.7986740553074574,0.729192178111583,0.5559190167485085,1.51735973194638,1.790849006242625,1.4740605372185658,0.7798732156197461,-0.12242707740802819,-0.12824669381989554,0.556831732585837,-0.2735801365782934,0.39644621886759723,0.42146020914770504,0.5422471224586024,0.05231436343042636,-0.3697704467129052,0.2500706486376482,-0.0830445723434379,-0.6550730692987015,-1.1853459519708323,-0.8969238171951741,-1.070249399683388,-0.5017819393115293,0.7180320308841435,0.042808423557420795,-0.3473360989440988,0.7195140889640965,0.5941639936374582,1.6124100544625088,0.855945704892036,-0.18020504972198723,0.404195897451804,0.4668461498631112,0.5625443750436644,1.1297477028386083,0.12038822150279244,-0.32948314309286686,0.6675494294936613,0.5860428909960456,0.3328668596197314,0.1021110925090345,0.12845785421479772,0.20348912802691344,0.7329200127875837,0.41807839198976143,-0.33205773444493913,0.591866820121944,0.7646662946585949,-0.4794678066442402,-0.571593634599388,-0.19671392311725996,0.3728256182014998,-0.8275849114817255,0.13665055175506555,0.647629502421298,0.9179397260014913,0.12050852226074599,-0.12373602215231118,-0.4033687519728729,0.6239532983927472,1.1346981476924556,-0.5849313277515896,0.14185841890617212,-0.38539369695529313,-0.13032644175074007,0.691715981947,-0.0945167903508741,0.36347624602443546,0.46222944647169695,0.16843491678821054,1.2196188035887938,1.4695573257041532,1.3885001346546635,0.5875188318927659,0.8342970210727294,0.5301056741966755,-1.23494521773729,-0.21208573842589704,0.4366697023647043,0.2485938594469342,-1.0098623855202855,-0.39266842764434107,0.22103558226480086,0.9163657296274944,1.3604139143891092,0.455216151756616,0.028836362930887524,0.4966173606836019,0.595799678831554,-0.06547128408297737,-0.223209907990477,-1.1137385245623788,-0.38819227663173483,0.07983717289323408,0.059560141180181214,0.5745498002521572,0.6560108501142501,0.8212544607226644,0.9518219155316462,0.6265452393450959,0.7021235594588434,1.0646398817410507,-0.34027362793829524,0.6627015912363942,0.5672878113276483,-0.3682088336905818,-0.3126239368431715,-0.4855877231135981,-1.0540261172732084,-0.42240189066439343,-0.4781079855342701,0.6126903332886671,-0.9116505397910455,0.5092589741821245,-0.21722892536805063,0.09693812955350903,0.33258389941686545,0.4159927112385132,0.08626786148081596,-0.915004047714708,-0.6261903440417614,-0.041918453121354685,-0.7197711819004092,-0.34357295253037606,0.40027679664141286,0.3471942768780372,0.4029601753525907,1.2571440436185761,0.6820934800343834,-0.08630288990992727,0.3647652441886307,-0.8940893172427518,0.32041563712478144,0.4756792785805633,0.33398959287560975,-0.3508274850122033,-0.31952155615783406,-0.8541945517651222,0.05367898152789077,-0.40014278577597345,0.30316699428226324,0.4956900541774784,0.425349720917943,0.1403629838224399,0.3468733585382038,0.303411919860913,0.5499007325930078,-0.19549402612349134,0.5089330230811704,0.41942194558747176,0.5651703495847424,-0.6061853474637886,-0.19641648543715962,0.28702287642272567,0.46128261712977103,-0.5642716899245116,0.0911338958005777,-0.5208608377529774,-1.2613537995845001,-0.8353741754106805,-0.5103706203130187,-0.6090043641815284,-0.6154266808400357,-0.7873094717673463,-1.1858890624719056,-0.31208500431518593,0.2001872446321716,-0.28631450457771324,0.2893690437884546,0.09736528787850743,0.2582570163074819,0.9001659857403436,0.36372830076489954,0.8965637324042888,0.4402378062861181,0.1559818576749414,-0.06727253553072142,0.7263085391655423,0.401668971934981,0.8330153274092398,0.4910899002522626,0.8619499229617833,-0.08205533515083638,0.37863278731364025,0.8179055647059497,-0.4088688891712428,0.4307261457529078,-0.5564380614898778,-0.5897186699422015,-0.36271509220552783,-0.7158491903670676,0.1928370156069678,-0.7962862434764794,-1.1752072127800297,-1.1468014925702092,-0.43220917797994457,-0.1508386336289548,0.3646687581075876,0.5280870142601545,0.8090584526119163,0.24333189030628458,0.9395875825534902,0.7190682593945112,0.1904950521759272,0.6740401679609678,0.8291287481421307,0.6887339613044413,0.01685816543043139,1.1580943021543346,-0.27766123373478563,-0.052932271723695745,-0.019080050359033447,-1.1819531619227692,-0.31639175329582797,-0.0883660899770796,-1.0855976545448949,-0.6488251312078457,-0.1516785636466166,-0.8658255794538556,-0.8234383385583133,-0.8054999750715289,-1.2382700231383958,-1.337356234457116,-0.7870447050029208,-0.33675553700318855,0.3488904458784601,0.10020561258322537,0.25452189390465213,0.7349112516567796,1.2515175892277592,1.6388096697902612,0.8487798269120244,0.3225528086744076,0.24851172832002916,-0.008986393814694205,-0.26193659275526854,0.7446026169551986,0.9993522161135152,0.16830091699987046,0.5089520854183383,0.19335172424801816,-0.8358689603473242,-0.2562519299111762,-0.8912279053873954,-1.0587561107661438,0.1816057367949149,-0.2800581303013037,-0.011548154824834933,-0.9051663906621598,0.49440568734875795,-0.1656879272157615,-1.314371923326536,-0.6222304989900146,-0.1129730962445422,0.4885057544767801,0.14513441529504564,0.1188032263300479,1.0822314847052186,1.3144793931589274,0.14462950117865697,1.1134823237507714,0.8371801373853273,0.47098858834630525,-0.3882354268148697,-0.2743834426669886,-0.26782381702120633,0.1597438624422605,0.5304941379368643,0.21705964092593272,0.8719970630899111,-1.0632733644798178,-0.1304159521999321,0.36323049726513396,-1.0110253915389273,-1.1989309081018888,0.2073599848657963,-1.354688797756048,0.37613425741487305,-0.31854756082640184,-0.010512848829716277,-0.4497005874100649,-0.0735295504990612,0.07942856292384533,0.1657101835919783,0.1547783336793862,0.8119448512274703,1.7191785011491485,0.7870980261063525,0.05152246893430249,0.579168226657466,-0.12261388939327439,-0.4356557276093741,-0.20055859575967233,-0.4026030409660731,-0.20490515726924513,-0.3133752925638602,0.5483220706215242,0.12819967993952833,-0.41826383161880804,-0.5295389008597053,0.570751694747851,-1.1594868689734301,-0.6786700550979663,-0.8804043075388912,-0.8818297433566883,-0.536435799983231,-0.3092252025212315,-0.45206496773420946,-1.394084798009778,-1.0723644544889188,-0.3838771608616325,-0.7047266308843575,-0.29507518971073615,0.43881112571423125,1.4291831994956825,0.34743866828730585,-0.19575370619913854,-0.26195311720415887,-0.6006062271325242,-0.5074421216907483,-1.04974344990823,-0.22796836373261886,0.456981229465523,0.4736762959258071,-0.478538019980511,0.2663015201698247,0.18882308526508912,-0.8349439212688812,-1.2457634854491049,0.40139827196017513,-0.02808106181193512,-0.040500700343475304,-0.4335182834943661,-1.0081138716843132,-1.0636580828750652,-0.16784027958746928,-0.5262170337407821,-0.9055806033002345,-0.5828061812256613,-1.0147591715247368,-0.4171684498865322,-0.030107181901005527,0.7985922370489466,-0.2023333210861341,0.14556760663496637,0.21255983084995358,-0.1279135732842463,-0.16645328537035323,-0.21579658513792216,-0.6905404496179803,-0.018709820903639006,0.17902381770057607,0.4395391435675106,0.7129159381935742,-0.722225630874986,0.19385415793194868,-1.2852171730794553,-0.9105085110952902,-0.4070597730756386,0.4153244675418116,-0.7204644227509354,0.18895530077238507,0.4614188638781195,0.26695937383279394,-0.07070315878912395,0.21014992118096754,0.25307838911155917,-0.2831826026711971,-0.83596710970064,-0.8498584351887456,0.4955399824494779,-0.08743089129610324,-0.530584898291031,0.09563191836810978,-0.19703624931737634,-0.07568972038880152,-0.1604507410135868,0.3085572622377664,-0.01911257956171654,0.3925493167042387,1.002975578651968,1.4779510580078126,-0.3854487861455197,-0.2876478375016214,0.41882755811670064,-1.1399299163239058,-0.40790815951273457,-0.30113341016416895,-1.4245693203727217,-1.032199216816323,-0.9323060466200493,0.04122648345256769,0.7239499031616287,-0.025983730715901068,0.3485997045735999,0.29246403629555695,-0.34478124032453616,0.16484950322795142,-0.06273337402097383,0.1216069654772923,0.24406997307189618,0.10803079426264804,0.55275431448983,0.23717813977339236,0.2304145512379119,-0.22970573789156046,0.5047043252722221,0.6367847076357365,0.34947606482150567,-0.34861256981027294,0.008631553093218485,0.9007275926081467,0.4664011445990572,0.5907112274129211,-0.7420393325265089,-0.17682300522148395,0.2788946298936008,-0.7107030947092433,-0.611185554844147,0.005267951299667277,-0.3906708151295684,-0.5370610635357108,0.29031129543901674,0.4399652924131282,0.6406290753138143,0.5000329064079998,0.7277674231594404,-0.4490705501667982,0.1928949601591677,0.5335843610424503,0.8690331394837804,0.402898739281078,0.3255267964155038,0.06336663405205241,0.5477836269130567,0.46257218770924136,-0.4825674853165394,0.38211325664934104,-0.3268688053849595,-0.17683605911311273,0.5223645993931734,-0.7296902331342763,-0.3082940179574111,-0.8526378500774814,0.11402549836491559,-1.3888818947260728,-0.3254222783872926,-0.7693116478431578,-0.3159568229810747,-0.2245880722614574,-0.515825169730233,-0.04958683169804323,0.16169537190342737,0.1844307467771538,0.3675475418613512,0.17754328813494122,0.07468380864402552,0.31413599300788886,-0.0924264157659328,0.236460026256459,0.43463705942138753,0.414325410388688,0.5461810144215408,-0.29485876176291653,-0.0771742051986188,0.020082977864248387,1.0774478957806004,-0.4374897106405611,0.25739704921187306,-0.6855310326055644,-0.11230862380184095,-1.0798575345951078,-0.8696562118603229,-0.841454204381221,-0.4894128537294677,-0.7524707041320678,-0.5635176903070397,-0.19816828534437364,-0.2461133731718068,-0.3006774060801726,0.11853316205858881,0.34466122818763106,0.25378304548007324,0.1234692674094274,0.5324219083225198,0.31965317688635014,0.1666091973948264,-0.1002827105424184,-0.5971329759854981,-0.09512262158273135,0.050400025814485154,0.4254761994179552,-0.02670925476276762,0.42004257682171636,0.8158293695365633,0.19452123387334258,-0.5642384055981957,0.2075877469852804,0.16072092211301578,-0.3954537941960907,-0.41924575562509975,-0.25627489116083085,-1.1905471490585222,-0.1877634825586389,0.022560753407121516,-0.4788204021254142,0.20909851941521732,0.02669575554643139,0.6020461538183399,0.40751338335100934,0.4274478004064114,-0.2615847540782811,-0.3127391976312257,-0.04754312842944065,0.282960678660046,0.2976199721501631,0.37339412716539494,0.7777163723803772,0.638549026714706,0.8147652029559093,0.926961791751099,0.3581489797899039,0.24707534374391013,-0.2802120962197045,-1.1768033128271307,0.5979966956966289,0.03368117613818629,-0.11074275110954024,-0.2988033492884818,0.6283127650310796,0.1504442629018301,-0.2494727410235514,-0.3639327818414771,-0.66913033703079,0.12048162819029595,-0.24806111922923632,0.2359702544543168,0.48599374275358587,-0.16623011609876304,0.07092998202651224,0.29272438966121744,0.8326169352917759,0.135746919738943,0.3685568574084183,-0.008857987374671389,0.9958322595668739,-0.5736293685104357,0.03627600005614085,-0.49471270409408913,-0.7247448562160685,0.8249718023357993,-0.1241469399643463,0.38904410710445975,-0.5884900892246328,-0.8859395607921265,0.1836493942663627,-0.867771311150503,-0.32743895349972824,0.6485878218045151,0.18891250116628602,-1.1384045943478467,-0.3437198220636611,-0.4644646106734556,0.494458841375523,-0.006700878049349634,0.7020479243577431,-0.5038826672990464,-1.0441767182554031,0.3556826530602945,0.24139781957953663,-0.891237381809713,0.2763644616328755,0.20902351763913765,0.21814987118663945,0.2960023979025647,-0.7329633127732391,0.6452061019901896,0.6307223828506043,0.4380864391134272,-0.9982740478728815,0.06471884298752256,0.46255125963645777,0.4032780092078327,-1.1062104553626393,-0.7309975613665183,-0.37025291584512215,-0.6237893903885339,-0.9391611297478037,-1.08837261475624,-0.7951837586363026,-0.6474573871488383,-0.4684207711833937,0.16791634035128014,-0.7086203935277098,0.27408257510636064,-0.48931577639690554,-0.28340952019899107,0.69477036765931,-1.0793542536492418,-0.1910831268050747,-1.2604704449382391,-0.6139129887546317,-0.4883431878498787,-0.592906790610576,0.5816062584287265,0.5094675200423289,-0.9039209503379533,-0.7395664512976274,-0.6435084788477927,-0.04644342236126413],[-0.2983625886186766,-0.1388698821300849,-0.5121563852053539,0.6156973907167993,0.5574928394622889,0.9157094038001168,0.5697233232830508,-0.01447334883252729,1.0856491984569883,1.1963737263629892,0.35467030406905165,1.2243489372960048,0.7597089800166754,1.3026708897052788,0.6648214257926177,1.1100888891029506,-0.2270457298319114,1.0808380302721075,1.2677629554331271,-0.16240478171854367,0.4049471209150567,1.0311437845677678,0.30576144222663126,0.6854166485137732,-0.513163176108288,-0.25379669349128303,1.3528790080072035,0.10025724264099158,0.10125376105592325,1.3220811506673402,-0.2502381822887088,0.7784439027055033,1.2273498971266517,0.32775295088497347,0.4100535686657836,0.5075355291603423,0.5555363853074224,-0.15259822003662948,-1.0680097308750114,0.7198279294577679,-0.8503282743878271,-1.1714973843282293,0.49161911053209345,-0.1972422260033861,0.28828317341631327,0.18753799000478194,-0.20381246111615473,-0.4857578769339132,0.4588937301107253,0.14094393885989515,0.9009261196962047,0.4467954957860125,-0.00802590231226146,-0.10031468748835175,1.1818394056739354,0.4695697648145243,1.1248082822141172,-0.28849900137775114,-0.15449001603646,1.1671185936915127,0.8589905846420278,1.8592387165905593,0.3465927929311642,1.0923776264601608,0.8081066137206357,0.01502096994472284,0.2276681450525858,-0.31896063340271835,-0.007062905983149854,0.216898149665758,0.15702205350774373,-0.9290853519180862,0.32109123133483974,-0.4312894037458116,0.030122863948686743,0.6100361936690059,0.6527897253580845,0.6547903926369268,1.9627129800730292,0.8957508023323842,1.0741782110820848,1.335869262727283,-0.5214800855408468,-0.230594242068846,-0.08633876220393162,-0.3648940468192842,0.601098000423114,0.5187960741316957,0.22999335935593407,-0.10425533089110477,0.7244686801911565,0.3593154163543342,-0.00920746883014908,0.044903923900560055,-0.285871232054976,0.3107141530769453,-0.24918125426513069,0.14262186771610277,-0.30405494539875383,0.038136582455534626,-0.46743141585921355,0.08824134061251654,-0.6197878745745905,-0.4718831189505329,0.2956566925658102,0.5003909829841102,0.12087013823458657,0.11175791748187383,1.1269837485505816,0.1864601761879865,1.3018243267977856,-0.06164888292402483,-0.0494439718241875,0.6986005437939362,0.41100473607662236,-0.13020166428187396,-0.4293249999862792,0.5003617753896819,0.022372049979812833,0.7268008300595162,0.5645529284041311,-0.10755829650177617,-0.17519282509070022,-0.5322527441548407,0.10361618901315758,0.03973454043983969,-0.39873245686183806,-0.055621518643322286,-0.08418713952680787,0.08969468450532166,-0.38994622051421346,-0.14161293725301471,-0.13257105468310504,0.7044077234296297,-0.08977327532004026,-0.23309190846639583,0.261845302261209,0.14913237524983497,1.344952357658188,0.7362823965033225,-0.06601327331791455,0.3498570647383139,0.1744819986306981,0.187502148650907,0.27384454744697256,0.5439438871344341,0.38463715593015285,0.25270608978484566,0.5074343759744647,-0.03693522679992665,0.015065694295089594,-0.18135678445366737,0.09876621522478751,-0.17481995451087823,-0.20023395122159576,-0.052181560756586726,0.1990288033433588,0.7005538981031435,-0.19187098910475162,-0.40403711426874533,0.18611781896654445,-0.41925039530448427,-0.18316067898507024,-0.7657060721353319,-0.8144638960976122,-0.21598978192220997,0.7471984926667372,-0.23921082968562324,-0.015401516086691684,0.7144436808509316,0.22445144095310166,0.4212656412586814,0.6197949342624076,-0.40211664584389156,0.5879293833992288,0.01615925238665139,0.35647019490161164,0.42702898139763695,0.07576255668279942,0.1292794142924828,-0.2863662287592595,0.3216031200302233,0.14829542326444767,0.05259171951485449,0.2073518842069205,-0.4198949865792543,0.02113911911289389,-0.2558232372394072,-0.18018491582537688,0.15963377326666822,-0.11409475048999826,-0.3145974837833594,0.17546659677816456,-0.7273586577054956,1.2468625238686109,0.8607780914407417,0.8619566978545952,0.375608104257493,-0.5192623782249054,0.2948380126101067,-0.5582837003118766,-0.10964710442540627,-0.3597611473760214,-0.25336790088928496,-0.26280034065806546,0.0860680484666341,-0.44491946541523203,-0.37290426847851993,0.1628347878625821,-0.5424956200600692,-0.21456751522224787,0.43194922465578495,0.5364506205882424,0.055796342935872364,0.07391670084949516,-0.029905761989888518,0.22914250112636306,-0.18730843792061852,0.8920654278394781,-0.6072732367595278,-0.06508893863850902,-0.6847501959124287,1.103224631942901,1.397575006570019,-0.40344599836442707,0.21382877582588658,0.5045581405587718,-0.9087046240837604,0.1734053271138667,-0.6256773528504385,-0.29066504569086227,0.26548176818095753,-0.5023082904113065,-1.0631034302394582,-0.40645829336397477,0.122388685252189,-0.15575028084228063,-0.09401504317001441,-0.12146842919746227,0.6240377243894971,1.4928665026833907,0.7843114932547496,0.32792043393336723,0.673211246792244,-0.23145334633657944,-0.3065791374799949,0.10494847216013219,0.19314513607091507,-0.015810096522941745,0.47168902485119585,1.389305076307779,0.2571962100090456,0.4052380823856464,-0.3478269991150003,-0.5132593670242931,-0.6821790401069818,-0.5904045006469933,0.334945174956496,-1.0929041345717936,-0.34595809785290427,0.16030278200268014,-0.6824671170188596,-0.5772760601583169,-0.1317817903323113,-0.34223634268789227,0.3591561142366485,-0.4464150772499001,0.1215216594403635,1.812154133959448,1.5949721879758396,0.8560521810767767,0.8569190518238268,0.7925505149653077,0.33907138719096624,-0.13492327345451832,0.730619169993796,1.0213500108068776,0.8876284702965873,1.0399452774342688,0.7944011692233657,0.041209645153044,0.06050209844495963,-0.5892020570706654,0.525776591333767,-0.7961643296492972,-1.099946893583515,0.2156808936697211,0.18536722083995438,-0.333927841100355,-0.8231515390907765,-0.9560132162519913,-0.4871553503690507,-0.5152658899228091,-0.8250357413460304,-0.9322021322170289,0.210765595389575,1.0386725485173023,0.7012289146487052,0.9620051162643216,0.6531838868206312,1.4454217164528564,1.2146710603029944,1.3567054583191736,1.3709768108884988,1.4320704428542803,1.2138716143406612,1.38163931222944,0.09940984992508352,1.1951406725030878,-0.29969972854084714,0.5996764898580296,-0.5627466294967913,-0.2945329538976354,-0.5008781187805149,-0.3472609081435228,-0.22801947881845977,0.32598320807372577,-0.7008564663434225,-0.2013322741572113,-0.9917094796503855,-0.21384360913940914,-0.3550022352756134,-0.26536326982264885,0.5321598018630184,0.3919456383628428,1.2712417448197255,0.8827553316891188,0.8662115850319806,1.8014740405383376,1.5820511042372851,1.5276500289588955,0.32833457774367425,1.7630178946458444,0.26414890957954296,0.5198188007737772,1.1797913481689801,-0.5922777096402867,0.897207671266529,-0.05875347238473828,0.4077779573775142,0.6950729832563944,0.5869517466294554,0.32461044212041235,-0.13677317509277007,-0.26419358837560314,0.3878694096357414,0.14966410778175573,-0.30729081723935636,-0.8827430732734571,-0.22682841890245392,0.07027003405129709,0.24983647773278217,-0.3606093373796154,0.27501863783543734,0.03564235469679484,0.6176401120319627,0.18191430243894413,1.5958654223488502,1.5459570639996745,0.8796465842145889,2.041632363380234,0.8722725517601432,0.9919321146126904,0.23988772849770906,0.7426383112592172,-0.4651284665989224,0.4307241219846995,1.0850461716933633,0.9508919381780985,0.5192381990445135,1.1297969091601128,0.16021336256311722,-0.2273933162086529,0.4341881958280296,0.07839968897668562,0.14671938042876437,-0.39724717389906766,-0.7104599512256264,0.46739940214473225,0.2314849622461973,-0.3027425334415233,0.12248772021478149,0.8863305997724648,-0.2940255822472068,0.29243540944254165,1.9086930602999552,1.059984883057414,1.9807097097171715,0.8256954633639447,0.8743162615046327,0.7559068183511362,-0.13043167212307583,0.6134544707268232,0.12577263404577518,0.6718427022859343,-0.5869478005821436,1.8175056545295527,1.28383396055707,1.0242222369049663,0.5672289638067606,0.6305636834170233,0.3262375925407928,0.22618785418164866,0.2543028505616381,0.3645974364650598,0.12429358067233048,-0.4860411365403318,0.0924070179460248,-0.12254998616080146,0.29370354308568675,0.18655774581660736,0.7489954344563974,1.013553829584638,1.154524771102041,1.087078112512299,1.8642061619229868,1.21678498238819,0.9140356014553055,0.09669724347141424,1.0420603035516232,0.05798311071601671,-0.2534900338640349,0.6046947069898148,0.6768481260249973,-0.1015822628150755,0.08131714168806266,1.076255507339146,0.7680252689040151,1.0259992339641915,0.5378020098271702,-0.2842588135788871,0.4529437427135319,0.14878594060492054,0.2977246929817485,0.09154154144554502,0.7251226525739474,-0.23784436927507066,0.5403799977557401,0.7001220720028251,0.7872753887210798,-0.21499319708050407,0.16567707701085893,0.9660679724936907,-0.3086548912114504,0.25505799571838683,0.13603662064538796,0.15103820395462209,0.7791395181994922,1.0534947692037115,0.2626086704195839,1.1415740679299913,1.1914791876358977,0.23896057618378713,0.8768784893832474,0.889326371346256,1.3363423140578352,1.4414794561779127,1.2997043992848418,0.7903289580989453,0.26679156362052986,0.09631453979039409,0.3319426708682163,-0.3130376281006033,0.23895155386881134,-0.3984832121375681,0.44313954356503826,0.7638251416445427,0.7093515467892233,-0.42831382056278217,0.6407087944894891,0.7683977398167292,0.9440129111257467,0.8371162142890143,0.4166203497340006,1.0778554813670516,0.9522855519396978,0.250877958403759,-0.25503067593844736,0.017434711684055297,0.8654130777065203,0.26516752242641456,0.37795162009865535,-0.33347351916454837,0.5023451197542733,0.8088748214384046,2.2488281509959998,1.7075627271042662,0.5911658529557506,0.42074063473991674,0.33244749540267,0.015209595928002112,0.32794829461690284,0.965165753689074,0.5399435906273918,0.5305232821044521,0.1443346499636571,0.29083089009711144,-0.14183888521591093,-0.2873426519744495,-0.3324259725838534,-0.37644084405362077,-0.1317580925994571,0.6424038986243739,0.7991185462400234,0.42134581808287785,0.20149592404624359,0.37732890509480443,0.3662029553360619,-0.7430075102686394,-0.326914616253235,0.06963917109474975,0.8529842867283657,0.33104199628040915,1.101121228525855,2.108832216496928,1.8674867917521654,1.1427299488195013,1.0833065023808168,-0.06268006340082229,-0.16434632347967315,0.7436028757620057,0.5706161514426467,-0.13542884765509716,-0.4179051803300619,-0.8769174580561657,-0.681556587556808,0.5172094418935964,-0.25566956667775564,0.16280293015265015,0.06099015107310094,0.6048062246617396,1.0585777396911724,0.6627018510958071,-0.21447380514470585,-0.9821584674656549,-1.320072319571747,-1.8279064210641502,-1.457816954039232,-1.4280752717564047,-0.09250577965288219,0.051142497504716646,1.0227772535437263,1.0250658929167693,1.243741689886573,1.268065756185335,0.9135608286760325,0.21586158691368235,0.7121734338178967,0.9376657564543702,-0.09193916050646901,-0.3706916756007436,-0.21639334273914138,-0.25586715779676356,-0.6021871108950154,-1.4982739944824532,-0.6555182901810802,-0.29159512744497007,-0.21020187193060194,1.1827305090835796,-0.31714775005929896,1.305871229791506,0.9698007496200574,-0.32149584458864866,-0.28520531092329554,-1.0285525610741737,-1.9568162694144022,-1.9960524215902506,-1.6165339751436962,-1.0340104258333271,-0.7556730195403649,-0.5595567421923406,-0.6903252181453631,-0.9095481753214739,-0.5072255763321838,-0.48796024282558365,-1.1871624578584243,-0.5594627709756521,-0.6843794376333092,-1.1976698193952882,-0.5778528035509382,-1.047258665987006,-1.8379906069961656,-0.4088634027150801,-0.5186693933670387,-1.2125805245361982,-1.4954253558119464,-0.022768156117733147,0.5990618954710412,0.12642622841114753,-0.49254975259503947,-1.0340850996013602,-0.6234795181535323,-0.9177219956729995,-2.43292608453603,-1.532057230745855,-2.3189383512386104,-1.6320929988875263,-1.047947352085053,-0.5923076644435576,-1.800629826081058,-1.2036849957475737,-1.2561604127517825,-1.9420851522658338,-1.26474909992319,-1.2260102662943821,-0.45711707695307424,-1.6623703002990857,-1.4807956537006142,-1.815186929904584,-2.184145402551855,-2.235870961170047,-1.1532916759358538,-1.1275913811813845,-0.3132875539517255,1.3061810472846118,1.2348714854101996,0.8219471852699323,-0.7096257258225726,-0.5591650273082478,-0.6541607331355819,-1.5084552707203427,-1.1597359142437595,-1.6782854373363105,-1.4825579877916428,-0.7675199837872494,-0.9353841667526306,-0.6735242130727807,-0.727941363457461,-0.5503324242501165,-1.1272488225844386,-1.8468472766959578,-0.8710254651843561,-1.1959784740140325,-0.1694821136490915,-1.4660835561985768,-1.2526590659127013,-0.846484801731013,-1.8601291794544714,-1.0906309078116312,-1.3433800244859455,0.04729341197672531,0.5178346519534119,0.2888414023228335,0.7877459250635541,0.41335242031056907,-0.43636104636662376,-0.026885788664051294,-1.0833238737579605,-1.4252191516337436,-1.6809654367196072,-1.3200279843300633,-1.6179253439478694,-0.8895376683242164,-0.21658379034402647,-0.9681542676078172,-0.05823746592966137,-0.3962139723023594,-1.6566695739511832,-2.2693266318225254,-0.05434744906811272,-0.9200793383100115,-0.1033937598015883,-0.606076019951665,-0.46012613569646865,-0.6676883737999335,-1.0012925042017349,-0.8476147609415949,-0.8952591549145664,-0.382663961560658,0.2761772522175414,1.3420011878046454,0.21180022474220334,-0.39144016817521654,-0.07140299643418584,0.27906705612340815,-0.34587719525951616,-0.7652923139844926,-1.379054915335896,-1.0329313436284286,-0.9218297051613045,-0.6875020375382161,-0.6785868964620714,-0.27823088294379056,-1.45272035357361,-0.7833423567120288,-1.381955479222911,-3.083046913920161,-0.6063149564902243,-1.5784564274122928,-0.7577648560431499,-1.3393592164167867,-1.260211208881654,-0.6788187087633262,-1.0132584436750787,0.02185898960526893,-0.5216838589730223,-0.7995128793882931,0.43678985519942315,1.1368315071807267,-0.013880418124170076,0.06382202735573987,0.8390302578471089,-0.548684805687643,0.1413215769708776,-0.07027498813450178,-0.2822331488693123,0.20373324592202302,-0.1819107791032419,-0.24423542012148997,-0.975724524421064,-0.7196394213368204,-1.3594002020179277,-1.3530176817648578,-0.9358472508679184,-1.1252210658292974,-1.4099738073150148,-0.7346729493246489,0.02027141322770571,-0.04429543630020593,-0.31514752376219846,0.0764420217490117,0.6553883403188666,-0.24583776468357654,0.8923036749397204,0.9092257123794582,0.9455607007822074,0.6878952010314763,0.8699650559270873,0.0913840449211313,0.5752294774353905,0.31145090767008765,-0.5579064825982956,-0.5091622739305186,0.09397704953272697,0.7665013861057184,0.002424146080038929,-0.20829572907811372,-0.5338539641671738,1.2153632511759045,-0.16398304938299657,-0.49810526679887257,0.6542406979571649,1.0598627520375308,0.7235192120021139,0.9158553881480944,0.8730011074514408,0.45832816302922874,-0.15275448704507644,1.1576226187043805,-0.16741303592109802,1.021144637878077,-0.026979618688185852,0.7087164874065619,0.3400423691630604,-0.2580351807145451,0.6262727220035902,-0.5900507413433773,0.5930345960231105,1.3955459093957154,-0.06411313218962149,0.40865740667724726,1.3846355725311135,1.066719424972204,0.4454429082154575,-0.3224826791592261,0.2104952983908836,-0.1601400049847147,1.1313762172108266,0.26730055237755346,0.7034115855434413,-0.46428309818703484,-0.5272185758046566,0.7342993723224638,-0.2762832023256728,0.21815034620601487,-0.24280479232686503,-0.48821888464659313,1.3801793923812116,0.8703170185606819,0.43269270122866454,0.8066874457856426,0.694481626506597,0.062360695156826615,1.0223583328012693],[0.10083848243306173,0.5883414659656668,0.15267491068967956,0.0657907463978503,0.9857215057122742,0.6580591125746172,0.13147048519214247,0.24086186581018457,0.8419985104609861,0.7698540844876226,0.7785252038351497,1.1563940030381143,0.7085650636450768,0.9874741453681141,0.17722676051337952,0.8461138116472585,0.857444477207386,0.039271210344776625,-0.43267214783434976,-0.19166073351091542,0.6454113901866184,0.08534606178228119,0.03700878566611328,0.7089450623478081,0.9642843664519537,0.8991334884951167,0.36911663663687905,1.017850215095693,-0.599229611729227,1.1136232019061638,-0.27853950408125855,-0.5289559592105993,-0.1970958845063693,0.8301512380545825,0.891436205911396,0.4088842529728176,-0.19001332169396334,0.9031829223942689,-0.2592380897464568,-0.1322168003831037,0.34646720118743146,-0.026741169658807764,-0.499933422004063,-0.21843510215120038,-0.23406119155115404,0.7256759561324667,0.8073370575965771,0.19768994672097662,0.09258205395615754,0.9159838328887908,-0.4006490693880211,1.389112595162451,-0.2745441891165864,0.013102134236324637,0.06756280925165287,0.7168431830267196,-0.3416052457542427,0.08028136771046512,-0.7140929598134366,-0.19511299271711707,0.005155429434545513,0.65479861278757,0.7369755215251426,0.8949437683145532,0.4566945437397467,0.7216424638810659,0.881394846897772,0.6058079757324422,-0.004585143210769797,0.04001860618533403,0.07770847870544223,-0.0963988580886735,-0.12262561776713594,-0.21910362177266565,0.20156241704621308,0.427609064741711,0.5718437310122885,0.6357270012765331,0.2583963160566065,0.8913709104519424,2.040816045927566,0.9981741417353982,0.9879076145595095,1.1434994904123048,0.03784473522154223,0.17244124652444445,0.4128991205059205,0.3754744631567118,-0.435498797585606,-0.31958605904403986,0.5010118176134074,0.8696482452087757,0.7650601082327255,-0.2759499286582079,-0.26984330830685505,0.16901349750222794,-0.07367999141013903,0.2606156803415787,-0.15100319149495914,0.5332411220977891,0.23901533335076014,-0.3230215346642262,-0.4921949147900306,0.3081833868143423,0.6029116256946481,0.5898989648567556,0.7879932871237872,0.4886925608468782,0.8536962920386174,1.5815955072248713,-0.11387746133868298,0.2832020978892705,0.6597993810070285,0.8902752185658098,0.14191218989448384,-0.34107368075940586,0.3593217345086323,-0.09507552139793232,0.4460305646058474,0.7278553584611324,0.09937333961859339,0.08152169333147,0.07054409146024809,-0.04641630431817544,-0.05701467152904974,0.12467196905810521,0.19813234656235637,0.06390159737242873,0.11447865532232221,0.35149248349612383,-0.24043135179786912,0.11146413549044504,-0.17578026474153452,0.43247477489322117,0.5414890986187231,0.5456474695526695,1.2365039313788144,1.6459712211217092,0.8133175209288687,-0.15179139801230782,-0.4324424864813163,-0.7951273138929433,0.7017120401045289,0.07351230509485987,0.17367547984076553,-0.5925738786069121,-0.04023769199549224,0.19444505647146432,0.09032442789284374,0.17088383545686436,0.08280600134181064,0.02326347416163936,-0.03776457575586078,0.15691105880609782,-0.5318496866802342,0.3043141283685981,-0.13009305532584575,-0.1465853801924442,0.2772811543706898,0.17687952136614357,-0.4272890147694903,-0.13014435021896456,0.36085413153150464,0.6547847533802793,0.8530084057587559,1.3421746126165892,0.10189337847530297,0.6762633913613695,0.10521813347866504,0.6975280260143769,0.8397265128702099,-0.6458746591342496,-0.6222488507328245,-0.15676531084734366,-0.09192067126615773,-0.1962680869468563,-0.09825532863247718,0.015628644287507168,0.27270167117809324,-0.05264345347105105,0.23303085643875437,0.13484980578148323,-0.013585813970067534,0.47780460888312565,-0.614315275084924,-0.28548164225784045,0.22850964866233453,-0.027511991289643958,-0.482711406229659,-0.6139890469382897,-0.42536071456502167,-0.1883244819349351,0.7751974826266286,-0.087161038000316,-0.4522460314626133,1.134899902226488,1.0314691136800103,0.07743471358915473,-0.2197169991802638,-0.055741895299519145,0.6269014661912341,0.2491451879661948,-0.103294508359971,-0.21363596450031638,0.13935186707834887,0.09340676613907203,0.004062043773921025,0.4251881398851705,0.7593136500120722,0.37291538343180564,0.12977525988409194,-0.5127625200643054,-0.6370157056951768,-1.3843578126406904,-1.452851249316587,-2.230389166537446,-2.9159537110998346,-1.6505551942788814,-1.514477940399197,-1.5136964084098985,-1.2075893718057205,0.5057268264622514,1.0730307400628494,0.19142448911662238,0.6791711578576224,-0.2598131962572914,0.34454375701656487,0.5789620484237206,-0.07862338709756865,0.1846846345021499,-0.3625958511769501,0.45526637420202715,0.3940887202590447,0.4819450072170669,0.753538978452025,1.2200791202947159,1.0021659383074697,0.660850212862528,-0.9998608350120334,-2.3120068107386507,-3.3860555292959877,-4.386496897222341,-4.095821570645927,-4.859039510021392,-4.104579294867543,-4.82194163831831,-3.7143882160843162,-3.107559827323335,-1.6368732368590546,-0.5888930312756282,-0.22156401081395385,0.02513763124051127,0.7949805389197108,-0.1699600346174379,-0.3935412302102078,-0.07833579903408346,-0.17080624859257973,0.1366474764801974,-0.31390288982230063,-0.04697387936402416,0.4181891401461808,0.35231885928307943,0.45607363225479197,1.0966366052902596,1.0768016183250246,0.6038032262311931,0.20598789939488565,-1.6835865391938354,-3.518584979452181,-2.916090481261286,-4.0528737352218975,-3.8241577329062793,-4.372065653077704,-4.396844843219748,-3.6039303573330215,-2.1038608139048973,-2.0698824857611107,-1.2715987073436037,0.010461440320950541,-0.7273190727988227,0.6609871283519532,0.13143164957288703,0.01841204626758511,0.18174508867768563,-0.27124271545032735,-0.5304072073325115,0.2145037372750292,0.2853487048350685,0.4947815984263853,0.7378344449612855,1.1889091960987783,0.23402102708237207,-0.004971380609043775,0.1357482145316626,-0.7686871285208444,-0.5690697852592796,-0.7738707977331648,-2.347141647343081,-2.8606442826604614,-3.9969690251863343,-4.326624641733417,-4.290894888134876,-3.0859774233400286,-3.3751714084624114,-1.5202857218922192,0.12798233960373706,0.9023523213880501,-0.710827487845673,-0.04195781239712261,0.8885606516928352,1.1319278001425068,1.1215672845451419,-0.1709051229512912,-0.21184730436447188,0.33404081784126616,0.4460297461449857,0.6679177829140309,0.0997798943781519,-0.21937000986913058,-0.2940484996312932,0.1274942710381238,0.04133678206845708,-0.2671837222819465,0.18361500771171035,-0.5774022205450139,-0.666642924980505,-0.5490710070266202,-1.7254420122826784,-2.7292386315532,-2.618193138440688,-2.5240343309891036,-2.516591641068304,-0.5376231075461165,-0.8821502172830119,-0.6128943630492169,-0.320910980136853,1.0227699633856324,-0.13840097149303468,0.9375460588484679,0.43314794314796773,0.5252458271514945,0.47514849408841786,0.7150116233672863,0.4647550756484918,0.265541535300466,-0.171455418421051,-0.0347698449187511,0.15801078611563774,0.6375335468235496,-0.2364654907111961,0.7676950954402114,-0.3994698734134884,-0.06775475956458214,-0.7683517391873527,-0.6368249323033506,-0.8140323259777653,-0.5745210843780012,-2.758953447867948,-2.44422134002585,-1.8146690365461722,0.4863996741008526,-0.39568307257386326,1.1313540326173501,0.9435774655811969,0.5847833927711793,0.1420311547270128,0.6554985951216696,1.4286503304781806,0.2997681330014082,0.5300736488102425,0.7908731423902794,0.3805407099966459,-0.008019393357638592,-0.21405285340239563,0.3852063022959199,0.6944130013215648,0.2959554803054314,0.5918548998927802,0.4021832294756845,-0.28373051525379045,-0.41786813011176854,-0.21399983698526384,-0.4594889241093114,-0.836943586355852,0.09975553183068366,-0.06771121175162263,-0.27302568094444674,-1.1533676685892849,0.030697473507932765,-0.05110914344824851,0.06022601810913932,0.37338661001377255,1.1839545067386497,-0.46321429069127956,0.3910503567384229,0.14101898066774746,0.2608310772215781,-0.12103453179271796,-0.15963326545238943,0.26943061793706474,0.06428061184956765,-0.1571865194466482,0.2582324043334562,-0.06468334735340142,0.20617001537439206,0.40537256612890055,-0.04019237938777945,0.040954741973711205,-0.18581784514149413,-0.3506408182814089,-0.014953095274487656,-0.02359412817117572,0.12129515155931314,-0.29534044794921294,0.4291674545056168,0.5621446803368305,0.2873301880752899,0.6988297693657669,0.09951334312223495,0.7736672320342591,0.15264955729521892,1.045134183141197,0.16624398416242617,0.847214799706369,-0.4289986302306572,0.3662057887157656,0.7856209879749805,0.5638474198716668,0.24595131374200785,0.12219759487305644,0.06719397976424293,0.13855934600331055,0.2910567028856669,-0.23772182342666495,0.20708293299983446,0.08503424597125595,-0.12888964926297217,-0.10323360527127613,-0.3314059629898542,-0.2705473016291548,-0.2182962821457698,0.004625914649118592,0.015357274525405461,-0.08830909260171828,1.1171685563193827,0.8384946481037447,0.17460414403484717,-0.30825730287232117,-0.7607487695046798,0.8410608355241144,0.23343520639400375,-0.3346741365377009,-0.7413436103576009,-0.8004214722491491,0.1517506131890747,0.5392762042030929,-0.010740625478386707,-0.45719825068957975,-0.22023874827807605,-0.08670199710725258,0.3796372242049549,0.08684193444642978,-0.08964701842686942,-0.28824139541518873,-0.0005036740402442271,0.009295005410430528,-0.4639076014901881,-0.14162234537565474,0.11021205176030752,0.3190682835279702,0.0907636534027741,0.5674787112796693,0.9462177494802247,-0.06188648813046001,0.2568710987782848,0.4523879762113809,-0.5955565481363939,0.013475342349793697,0.028828834722398524,-0.2560908888665584,-0.016864449424768682,0.24918827067629787,-0.14015375150989823,0.27751326411586597,0.2735844644500796,0.24031024517029387,-0.23831927526214178,-0.3092713622342056,0.7224736080132961,-0.059554966906508654,-0.11878066513819031,-0.07441028375663761,-0.4570228937261014,-0.22200813277057913,0.1312854762966802,0.39876912985419694,0.2915608342227369,0.14270106061871887,0.45020561201504716,0.5954748375822536,0.7865214694829274,0.5726181094412071,1.1340992986910834,-0.47022720913256183,-0.1100401613380502,0.16052605439233333,0.9857248010695364,0.8064048813283684,0.4940122775388409,0.702545762632524,0.3313499820109867,0.3464977110896889,0.36412888846029917,-0.32335810631501655,-0.0874913386679123,-0.6430961286198588,0.28799612361873883,0.050085257634745466,0.3025463232982316,0.021872821680985345,-0.17797614600311545,-0.3872139084924695,0.39533408263236125,0.1800855760592071,-0.07150936983069539,0.641597275472074,0.03478592772062999,0.672632607460322,1.17662479299901,0.7576245554120931,0.17738968934428748,-0.06795190044429814,0.3668281339947909,0.06695446541676148,0.5548540813436118,1.171476899125368,0.18360170828559366,0.6929091926670541,-0.2284713595306644,0.1169834426567357,0.18000357306654013,0.20793741473079996,-0.2696045114429121,-0.449571005969058,0.05597352818965804,0.17050021548500977,0.24102555005645182,0.10603409817371781,0.266169385832495,0.7618457330804352,0.4846756104926811,0.3546020721119604,0.5569833288918346,0.6216297784235705,0.38000356521460177,0.7142274605688878,-0.07196323838925672,1.1097923777214846,-0.3514789549345702,-0.5519627181527377,-0.3158855677128463,-0.21041411708838842,0.3578709509831524,-0.0822035471485436,0.05635339514234296,0.3281481742643967,0.7133164813882341,0.0936362658335339,0.26276254148768796,0.6233422323957344,0.5488578811181644,0.03411002364977325,0.15079640794501947,-0.16443717476062783,0.03950517024942794,0.40150277811722157,0.4660145034988861,0.22702834218424503,0.4476938629189439,0.4272134494615657,-0.13964263239077104,0.17328726062255917,0.4058523367186065,-0.46402945564984166,-0.4411739024634214,-0.05061128153578762,1.0577592156227027,1.1669955999498476,0.7103214057738111,-0.019344283742129147,0.9687661697547676,0.3477052358070272,0.5243060172209906,0.5472001891760586,0.40120519107315006,0.2373154155028411,0.1593305813687349,0.34274572151440774,0.2510291386658087,-0.0090240041079726,0.25389614424435675,0.36926750285359966,0.3205276714215773,0.4590881942755998,0.5898143163212524,0.031309337201118496,0.6269466564632109,0.45943276913231623,0.9529925690323552,0.5967163232347915,0.16126158283709016,0.1377836436169032,0.22915455847293914,0.9901539959604186,-0.6229415371127499,-0.3322302835615644,-0.4040999656499992,-0.5986369563835285,1.0236238125730277,0.36633238849000377,0.5283297627866695,0.4685040561100104,0.305873736224189,0.6964967692461882,0.0739939354437496,0.33638077813268036,-0.022317025958678786,0.40704016170637647,0.3091661071382149,-0.07701979449301716,0.590729353659215,0.03573349165199271,0.366307339869636,0.17495665942914973,0.3923885468363912,0.5425456616375225,0.3666668308667504,0.2628256249627544,0.8209398354446688,0.5178688420394212,1.033591509565176,-0.514207908902479,0.9639829802221195,1.159957184071272,-0.47494190161188693,-0.6750639240611691,0.5155252838123553,1.0742119821241616,0.010895313461113162,0.5853409444117026,0.5448572524965108,0.5121067745561818,0.40584363386292927,0.5018222678424593,0.1033970982909446,0.16746425369957693,0.14479427884620538,0.527239240309633,0.3962077166621472,-0.15417288230173898,0.1268142815567531,0.10901603765000831,0.4100373247316426,-0.27325502831815135,-0.06407717510725756,0.17316370244956042,-0.7922407999434471,-0.3282793451505586,-0.5145310679577049,-0.12929794981251894,-0.11012434544825392,0.3134309683585355,0.5819759259909708,1.1019461414583238,1.5984575405880193,-0.062373282624396086,-0.1148473066357923,0.4776071081630354,0.44614522328035827,0.612921212192397,0.3047864322384359,0.40068456067788416,0.23947788513878415,0.24818988907866446,-0.01868061756224363,0.01521997577403118,-0.11758640789499966,-0.12038323754064172,-0.3025412430829251,0.3658357085718919,-0.30687648316206534,-0.19510263583528428,-0.088059408038341,-0.774212078211914,-0.4476252221104083,-0.18702077035312797,0.8757393175013731,0.9488921980327094,0.3265579027775151,0.06293968301091535,0.968038498880977,1.092047193136679,-0.1843755243968179,1.1476253254657818,0.04329007081358948,0.5279767855164916,-0.12037319620247235,-0.15210189612335126,-0.02659964675184848,-0.043212593409163315,0.21460696941399468,-0.06646349200116866,0.036933069287568995,0.24382956716965168,-0.0755414979259069,0.23256482668726094,0.10702632515924354,-0.009548968931229524,-0.5455442266858724,-0.8293127302633817,-0.8283714875351084,-1.1015579345407405,-0.74936845214411,0.1138597800354189,-0.6207405735968743,0.6076667116136005,1.085279368375696,0.816132628279486,0.39835894872049366,-0.5253886284828478,1.0162796229262305,0.3666078841220339,0.6617208056501237,-0.5972574793658832,0.1617349866661281,0.007095581861401709,0.12344587600638039,-0.7579621690067636,0.2563581537779643,0.2875623425007205,0.927619409254261,0.6508529263847304,0.28650700221760855,0.895542676052483,0.3330092012632357,0.7313023506405857,0.41081540352859985,0.7906355759147375,1.188649757859218,-0.7057898741646037,-0.734902084209759,0.6297430385104629,0.6045620854096031,0.6631101703627086,1.0916330414381386,0.9692812687636386,-0.08539110751454732,1.006988653922615,-0.03149107565088162,0.9221513746005842,0.5838739311309346,-0.7524133896171522,-0.47800062385602643,-0.003089439584772466,-0.24633088392811117,-0.7150565836121007,0.10458046296512605,1.0936426851464898,0.32314273358158746,0.42772157883322376,-0.007438313678902636,1.0575702484095864,-0.631486831520759,-0.22226383779615302,0.03125723267186786,-0.23706777916464508,-0.11243133251514639,-0.746840942992603,0.20739748944559708,-0.7671526287467308,0.9920152383881348,-0.23408190357534345,1.0080696628528938,0.333829879456739],[1.2052387898401442,0.10458633723500486,-0.06176518655844158,0.8285714624172237,0.3711216376549414,0.8294476167025558,0.139051980828341,1.155517470588595,-0.650297919166477,-0.507306498286987,1.0548439798721263,0.9838485759197321,-0.6579093484888071,-0.07594955068272828,0.647285358775027,-0.3783757567715697,0.05521448048158805,0.5770077442232863,-0.006352911281646313,0.03291479961235438,0.7115212411728559,-0.537126176350407,-0.18419842807220113,1.0583645934100108,0.6750449866926908,-0.505056737732699,0.20667574653332352,-0.4522997399514795,0.5022066181590991,0.7250822147526558,0.5603921108904728,0.32712423268129487,1.1881556589708897,0.3988329309030626,-0.3642090831122898,0.9954692273067515,0.29079243027570634,-0.39389824692307296,-0.3051277358905441,-0.8429875730036528,-0.6572188252962818,-0.40365981011164515,-0.6648023387522385,-0.1282602820544452,-0.16737148827736517,-0.5809597346630769,-0.41917186764312464,-0.28594699871983253,0.2502782720205369,0.5983316261043593,0.5397106639351702,0.62759807416811,0.6760215148851654,0.37546755992216824,0.8730471920151776,-0.5267377694206662,-0.06265632908363625,-0.2654459604912373,0.49315758192862685,-0.33301536386144365,0.1850724710336035,-0.9776173779411388,-1.050398652886474,-0.029527546816853985,-0.9265244583230751,-0.2417532647107678,-1.076200437862942,0.08285144857303274,-0.22665768565057048,-0.16867826087570703,0.2598316037596463,0.09519274844203814,0.46402241791126486,0.7768513663876349,0.2709702895645878,0.3164937845977677,0.48151187106017956,-0.001064075072563738,-0.6376296508852098,-0.8830005137829201,0.4030499779825657,-0.3127762432071183,0.2792562014381937,-0.10609304355188996,-0.13490335746810503,0.29930061195338203,0.4424783132643379,0.7742996548877871,-0.858822891085433,0.4462411956678868,-1.0380894422094884,-0.31575208538416966,-1.3164272310667657,-0.1966916305615424,-0.20068540650128555,-0.5382700877369224,-0.06771699617680102,-0.06780085424829559,0.16644662127563484,0.5443987518460648,-0.36985211592621353,0.024417959053318807,-0.3678934566492614,-0.08568524218932216,-0.13648411164301869,0.05397521628844302,0.34406984673383784,-0.16994484248725814,0.9526818203489059,0.16820438905007262,-0.34833838671283995,0.2329210527915281,0.7505882017605244,-0.40137537921600674,0.5414100492621866,0.29508837778192626,-0.26411960738978063,-1.013362017167328,-0.9801135769014355,-0.7760501757241582,-0.7520152547009789,-0.1952303907654907,0.04276575236515102,-0.0323047160228426,0.39219156597175925,0.010540848888098139,0.7567944431063789,0.21438897720128003,0.04954546965734826,0.1329449995666296,0.4863625195129863,0.2539155327565214,0.04200994659486948,-0.5226587582539934,-0.483350200814714,0.24941571974676677,1.0484400024776646,-0.8567664945047908,1.143403711288807,0.781862651786639,-0.4220134539111396,0.12451505555635138,-0.7431754100267917,-0.048018123261097015,-0.9577488737368285,0.3512487407561437,0.18938251935799227,-0.2574992777863753,-0.1470308246389244,-0.26150499273618394,0.12686642952132923,0.004851380015142551,0.6931726708701783,0.269160632794331,0.5615419532290804,0.21971986888633793,0.3303244397859093,0.6585550531402525,0.7089057653532449,0.6039797375800227,-0.0020633595576622526,0.4627048193329322,-0.5489838974512802,-0.17590420681912336,0.16036010404605058,0.6786095648219044,0.9069974593906013,0.7273707835186481,-0.2084058892431457,-0.3173010957905064,-0.17333370747303026,-0.4523157227145321,0.1835499233584523,-0.2890323393835679,-0.6227991643289572,-0.6479693810468996,-0.16743482734957435,0.34861927629400347,0.09822925249999176,-0.5540343084657582,0.02539342810270445,-0.007035944518696647,-0.004233422041705833,-0.08847772805032297,-0.6836631244232416,0.5791516925313481,0.8422172364734104,0.5242770916680233,0.07338229363098683,-0.49999153127034557,-0.2578078232776163,0.42427420947565336,0.48637774630069897,1.1822284596112238,0.8322276769876901,-0.6335750965968298,0.41279802859044795,0.14787821545610622,0.5543560549386455,-0.3590466089460432,-0.37114890694549013,-0.06811558621180533,-0.6353951871884853,-0.13759207533033146,0.02875304639871563,-0.017660476413931214,0.0037290928578755395,-0.25440121592203824,-0.18503122667103886,-0.09989865985008446,-0.565086899793045,-0.9977884770307794,-0.09419623513967301,0.06930629876678401,0.2535722090530604,0.24921411498945478,0.289664195293192,-0.05525207207303268,0.5222771105404402,0.08140265913299014,0.7000160883003567,1.0901887565666266,0.7666725854755078,0.267541820266936,-0.20957623203179057,0.9847368214800173,0.4831116836671677,0.901547540369312,-0.21868431415423778,0.09410788140142587,0.26957218836909347,0.00631165602530616,-0.1384367914852411,0.1054855179627308,0.710611588264826,-0.7645165298569336,-0.27776489415140626,-1.1962819764343997,-1.4503090861833692,-0.7119846207805176,-0.5001337953814629,-0.10194305205292713,0.46660044475183576,0.19013291051419967,0.2345400307939066,0.3473683799436198,0.4283056864259716,-0.016920638198945324,0.11312528928853877,0.6247005685187875,0.7579170878370199,-0.22737854687290024,0.9131253179279101,0.06304198238034113,0.36803887848652506,0.20404127748311815,0.8963459970385234,0.542192220319851,-0.5987446245895972,-0.005839602645979971,0.535951358874772,0.8588466484666222,0.18336718575204097,-0.2413001626571963,-1.2824575755799015,-1.432438467784133,-2.019048150425364,-0.8428553927004497,-0.5953897585207966,0.8199594872756897,0.49342450604610866,0.43529665206897655,0.841347757209989,0.7409647323082104,0.16562939110934358,-0.30164874305873485,-0.33753097662431564,-0.6328655762896034,0.4221701060114427,-0.5641204862167396,0.8649303059916912,0.1592548701375414,-0.5161817062979022,-0.593698285081315,-0.27591170339659643,0.06349111689704626,0.24654741438885286,0.05824835891681367,-0.6069129281997183,-0.14669432213062644,-0.4200230241259117,-0.654315637109997,-1.4772815562616683,-2.1749886175939688,-2.459693536570782,-1.2837216291351072,-0.7664931124833112,-0.0527694017004968,0.7445347384688059,0.7455763012627185,1.0167440979013025,0.3290545535055834,0.060081411310236685,0.062343723199063915,0.3096788999692547,0.1161040766677463,1.0081642069480885,-0.19971421141543125,0.615437652695611,-0.5717326112873226,-0.32324638762229707,-0.7628009007112092,0.20868191002349568,-0.6197219416090586,0.144057915272278,0.2923419759049668,0.31739080565530425,-0.19559925583455007,-0.1471483633829604,-1.410639689814129,-1.8270164289988162,-2.6689237718572554,-1.3462916109869179,-0.8444633931087524,-0.6500321021615133,-0.3598069807515268,0.883571265281448,0.7445368381072877,0.5671066355385411,0.0948579686447838,0.29308121409079585,-0.01077514608951432,0.18374981959802386,-0.7911384926294751,0.8595887556539158,1.0403807139732784,-0.3488646747716934,-0.3712373241900236,-0.5386670457035664,-0.8455985118839539,-1.0958938755691308,-0.6221153408491555,-0.5614474920420593,-0.3032367213431128,-0.7235140429376803,-0.9616333428459136,-1.7252890887474917,-1.9349173093891294,-3.1810197285290682,-1.8881176838280145,-0.3990581323910896,