{"BiasWeights":[-5.173851697807692,-2.2522341583722594,-2.0211270265815147,-1.2949204419365627],"Weights":[[[-0.8824734381653074,0.42587813970353705,-1.3674810490287488,-0.7672191514349964,-0.39989263041493206,-1.3453495319546085,0.29548931816763824,0.3950098548192357,-0.312426359711368,0.08005679105791051,-0.8892475400404578,-1.4082682532164754,-1.448015466714132,-0.11263175191568663,-0.6270591621282093,-0.5145192006073782,0.19347900795827666,-0.40018495673875665,0.024490200752668816,-1.1772496903077458,-0.8811304961577957,0.1397880696542303,-0.974194974799647,-0.5159694631061511,-1.4809782625421213,0.3801209167616002,-0.7901356421234136,-1.411237852081137,-1.410118240295799,-0.2053460420934865,0.3789628681799546,0.19621556916861468,-1.0277781620468505,-1.5781802535499065,-0.23563507436875017,-0.9241314728198695,-0.5225992591284883,-0.677585591530161,-0.1889716873480394,0.4110889014821333,-0.814193139212058,0.16653870299674095,-0.0332494386003584,1.363408624556794,1.160521360116463,1.7286748378806962,1.7380388806021747,0.9263675275096693,-0.7750407835761566,-1.191740077179264,-1.5197694025173922,-1.4546323053126267,-0.14427757410380476,-0.7890732447434896,-0.29535291887225557,-0.5656548617116355,-0.7066538264409201,-0.6185173369450496,-0.0023488486957197996,-1.0874355427271836,-0.1709639876906671,-2.1174587803148515,-0.9244401518139541,-0.4507202957921563,-2.410701781577426,-1.7166515487066716,-1.2466894959749026,-1.7476621370669672,-0.3366565005188005,0.582638693304362,-0.07687418022865115,1.1674125866424077,0.9994878105929215,1.8092535687597222,1.7242443282267488,1.2910239157543089,1.2762220660513823,0.6095355245947471,0.38415077443074463,-1.7069691928211637,-1.1008041585700856,-0.6823886413550885,0.18825242101048967,-0.7845294257422941,-0.20936274229609309,-1.0611973056679183,-0.1851850893996831,-1.4126972234438506,-1.1223408730895053,-1.7348755407314378,-1.2422677563230724,-1.8589473715212375,-2.4029774912328117,-0.047860039469676076,-0.5364482399069277,-1.0194862916591747,0.320112934048344,-0.25068587893000066,1.1621498712472804,1.0683825480118185,0.6656062151339986,1.372756792657391,-0.09229887632941328,-1.1552440318813966,0.3742022298729099,0.34154104578143535,0.8426873280752001,0.14471698114033657,-0.7754028625087575,-1.6197812515053516,-0.3732675149781368,-1.2411786721147973,-0.05642436790667683,-1.3907050956727154,-1.4327127062977345,-0.9279928542775439,-0.5715704675382269,-1.7480111752368044,-2.179416915042771,-2.229051423900278,1.0530827564040626,-1.096210431956709,-0.7226141932388948,-0.08143888227685754,-1.1497629021725202,0.8719998501789117,0.08051851461891661,0.890774393659571,0.8342201900068871,-0.1243593751698933,0.36775655994866296,1.6620031450981045,-0.04112735008358915,0.18224068314406436,-0.7383155336556246,1.092556283772136,-0.15782908464963688,-1.5080730567553895,0.3170817871323246,0.3287517167427264,-0.014425580569692634,-0.311536556563725,-0.9631669730965082,-1.9211248208659486,-1.1443675735238554,-0.36606574111763457,-0.48184253118983955,-0.6121710211699521,-1.2383767554986664,-0.009334617523676961,-1.0779684731243595,-0.027759930076964284,-0.13547902071708215,0.45710079780308954,0.3097685348368679,-1.0962482147271972,0.26320905894765406,0.7077639804389684,1.3936282954954207,1.1089933510939167,0.6689681550662816,-0.002540306218300626,-0.5470332630447925,-0.6582414684713939,0.6070270155958427,-0.28717412561793204,-1.1361560511905084,-0.43139393199386855,-0.94200553806212,0.15642599507577365,-1.0798238994439113,-1.4914012167346014,-0.03428642979264836,-0.690387823576298,-0.3179233704657752,-0.9622600137932192,0.1863616258321817,-0.776485155286069,-1.0467555903332124,0.16146567666088069,0.31331911814306235,0.36328936212600826,0.2765825897657703,1.2934984801344762,0.7612040307020523,-0.8397137582015716,-0.42115915763416734,0.7370818925914925,1.017932555321438,1.4814623358262733,0.03874127590744133,0.19518415483051524,0.2504627313132385,0.47582137203730096,-0.7214013538757595,-0.7760789450946963,-0.6497990591552343,0.24458143916787398,-1.6327220236015145,-0.4512600899291545,0.2482971224633148,-0.5658950972120589,-0.11995007051197129,0.3089714073086294,-0.9830721960017379,0.26682606558062083,0.8444242737573665,-0.3632316407283534,1.1050927406912339,0.47248079858735087,0.40023882695022495,1.0093395604717201,0.536915279105888,1.1031119717707305,-0.3271782764948045,-0.8671720147261938,1.252981810363171,1.6250561992323664,1.4293672937520705,0.22778543482542576,0.049548338470081305,0.5928694787669568,-1.3118256091528733,-1.3991092377206034,-0.3389318509543364,-1.5474228886138512,-0.6773089763390825,-1.0616530284977126,0.6911214443896848,0.525908900434354,0.5412238727090346,0.9183417378587121,-1.0633159527949858,-0.0055894508298900015,0.6130521454731173,1.2868540268621247,-0.17686269995616785,0.09206277319297043,0.9588999421974067,0.5284129530864193,1.1193002022068141,-0.15648719202415204,0.539429878961827,-0.03724552291057104,0.6376380258786465,-0.11658798779028107,1.673306677842849,1.5379043982106628,0.709981187211056,0.7399848827747716,-0.9240884181558806,-0.8425620143369048,-1.251254340923833,-0.7113681492799078,-0.4200905853836388,-0.1430316229648417,0.10414306657577432,0.9232519389633608,-0.35672906493842726,1.9890729806173173,0.53861868835686,-0.35452962873200333,0.9316701823110858,2.123247928345369,-0.5894551936916385,1.0555867449358458,0.7069335406124252,0.32903008199548617,0.5448669299023484,0.9550339327439413,0.27309878471960297,0.5514942567239179,1.1396705510726637,1.0736177985213191,1.7019495380703964,1.0744934855907082,0.6157979399163368,1.2885711591029672,-1.2834072157997034,0.37928418862049906,0.043609944484998574,0.5140902330533469,-0.6396613050079631,-0.20155963757491063,0.22502620825033445,-0.19289453164629897,-0.39257996350145385,1.0483667879407739,0.5249664403603448,1.6786080030676278,0.044686517888774466,2.1413974294739155,1.9881261945416422,0.2134620229679717,0.6767965453702403,0.4662827525920712,0.8797851492586536,0.7711858508991418,0.7277893633978214,0.7700022177331418,1.6635520331832105,2.2720646788639054,1.6154215507518,2.7456954792534862,1.3211432414486617,1.743886199461371,-0.3609757920414475,-0.02371330251712685,-0.3294983462902663,-0.44144851214209696,-1.2589387613965648,-1.094878999694491,0.11517325448686605,0.9334258597145617,0.18248893922750994,-0.36163390682864405,1.467269903851023,0.8222886980070013,0.282354579794062,-0.21697229011849814,-0.24786603415935862,0.2350694478929759,0.5344903690896964,-0.17477206530141684,-0.638077295054595,0.44101145575963746,0.05168109370770416,-0.4282454265878605,0.6573738155672373,1.0017029992218338,1.3381509077906737,0.38992256551387455,1.4562679253754998,1.4389769892870494,-0.7227465631880794,-0.3326103653314092,-1.5166882965193982,0.13002996212004483,0.49898645661815266,0.7237146748841942,-0.9488518656374729,0.4872983371393631,0.48871443808399667,0.747430727152108,-1.0675884794689432,0.37901709458473776,-0.6620562278331352,0.273210691492171,0.09218147642302572,-0.9073082978168644,-0.5637954174216682,-0.04392385402080136,0.7656865452133603,0.7577756296322461,0.01583665758660251,0.4297390712134717,0.5503544411586407,1.790873402894833,1.902961977371815,1.9386168546676268,0.7801288943996613,0.5230243057865709,-0.7799295467100129,0.23090498887893263,-1.24420164554189,0.3813099991634093,0.41217801805768284,0.9605505851159339,-0.6988248588849609,0.8080904931919476,0.4214030456275131,-0.5017443117039533,0.84123818290943,0.45216792865198285,0.6458759712916755,-0.6260680121612977,-1.0702418606363253,-1.8569667996451114,-1.1847933372839796,-0.20884541815624838,-0.7515194818290298,0.08296374705840079,1.8506269546695233,0.39192448263726265,-0.888225371590258,1.300164038647704,1.2399600403305866,-1.1468671431458632,-0.9542397127610527,-0.48383126071478905,0.34816525083795913,-0.020603308636927293,-1.4617842942632047,0.09233956977331961,0.2565286521342896,-0.21887005932470607,-0.6805343078141238,-0.033878911443275636,0.7902977616488633,0.12435928760624874,0.658656228134959,0.4757463863071382,-0.4432872753266682,-0.5015903813910735,-0.34800873437916113,-0.6018395746407662,-0.4722120111711778,0.13505843039630797,-0.29720459383513564,1.0438004757144135,0.46222565640810015,-0.5099120881859175,0.0365408752525754,0.48487347303662864,-0.5404043461993192,-1.8227982012952744,0.5113328883207725,-0.3769497062432864,-1.25414255663092,-1.235604399166681,0.059586043324190825,-0.7407211016087876,-0.40278866648925826,0.7437623668627674,-0.45247380546065125,-0.7929735676162709,0.46228228892613865,0.570623266794827,1.1223591531392045,0.3716306328940293,-0.08939736255524973,-0.856715627258183,0.45813877843158873,-0.8501249837763892,0.2752315804161251,0.3858488743294856,-0.25608102608823435,0.8770961330767906,0.7678960039861517,0.35619026021316,-0.49724190770240695,-1.2827360049759944,-1.3073111532864155,0.031206552099678993,-1.1696069197822136,-1.367462635169988,-0.22965654572546002,-0.3760803061295125,-0.7979312730812531,0.5443461447707759,0.5495571987813352,-0.8165786951076035,-0.7242936840808085,0.7089182741839163,0.9913377376709979,0.7600839257329663,0.6568251023353341,1.033003383543402,-0.25253813794928104,0.5537544799840276,0.6253576567598482,0.11493039448332358,-0.2634487367349764,0.42595050263660295,2.0563842181317433,1.2661665378840188,-0.32684690563571794,-0.552029026472027,-0.06656131262905937,-1.310975264296558,-0.850196333939222,-0.5990604336464318,-1.0689762333999169,-0.44344036441078805,0.16283531710086446,-1.4241028035971204,-1.1702854039808805,0.7842844295055933,-0.5776834281757511,0.05787042009384932,0.23863765129519215,1.0362221051433511,0.1702199278487169,1.9882926644423875,1.3299559051063055,0.34939115961003386,1.3891648232008265,0.8294942068913215,0.2828159927857278,-0.060183408391644676,0.1107326685726336,-0.09535799413768364,1.5847984465213532,-0.8196086837487822,-0.6031405837795899,0.15997207945057926,-0.672663179827911,-2.1415822871647565,-1.8301135333388345,0.006328257688840214,-1.200844164594284,-0.4012590354212042,0.35332936001080584,0.3987267194440851,-0.9276290108912992,-0.10316708549999092,0.862138566406983,-0.5463468508250798,-0.6169497729690877,0.8286713093156274,-0.17129317557265145,0.9748096963218211,0.5674291388535833,1.2933811708919132,0.951403632604006,0.4790588831503661,1.0562521116530637,0.6714441954559619,0.8713295178573132,0.9267264634028626,-0.23388447134089396,-0.7522651768993611,-0.27250679000531436,0.004694801314826594,-1.4280842720802895,-0.6886475587458286,-0.12315799419623878,-0.1152749208264758,-0.5961138473775407,-1.6387762393980996,-0.4366190972777457,0.007577668240147619,-1.4980884668742154,0.8926059479590384,0.3226439026650768,-1.4022788122273477,-0.8749504318660567,-0.10157740416418237,0.03722679465211203,0.800739506114112,1.0298408472690155,0.0012540019886549273,1.3081250745850372,0.2746066726151969,0.006474757932889416,0.9153301166407192,-0.013123778816121692,-0.04252044304488874,-0.43819609505088225,1.0009349027220487,-0.23962802522276527,-1.4210175593791425,-1.375787533785556,-1.4510373070818534,-0.26014738201358745,-0.8486232614312385,-1.8977053144504419,-1.644157905859424,-1.199567728010602,-0.3343324874091079,-0.9899219616138062,0.6492514468051139,-0.0607458756413648,-0.9646775415799944,0.20220781047616126,-0.23671995325540848,0.6057331438936749,0.81761943663542,0.2899407201236862,1.190510304740452,0.2399788935208307,0.3051184154310105,-1.1773378258469704,-0.8373748157379034,0.480008655956425,1.6495966225845666,-0.44913152675248585,0.1126227777152443,0.3722297019213026,0.07746503590840707,-0.41195065652926854,-0.3023742924316436,-0.40457302578719506,-1.3341033111444613,-0.9048459643986397,-1.1158089459799236,-0.9445349477773384,-1.116354125779138,-0.21893207523546665,0.28018963673925984,0.47142743506669366,-0.13068592018411412,0.05907907160488854,0.16715781894808718,0.30066374166520127,0.9184767755313334,-0.04638158006915362,1.0013634132450615,0.16411045470347085,-0.21307313430809802,0.5581147306207657,-0.18480857676350002,-0.9810932345293705,0.9402724517356841,0.48803313012306826,0.4618201517072369,0.5547412655055084,-0.8115912665935798,-0.8648561610882408,-0.7001451617727974,-1.2351776422213159,-1.2569572186431797,-1.0707343923046329,-1.3070355344716835,-0.31092507889626086,-1.4658047970558865,-0.25627869257153535,0.38144227832387045,0.3655768216622446,0.5706560255703534,-0.0399195085998782,-0.29408394225451506,0.6229166555539609,-0.21385124128726066,-0.4297170652154511,0.14202621923260375,0.1415464918300239,0.09988172516743031,0.11014869306480705,0.45728666869772916,0.6239884449311971,-0.6339868208265792,1.0734115733301413,0.8235984742747654,-0.7107449106198327,0.17147428298939618,-0.909797439961121,-0.33973632320245545,0.11993047954532275,-0.5518902157581983,-0.8390267662798652,-1.6642505155126284,-0.2333385611908836,0.06386281442455773,-0.39506068302641784,-0.6711106847816736,0.7061180535653934,0.3073396430754898,0.041595003012139295,-0.18166346136338526,0.1325281093429006,0.6337256524400123,-0.2002701764127031,0.4722885244858704,-0.09238160314488442,0.7338262446683689,0.1701428048843749,1.2064553514181642,-0.013731271037920685,-0.23061709224467997,-0.5498284234827494,-0.17056313037524956,-1.3256344082491829,-0.3051871276985267,-0.963342201109471,0.14821345228925736,-0.8822009003159027,0.09207616873685608,-1.0736846003117844,0.3368615439079201,0.010539258196320237,-0.6569493413105603,-0.8928585063036154,-1.211100128182148,-0.9721948976438833,0.41343822313180917,0.85120338837627,0.523893378247807,1.7004754004321487,0.18776006188615355,-0.09192635997181488,0.7913074890709895,0.5839639232628759,-0.5477512100380482,-0.5158120570705371,-1.366072702974231,0.2424434358463308,0.4102746724867556,-0.034380247927180516,-0.5267631628847652,-0.6429731395619659,-0.3506305126232291,0.6436795492103544,0.3192178437529132,-0.754670175170121,0.6682581966903075,0.22143003662269475,-0.6675173893160674,-1.1988324181039536,-0.9895555266930567,-0.18159172104370358,-0.42268787547692543,-1.4000508743662683,0.19994316166793227,-0.3598964621055324,0.37723682683759685,1.222519355040955,0.963851919081926,0.6911845159572678,0.3376555741829891,0.6990488506463489,1.4920051467169222,-0.12524560824199485,-0.3862130236610406,-0.08626248364193854,-0.5150410914316,-1.1517249443014204,-0.47571452176297296,-0.02823621672918853,-0.026217682726334544,0.4060111556628593,0.38656180547689306,-0.004797722146472092,-0.28815443838024507,-0.41050646906819876,-0.38593036046726087,-0.26572378707940736,-1.4084037569258543,-0.32135099204873396,-1.1767725248581113,-0.08031373398946955,-0.7005857108498186,-1.150496992525746,-0.31156421251756583,-0.19621137136972883,-0.1444194626604759,-0.39343690349036786,-0.8665737720385391,-0.5668204910767307,-0.6719470196607464,-1.3322528194188603,-0.1384493305861732,-0.49849679082182313,-0.7647885243113435,-0.9427787108880545,-0.7466054405637432,-0.051797851186105186,-0.1394981064421082,0.24409911403073398,-0.9150144170442915,0.2913377717693898,-1.0733171931678456,-0.81672979620687,-1.1665842102553174,-1.5169796714972112,0.2654085466142678,-0.17414068595789223,-0.7303290181337776,0.20889592954751568,-0.20312122328908128,-0.903543518518747,-0.798549627964587,0.15611973720801564,-0.13133163121679353,-1.2574823483029203,-0.2611688266662422,-0.47049697993433237,-1.1485658900441065,-0.5856112846906265,-0.9391396307903264,0.1117801078315467,-0.8094048924657031,0.08387545063720984,-0.7885810277240601,-1.137759616370066,-1.4600857826097693,-1.3240979875883685,-1.1703285814924427,-0.33531350163146967,-0.05241587591558745,-1.3852401979998024,-1.026132308597739,-1.0193196103867361,0.14885432216200356],[-0.6835646781073118,0.8029817128091635,0.021863405182835145,0.5535424042731857,-0.8710049506152403,0.16381901840758445,-0.6593693301834355,-0.9190734651970419,-0.8327679823781545,0.02648403408208868,-0.6345565004911401,-0.0024799676167841867,-0.7939759319165008,0.8786411965155835,-0.6618517211471325,0.07004661167409186,0.6010351566126403,-0.8298404751029386,0.4946905251557267,-0.2775194249952349,-0.4893393383321463,-0.13725655062093678,0.2644701331678753,-0.995195223436456,0.2859393685980998,-0.6771430394516392,-0.9046292429822033,0.5932278939015031,0.6732688824511123,-0.9591450569505878,-0.6744807935087485,-0.8098296742706671,0.3760081081196511,0.4858888424614521,0.23674734292217095,-0.6314712517343045,-0.7443250537375594,0.7556405454583697,-0.597225819192279,-0.022703198378681542,0.23879303100176494,0.15895937649235348,-0.056004964283970726,0.8697441235516616,-0.6221852718783231,0.6887928741943635,-0.6184924992748004,0.45015925271684076,-0.6090843277074267,-0.48763989847148914,0.4270827843420978,-0.4715323263674633,-0.7176596550225752,-0.750619663229627,-0.08134653325355122,-0.17545238280555625,-0.5311879727213756,-0.2770414471882972,-0.21225425330117823,-0.5014956462466006,0.433607149742359,0.0023353493134781233,0.0866970892965884,0.2633333315032793,-0.007169831217194151,-0.8183510920976611,-0.8132534455359995,-1.3531470811385529,-0.6733984416384563,-0.5832410119172803,-0.11000518131135781,0.3099410714418708,1.6369613559693272,0.8971224841478629,0.07437855133726855,0.591549656465782,-0.41793420339830883,0.31519675310278533,0.5270140957864734,0.6237458965638517,-0.18936419857520456,0.42290561908809743,0.6816066022866106,0.8587091020105585,-0.5242143098387692,-0.5361004027239596,-0.7067449548634569,-0.7502254680777374,0.647968218351521,-0.49258036714749576,-0.45600998156172395,-0.5265089818768678,0.09756118650941431,-0.22671612818422449,-0.5270635593105589,0.8478222230884644,2.354981229811054,1.9356828200271656,-0.740022041921369,-1.4096218588270848,-3.0070044108729332,-0.7198324178084855,-0.21040234213760153,0.39192848738573516,-0.31545101150780913,0.02259330345709586,0.04456555075283498,0.1501727251449904,-0.3714109681795835,0.3816664557696142,-0.8216804143618567,-0.2047897545187296,-1.0148828145663662,-0.7199322287167534,-0.3178919660732645,-0.7229501813681058,-0.4546901279721978,-0.41804320103921755,-0.45446359320806096,0.11945082395899004,0.6505616696163987,0.430987469607364,1.1997242529725847,-0.5600429132644347,-1.778124755630566,-1.2460327027802258,-0.17911528627433074,0.3051740842203157,0.9097667382530066,-1.125589582860428,0.2396641952207587,-0.824073102399152,-0.04134309075965371,-0.923875747563488,0.3025310143425696,-0.015356627422814618,-0.33387365330140206,0.5089520371864258,-0.9014913401583965,-0.09265026962141874,-0.9107177964472161,0.7440412556398749,0.3669466814668807,1.2011256121745577,-0.08815842927417478,0.8324347839734597,0.5656923960753384,0.474247118087624,-0.32829709785525246,-1.0914322507405103,-1.4764957311234324,-1.2326733946316537,-1.0247316061314609,-0.20926791391135474,0.3834250717681013,-0.7873834445118958,0.792065915054641,0.6381503080732598,-0.5830628276315941,0.5097969215591774,1.0895182084066246,0.45144032976008125,1.1549276748905644,-0.9633202905884405,0.6830016792010574,-0.500699870711918,0.028538041806973884,0.5297001854644293,-0.5407858954011789,-0.97365935498747,0.9439630305773075,-0.5200237137166772,-0.003474263171007784,-0.23120014828132102,0.20517392937078616,-0.20240559670501418,-0.029704768013519015,0.09544639713029723,-0.7302050665110019,0.3138512223977779,1.4832428188463687,0.7107338451525232,0.09543570929491385,-0.3084399243243167,-1.0949165153952412,-0.39797388735063166,-1.1505074143413714,-0.322243644160553,-0.2531018988345679,0.017154459410027818,0.6405795374497251,1.3187661148629282,0.5581359713599376,-0.7645692535579884,-0.1741783391108246,-0.8479759477778556,-0.9872401467941277,-0.3109079103061644,0.4622374382282338,-0.1020533230573013,0.04446277559683207,-0.1262064345161128,1.9073745963899662,1.3045030566635585,-0.8645523912561467,0.5853612062409574,1.8625005950217144,2.024972982898448,0.35293640342718374,0.4445840425731953,-0.0604244806282221,0.3699778189965377,0.22997344107868842,-0.14189613229450113,-0.40639886245107126,-0.7465659055085954,0.46788479543222217,-0.30637225755022696,-0.3702240171941197,-0.5802465138248647,-0.5077626596381345,0.12131467270114749,-0.22806580044803137,-0.4359451389582923,-0.5347671794877448,-0.4338399287852853,0.5806596682981168,0.796047101094993,0.15883889041103347,1.333552626017492,0.6360568007802403,0.7224160850962286,1.7125045580953397,0.2722233928081029,0.49843638669148654,0.9790719833609746,0.715540473965978,1.4046581672328204,1.4849304862589132,0.8331805357294315,-0.0022777524815086516,0.6013884974542567,0.5442002506363792,0.2642639185206405,-0.43906067655741954,0.10074372258030934,0.11183467746701793,0.4067165035306549,-0.4685424482374557,0.03060568158885664,0.18466678042083473,-0.4323572396926733,-0.053944858236278516,-0.9396294555213832,-0.5702203863494912,1.1519103027041107,-0.1995246454460362,-0.7581352378472744,-0.8683783185053195,0.8881699758539641,0.89383548177501,1.4028249944745819,0.9249303215186542,1.1397256708577714,0.4551496567328438,-0.43788209712335024,0.1092335336771402,0.5844492427830765,0.7895845386118296,0.6191990516480113,0.3217785959698369,0.4310594118983014,0.7837160755961129,0.0031743206593278736,0.822794661195641,0.0005375168183236502,-0.2854886323606333,0.8487298054535708,-0.5069109058981064,0.6104204224926183,-0.557108006654024,0.5698262093789634,-0.727071609138973,0.4698957011036689,0.13337052185390527,-0.5993474329910783,-0.41586941733722244,-0.6409307862927468,-0.17872980570682764,-1.0020662826982183,-0.14157993769101862,-0.3043019696655879,-0.7019975301401888,0.677645917029824,0.9004488150907505,0.8039006518634407,0.9357540830443724,-0.01127348973933932,1.0862340907214083,1.6688265338630892,0.8706962457889328,0.33478379852077234,-0.048456264072478564,0.004885352952674666,0.07783813906476113,-0.24126309647668553,-1.0918219885762126,0.8689300445684506,-0.6253792524932186,-0.9378903904167717,-0.6777325421150392,0.03378768120542661,-0.11285079056935154,0.18778089495200087,0.012966824039839592,0.5414221443116065,-0.012176723591065976,-0.600382524017878,0.11733307018896327,0.458244515590738,-0.03706075890468964,-0.47635696432584795,-0.7680363877222239,-0.47983231412224125,-0.1252569534262094,0.5806086664748806,-0.798340323069916,0.41875789129959196,0.6948973921808191,-0.11076274558145233,-0.7288574441667217,1.2086892127511444,0.25070375074259177,1.5040717423305798,-0.0923851518866244,-0.7055984095706928,-0.08105552149154129,0.9146403668118521,0.6546991308966095,0.4944832808841461,-0.43645527407946044,-0.3309322984991716,-0.8298758091298366,-1.2044570220288011,-0.8681823921601607,-0.7099403188050497,-0.984699354616858,0.21834973994184245,0.42855394781545675,-0.10596400645999501,0.36414047141201633,-0.8315443465627661,-0.5835462761456557,-0.14422461303279419,-0.0013886540003072625,0.42682086698337507,-0.08159466819304967,0.7058009083432748,-0.0707602817972203,0.6115584979640359,-0.4457178762954061,0.9522411575117005,0.6449297246256186,-0.9554751030438328,0.5890555939109924,-0.41533732376254345,0.7293252384583954,-0.36306427318852674,-0.6774588985372711,-0.30067974525162966,-0.01807477110476675,-0.27693060512113743,-0.23045378507072142,-0.6849988302201452,-0.530477984402506,0.8187257361126263,0.8839922919591395,-0.2249735837648182,-0.242662394397206,-0.5633490782051677,-1.4112160025326304,-1.287395048327039,0.9213834515906302,-1.1359277986019285,-1.1262274046817062,0.27465319954153433,0.41634311790685297,0.6736288847037032,0.6827131625797541,1.1478604882995116,0.048812391770392836,0.6886257914762733,-0.6613165720196382,0.3755578509445876,0.7231079993948338,-0.7223818414675457,-0.72390518160114,-0.23581440728207181,0.040044152012032284,0.6606565654415777,0.25255894713645705,-0.6883258625091824,-0.5631364596466337,-0.04467946326091277,1.5432718703227468,0.3464821818172481,-0.5975966215807671,0.9737642733838126,0.8152790574019936,-0.40120722338135156,-2.016244872358358,1.0574309612257986,0.5634097815313818,0.09906415388506545,-0.45074255944413294,0.1631847824566066,0.012740039280906185,0.28794866907904887,0.2885049047816683,0.3789919081502206,-0.6665448483865782,0.8974656488324242,-0.4424609392332647,0.0748431188459543,-0.08011688225409445,-0.33803752019726707,-0.5251281971760174,-0.7151809532333143,-0.028345359957335326,-0.580973499287556,-0.03184078936556138,-0.48947277461722943,-0.6373904321929288,0.14462767519863037,0.4560553819948726,-0.11993763507389249,0.6285488126802706,1.6899172856336264,-0.9251290010840848,-1.443982070654013,1.1592048790951626,0.4560549033185882,0.2914441951066742,0.4341153635946453,0.4174620841044746,1.357693143819044,-0.8429098374886349,0.3349691971358349,-0.27458897427502543,0.7122601312766645,-0.2821141117143071,0.12945609059309174,0.1849321153747279,-0.10269496924350505,-0.002526209014421786,0.6847782105943044,0.3981945980236712,-0.4746208913806724,0.13967914844987517,0.22627572631176926,-0.12182377579565465,0.5077547976177321,0.7645820939667682,0.3350977953854197,-0.19384192240362227,0.08990271764858102,1.6077194203347345,-0.539683656901338,-0.8721605174835471,1.546747062329786,-0.9336961385658761,0.8231897474838361,1.8025987129564283,0.8017789757451956,-0.02393504368423701,0.6542950290031843,-0.32920720811527077,-1.0011856052910086,0.5554228821384549,-0.2074024366032919,-0.7091899675545611,0.8277874086910354,-0.3739923092256624,-0.36883556287779523,-0.17447174349696518,0.036850803866262515,-0.7326527258248431,0.74404883773175,0.19973509068241696,0.2205182678318777,0.18393946643748027,0.5906827583306337,0.16138498127156378,-0.04520289100047321,0.1448645227916316,1.2089795343844147,0.5350595006506581,-0.12604242518593936,0.3065889564280169,0.5511820224742284,1.0905243760610561,1.2043825387644707,0.7560395788651745,0.3797045017022775,-0.689744460206486,-0.28724837675569304,0.7706524148661296,-0.14348482066145038,-0.7809756979846469,-0.20174258498339745,-0.45410449937327974,-0.05507823856507565,-0.608536694980407,-0.2796091890852644,-0.6393809799760544,0.4928067270762642,-0.5059955791915495,0.00428985989002331,-0.05004337677533611,-0.2524268429625384,0.5378402154415505,-0.3520551919305247,-0.3933767774335772,0.8072383185535912,0.18748371892359234,-0.13258698215535536,0.49135311644790686,0.3081427766031326,0.8692599886590014,0.3419205916981384,-0.6197943019317768,-0.9020778652300819,0.5252812051321428,0.522844989529027,-0.9438060204888076,-0.07712776474630377,-0.19302523811873198,0.5936666188412272,-0.7848922328818064,-1.320053294398026,-0.6777928951602291,-0.27295249746473016,-1.1084295499476617,0.10254298734963763,0.3573817437758789,-0.18782383560026428,0.5307586789624704,-0.0946905792739801,0.07944167542457349,0.6953929422547299,0.8574056198789997,-1.2901675910529358,0.3556374941972343,0.0995695173510023,0.3431736602055913,1.0156709454753565,-0.29621583376961713,0.5077509747249751,0.76516981463083,-0.34961468225889364,-0.3626967571977396,-0.8459874437888882,-0.13728124850591059,0.6069064520322172,-0.10012893243724186,-0.8470580468830907,0.6718955393634628,-1.5934249772901605,-1.327964451787269,-1.033109527064225,-0.17231565616939834,-0.9116814009825311,-0.3084781457911094,0.03760504587618333,-0.33632656155874713,0.46146400561753786,0.8836523220224929,0.7163772888224756,0.29782018675096006,-0.8206991280560255,-0.7933198822841511,0.8368228537868442,0.04149863871099701,-0.5424219249575609,-0.5683455985258062,-0.3058386437864224,-1.0368906487427896,0.22202940579501662,0.1700520735550366,-0.8103874752837077,0.7738174952630171,0.7566846331290268,1.4674093082580657,-0.3485272884902138,0.7689619374303509,1.676571458497303,-0.37752956790193226,-2.6372043532476983,-2.7165295261269793,-1.6887886864322479,-0.6359742454497467,-0.2506265371533901,0.3912540464331096,0.1374720982019627,0.12422225573719729,-1.1254632673811877,-1.3291652108722445,-0.17706250777953153,-0.3684792539363482,0.5855889311055229,-0.7538312713601517,0.3259579913426778,-0.7897583906914949,0.5573993997898694,0.7325780870534048,0.06950911188841939,-0.6015787741652922,-0.4455857514051265,0.5670114557562883,1.404512668773524,-0.1379390831279236,0.4263444912695901,0.15180333570108234,0.34366758550693,1.2396605875037043,1.5626233017661761,0.6340069550733858,0.047894600050346105,-0.36866941065302494,-0.3886833355846968,-0.4057624831950144,0.36488228610996437,-0.5505460021075098,-0.9223808339857891,-0.1400964980994601,-0.5269176039975229,-0.007011964595799699,-1.09281977894539,-0.06907394897267463,0.36499922183029176,0.32752020601290455,0.518099671319408,-1.038072482655031,-0.7083292955582031,0.4333273258671407,0.7920497415580761,0.6422088454643016,-0.4319783243927045,0.12282795515386853,1.3188310637035598,1.3199574540375514,-0.10015818634772786,0.9358089901394274,-0.02908196344538596,-0.30170908495183657,0.35147198944735814,-0.18182077510022818,0.13081948320902245,0.26046357778747636,-1.0727744674307733,-1.245598195653161,1.1455344107079983,0.9440879799030244,0.31128226311180557,0.6639466174497798,-0.425892479716652,-0.1304379872958202,0.11175971380816174,-0.5259100673253009,0.012517741570892664,0.32071272489551333,-0.08235526223876287,-0.09050425327971721,0.04974625398745081,-0.41710414253583616,-0.019679752314654936,-0.8525678639118255,-0.42623739592398163,0.2940165837094194,1.0530086460522106,0.7035596780873821,-0.2323017173833672,-0.19806493467507658,-1.9211122967488674,-0.5186058627503651,-0.5778897735520238,-0.5241676442201183,-1.2719197024180833,0.427090402992609,1.6365625949042997,1.3921879881489052,0.38997249518566673,-0.8370762204473954,-0.9391241847809892,-1.5765718317134347,-0.6479044389163666,-0.6269114445754345,-0.4220206307600982,-0.21266791788618356,-0.519673708091407,0.6925536868117202,-0.42060984639575943,-0.18615686862706127,0.477194284598581,0.8657595143816178,0.7481174070895122,0.28136138600298327,1.0251941542627234,0.28364173127426884,0.016700865518559555,0.991003573112761,0.8832140782758632,1.394484064368191,0.7683805778081919,0.8522740433484857,0.35400922006218816,-0.29881143094511226,-0.26685925562073093,-0.9504873229243663,-0.11220857776462555,-0.6065296138660444,-1.1932954719952547,-0.5572661635446186,-0.46030053882113847,0.29599580078103177,0.07391131355753396,0.09608490867258339,-0.04241627172779303,0.43507628679881155,0.45995205666771727,0.5506318927036417,-0.7485193906588435,-0.5257698178421443,-0.19026105715538438,-0.9796923975841904,-0.21693430753380627,-0.6819544968121803,0.05357370160122047,-0.6309896202447175,0.4225591176750619,-0.6757337379166878,-0.3524966823191252,-0.14839951230701798,-1.0728268092382909,0.4984923263994144,-1.0940003930574391,0.09804124859901726,-0.9954505413294586,-0.9217152631953295,-0.929604756101908,0.23242269285505412,0.665320157894422,-0.7246684886640588,0.11555442363647513,-0.677693857150136,0.22827446895009618,0.13958102987961302,-0.11298807431716539,-0.13216111112118023,-0.3832120561438089,-0.46496982423916694,-0.9886117940260472,0.2808083614235432,-0.29399061351832406,-0.9497851067465061,0.530582467386644,-0.8528668874665805,0.7671040673110788,0.5271383298676774,-0.6697006763759868,-0.3006037293014561,0.15658945229578253,0.6103803830724718,-0.5046867013009321,0.022018024288067643,0.11801354317732955,-0.8590465834184166,0.2426207132360637,-0.9193734847109972,0.6069200028221352,-0.7229138117400858,0.48684926917061727,0.8794418251966921,0.08552287108422794],[-0.526941329694456,-0.6646551755778097,0.8508294487388662,-0.8331514463203081,-0.015278625517403804,0.12546683134428496,-0.092123385769957,-0.3585504744228677,-0.7095290148429522,-0.7443513181952811,0.4482043562461657,0.014754873964702642,0.4526579841065468,-0.6232481962398199,-0.982963264654508,-0.005640712311912219,0.8554208424911652,0.3011980326166367,0.9726219608100711,-0.5262121786239985,-0.013158355122627096,0.0339599594411851,0.7315755799805354,-0.10816554797600224,-0.4488659826554666,-1.0225294062261547,0.09519217007231907,-0.9764080934336731,0.09167430952397128,0.3569711977195791,-0.46262362671438656,-0.8760025072040937,-0.9335575823849446,-0.5063841659212434,-0.030086827488456203,-0.12783724454059614,-0.5556834371346616,-0.7372704268173901,0.736060399471608,-0.9555967845148489,-0.12694320213009666,0.6336603016294821,0.6603048487650363,-0.850801870475831,-0.49418632226640585,0.13839704408845593,-1.7680493931177632,-0.6811273606923405,0.2765035787301302,-0.17916236579911804,-1.1092221676593672,-0.3063215280601429,-0.1790123282494495,0.9550235972310247,-0.3406890601794651,0.9459629443002416,-0.986233061847056,-0.11691486939061028,-0.30445575837173283,-0.7070474791693283,0.8992936629789292,0.5046546424788373,1.0649571384036964,0.9855436245717105,1.9402927499548988,1.0202826372236635,1.2643919348596115,0.6426550143168686,2.035133846409028,1.8592446184728493,0.9825872598973546,-0.33504227092078614,-1.9217130145679784,-1.524401545845836,-2.560028186714962,-1.4874250822718729,-2.247014959762151,-2.6312755304934132,-2.4648824865833805,-0.7100423111722168,-0.7644955038385605,-0.6416031824573606,-0.6890698047989653,0.9041406365376342,-0.1748801579802089,0.9966990471459439,-0.6545419968428204,0.6061445577589881,0.5981827729699174,-0.04519226441135326,0.6288060367333786,1.1383789900063197,1.6113406110443738,1.388080178787244,1.101196660167968,0.43273103570759347,-0.0783380560289448,0.30172582295610345,-0.01705432468303724,0.3501753443045858,0.3546451480792604,-0.21874937974024944,-0.06274690702741782,-1.749334608177945,-1.366997366942648,-1.87052682873247,-0.8149587408152541,-0.4597870221420236,-1.070633450789874,-0.3493557727149821,0.452238813510647,-0.9434032614299391,-0.4133791075370178,0.9034009707584097,-0.7241656015143464,-0.3289123318450999,-0.3703224609217311,0.9618041233694982,0.3046148247254521,1.740322229122665,0.793494858718044,1.5122509808453208,1.0983792059726072,0.7393776810423529,1.816440403894675,0.5951649731963952,0.26481239230271664,0.10287942995405237,-0.37857385065835175,-0.9456252891373488,-0.8153537129596912,-0.6240369736196371,-1.3282796768972567,-1.3128577273971525,-0.995170204822606,-0.7202980286627999,-1.486516328973988,-1.542799778157032,0.8431933049093622,-0.8665039000631142,0.2792714502811764,-0.907827466721233,-0.7741747810985782,1.1844589658648252,1.0009480385940333,-0.8471051773310314,1.2968845940550644,-0.10887654070545394,-0.014501480216120494,0.8934424283017346,1.1348010617214763,0.7767056098404895,0.4813181704057812,0.22525745050139634,-0.5579162604961261,-0.8354117326109608,-0.5048528681855466,0.3191150563901824,-0.0724923491455241,-0.20879923954285529,-0.48865443472952635,-1.7432760468659754,-0.7754929843324138,-0.483838071458688,-1.296552348381671,-1.9071179013800206,-0.3960257521100463,0.7913755301125885,0.8100213293744071,0.9638707932598414,-0.5353027181965344,0.515673214458882,-0.7781645397812444,-0.3318799413981198,-0.5350142695753058,-1.1851486355206615,0.12835942309143436,-0.9013192460724314,1.0533223565848373,0.545181756762227,0.8060940456550021,-0.7483803155692963,-0.7490334228591062,0.19270949948984822,0.45102831163296747,-0.4124204494268788,0.3646085031024812,0.37603264918315554,-0.5017997294286428,-1.9994708128975087,-0.5073518774685416,-0.5492206810818907,-1.5145725154941374,-1.4298348941415617,0.6147809369338307,-0.055544491160109705,-0.937538085684552,-0.6792708164642537,-0.6741174387931709,-0.5780665893915307,-0.44800680000760346,1.4669208294419196,0.6709075185958476,-0.9341412812937414,-1.2333253052673012,-0.29908271738685777,0.016726162677849717,-0.5110491022980493,-0.6717826141676873,1.0476055877348596,-0.11179083899772875,-0.46673389872371884,0.2707171519666931,-0.1300647077768572,0.7491933838321477,0.2548465259253355,0.013163848078842971,-0.6205266620004924,-0.5506504349366589,-0.21621534847641036,-1.1541647180153294,-1.0054146281564593,0.0556651203000917,-0.23714296039399302,-0.07211280032963054,-0.9082879587956451,-1.1099038287079526,-0.7637753339998384,-0.6184780586493461,-1.4180975989996865,-0.2681923530900358,0.48582074048218327,-1.746891246230758,-0.8156263058810697,0.40696705898891505,-0.5122330004029955,-0.018577726203337454,-0.026728250104403974,0.5530377092756936,0.2083674989068454,0.8229830930066586,0.3269981521279438,0.5883735929549387,-1.5411026914893076,0.6993801486648589,1.3516085761893963,-0.43422017333505175,-1.0006148363626015,0.11495336602828284,-1.0935645951642412,0.07852871186624781,0.9221010885549902,0.8099950856355648,-0.6238835773996152,0.3899275591009758,-0.8095417012524495,-0.3275076784459853,-0.1725012704186249,-0.5039249997277937,0.03684203859931284,0.13275792537830622,0.8406390080356638,0.6109838767253859,-0.02750477866409606,-1.051500432731014,0.6263731584489778,-0.593441222355707,-0.4474611034948412,1.2323551142855116,0.3581240595081712,-0.0016126013594329675,1.4715079322023892,0.8736337713069715,-0.15812432693764275,0.4722781666992713,0.6957091935218955,-0.6514441677166998,-0.10695576511030415,0.8668314960876348,-0.18136607698567198,0.756798376007722,-0.07169354415752696,-1.4779983481951777,0.3280032651907008,-0.7113984153546924,0.41019375868975055,0.013069308439122289,-0.3965778474783067,1.2829125187324748,0.5482422808191918,-0.33170307969417284,0.44797577588534965,1.2157747378403523,-1.497110536841186,-0.4192286080751184,0.46064172846666446,0.3747345730230464,0.5803721562824636,0.7111085224188005,-0.15765233141859222,-0.584284075145931,2.144145661253821,0.8253955562880035,0.414678214429898,0.5852220730223563,-0.49670085051174884,0.26942912993124957,0.049969814532761336,0.2124887680472906,-0.6690851838287236,-0.19832618013444778,-0.16531677326877753,-0.24034649419412904,-0.983273714450755,-1.539131938020907,1.260430746223796,1.3404279848656908,1.9801620688260557,0.3981941258279958,-1.5846571369447133,0.5261757067608541,-1.0902205859836562,-0.5443084056356079,0.41547408671806096,0.2450197206844663,0.8037012035097365,0.7722156124848741,-0.11004687683614281,1.40972148810014,0.9400733273292228,-0.39123750579636507,0.1437756282617064,-0.6252570857629093,0.6826782790490395,-0.15337420748577224,0.7179210708805644,0.9274651033245983,0.6966313150726617,-1.312652609358975,1.1123195118621507,-0.7803102463621868,-0.23821957946994307,-0.6054555599880482,-0.8373308812433512,2.01159627457935,1.2936210965351098,0.5486498724775161,0.5313254536529767,0.42152295552910585,0.5246359936548532,0.3859415732537295,-0.5488679455849509,-0.26233499203146565,0.25764243551703014,2.538103474323943,1.298149651548362,-0.4625268576951388,-0.9210152195834735,0.3631755918842484,1.2321578866639302,0.30745118761898327,0.9635308897837356,-0.8376766612217467,-0.9542561813264695,-0.8324749000741797,0.06210685998522168,-0.7633116814788513,0.9236529825731363,0.48231572479109064,-0.9375222905815017,-1.1016136936574488,1.563605296047633,1.9287212663289681,-0.38630640517791504,0.4791661446648898,-0.4097834820749541,-1.6904724131013622,-1.912918786380844,-1.0049038638732053,-0.2143992789143305,0.8108936625548342,2.503992048981789,2.816058470302915,1.7291101293854332,0.7527106514134775,1.0377403084743395,0.8334556804067361,0.4090558000210173,1.3854604298826767,0.8949104886282266,-0.12962224640739026,-0.3715405048889763,0.43803213443180145,0.43363844321791584,0.01803637531003213,0.15472508125122758,-0.8157672678607567,1.3917330608555314,1.3753514575392978,-0.12595219171486713,1.709667319982354,0.36180705022301857,0.9044153929667968,1.008441869083992,1.3470969060175282,1.274590909267733,-0.3699937407939078,-0.9298352737708396,-0.3556251015926625,1.8451052881366943,0.018038978149894483,0.6024695426667417,1.15963224260334,1.1589534485387865,0.6927209068963124,1.4843105984823883,1.3144574056804583,-0.7643577423359694,-0.6253304998728403,0.2338462810900846,-0.3046910468264904,0.5502796287074257,0.26971493590988777,-0.7328973867965537,0.25408720356173153,-1.0195671597654465,1.3780184287938635,1.7409256549314167,0.685102028614599,0.6320567220605107,0.9215215587051827,0.08887295177736065,-0.6836909246060846,-0.5919601618599801,-0.41418036563141164,-0.8549068802338357,1.0385400498455888,0.8886498679489364,1.812928071408591,1.859815495719482,0.8621391871600493,0.6588582005524433,-0.4684128576791204,0.06180397361003243,-0.5631189935656311,-0.191209330907572,0.9185421538871165,-0.2503529054566977,-0.6270783236596446,-0.23293397500135157,0.22110204025333316,-0.10570692277370211,0.5511177166638789,0.4520616824985266,0.7867582947310725,2.0370691510743555,0.4036161134737963,-0.2364731434084202,0.7385933133999497,0.5966848034329552,1.8915650709487886,1.4966911548915827,0.16701744369745083,0.657674754975679,-0.18150208655170189,1.6488297151198565,1.2976294730123947,0.8792209119221098,1.815265425246428,-0.22525686660667374,1.5160528319195297,1.0078937260360865,0.36914142288492524,0.6725226695369382,0.6275109640230662,-0.27338623056215594,0.5365453157989705,-1.0041135484475174,-0.641914945977815,-0.8737474900728918,-0.6981958898625065,1.6309375156469277,1.620245226942357,-1.5976566649426214,0.11458070504597286,1.167047939706279,0.6826730434802326,0.48698110533166017,-0.9561109634416034,-0.2324135108746623,0.963728258045982,0.04709572664619285,0.5324783666476965,-1.1350597159157487,-1.011413912886287,0.585228720493404,1.1150057517550795,0.932403967375892,-0.5395705092772309,-1.2656202160045422,0.3736155256554614,0.512451294110791,0.6801030124690585,0.7020580536941058,0.059655822633021965,0.18255607989435949,-1.0769985223086136,-0.47874874947186496,0.07395518621806653,0.6857010789127229,0.27588340546579687,0.8221915702662275,0.14037572690884015,-0.16677015561562872,1.3291583408477277,1.8477523786500087,1.5133128709111787,1.2326283450490927,-0.03074721274535913,1.1039577963193143,-0.5957407622538191,-0.1902582301949656,-1.7142629683901778,-0.4882467077588534,0.3839336050409697,0.35126567677302717,1.2663757805153015,-0.41508011330115463,0.3967788626553602,-0.6739622084645681,-0.463014822411451,-0.5651018135307179,-0.01880580487943383,-0.019613267712247164,-0.9536011866595726,-1.5738283419090182,-0.7805808449439381,0.5898378156706655,-0.7373308734247378,0.9862850760449657,-0.4521090398824838,0.16717914343274,0.87246691390284,0.6384094625192287,0.9956692815720909,0.37087954487267355,0.4994534103861221,0.39241824833218925,-0.48685313715984846,-1.015449410879258,0.16389709173856135,-0.030140611396178647,0.34011406286366913,-0.8633563632960285,0.34168381149895616,-0.3492228699004609,-1.0786753967133076,-1.205716268821091,-0.28657921577514434,0.6525601484837477,0.8819942662654138,-0.697465802091542,-1.411830244063475,-0.5102600045932408,-0.601170130690959,-0.8982132872465233,-1.207660704010319,-0.20967876922961495,-1.0429026220047313,-0.14574106814397048,0.644466212605952,-1.457133575710211,-0.18048077456535122,0.35253439850267526,-0.5809128230340164,-0.35495077979630235,-0.15239961152647208,0.41641979318269406,0.26245076563136904,-0.41405968549738764,-0.6287330398902274,-1.0198017441983902,-1.02569451741283,-0.4001284636790803,0.19522393692471898,0.565872219747242,-0.46039025201815664,0.31521431210824014,0.19183101353447735,-0.4623043086264515,-0.9532024019202013,-0.6432792428930266,-1.0910837628639114,-1.3146782504632644,0.2870490456395399,-0.603924441961219,-0.5787354388191014,-0.4876156381835879,0.7720981093993138,0.6298215455259475,-0.0053904435197804105,1.7504240166949632,0.4052158043923844,-0.42962499778713115,0.3098607732132831,-0.2619523553494342,0.44527535871406343,-0.37433304836207565,-0.5199756280861529,-1.2298726094584997,0.20460144315194811,-0.9684817590279433,-0.9407484850807628,-0.03509546682675945,-0.5061221709258016,0.1357625758687434,-0.11038441702613706,0.2867792308859845,-1.6721993913617024,-1.1823183690231995,-0.6325133958873433,-1.1645010763251378,-1.042953511531605,-1.0441588457367361,-1.93868079503001,0.21756631990985467,-0.5570415332544024,0.4358776225734584,-0.05021112079702626,-0.3260522407649338,0.4785569148220944,0.7959757067453266,1.3619976838344405,-0.1466921113613131,-0.0473027109846927,-0.3520236951651738,1.0116781130028183,-0.3575061440509285,-1.2784413431785475,0.6988871395344942,-0.7859999186939653,0.05828484350876023,-0.5703600482165906,0.32058460399200417,-0.9802110839763095,0.22125103287284428,-0.9413212300136592,-0.6435927163774698,-1.9613086192109754,-0.2800698404937581,-0.7181510193482903,-0.6343013395352618,-0.7977223658193612,-0.8523377972995865,0.14475082314706147,-0.23705798434970285,-0.2810157999806095,0.37152818137476634,0.6135571711753462,0.9826453939719609,-1.124864833360803,-0.11596140011559469,-0.10981413279333864,0.09846838325528212,0.947014903021886,-0.14816472252089696,-1.187606962309055,-0.2905901523733493,0.022479880924646437,-0.4282613975678769,-0.16734588500793113,0.5225852528006422,0.48832876237162304,0.014907847341204827,-0.7976908720506598,0.0378161437196363,-0.7978293103883314,-1.435439165750717,-0.9792540410299703,-1.2939186307909147,-0.31403848457652245,0.3443847167094286,-1.3747205096051276,0.6955610015727184,-0.560594911668681,0.08107311998961926,-1.601714504619746,-0.5639576683696503,0.15222970122510077,-0.10154939633475245,0.017766325101861255,0.08444586895516087,-0.01202821335209187,-0.2407944878370411,0.06781059695346735,0.06472697036103858,-1.1179350850116352,0.8666600941742371,-0.9573687358780897,-0.8234260716804703,-0.0036753557859632293,0.5833482491486185,-0.27501316996812625,0.054143254241425534,0.40205984529846367,-0.3747503092578999,-0.19635646877098611,-0.9165550781590788,-0.5490590401574675,-0.9762846506124381,-0.4814131683785877,-0.6806170773190786,0.9625105200597178,-0.23034216333163893,0.10754020841996627,-0.1892432711622469,-0.3677497013339971,-0.667869277658022,-0.3296713610897139,0.44429711569525304,0.545250304380273,0.17961690635378777,0.6538499093065803,0.3410442540757673,-0.7153120451836978,0.9214499537251293,0.2896036882150934,0.9706353240289417,0.03481122832165082,0.07107360922909221,0.7281308794770719,0.031847841844232574,0.27268902390519534,0.6379995076873989,-0.6936742361359923,0.8778817930401405,-0.5285104596874631,0.6502694888985759,-0.42249528079745147,-0.16140567772494702,-0.8672956178498247,0.9329579083648035,-0.18326993874765185,0.15748394593140586,0.06287376192193687,0.3103484892580417,0.21826369025325,0.08039425156690964,0.37591641579229207,-0.24311714139318724,-0.994185890276672,-0.7576946090929929,0.6515237736535556,0.362597731833997,-0.051848455564639115,0.4534387080959208,0.5318200141585246,0.9077117608210313,-0.8153861482919408,0.5582006825650766,0.35492019956359644,-0.2974283414635016,0.5759237483742944,-0.8806676572784445,0.7980341908292724,-0.8303578571777873,-0.06793389679640303,0.2973669454688983,0.8960633564036354,-0.45178334084292104,-0.3509689372955678,0.5508817676937309,-0.5451892293023165,0.0741914737163736,-0.8550309451773254,-0.907308433369998,-0.44651109208060025,0.8131055130464236,0.0016246063422227068,-0.08740226064559799,-0.9821993794429461,0.5407105228367498,-1.0064337260340122,-0.7765438469237665],[0.4402873624069366,-0.22017602318455173,-0.5669108735478104,-0.29830690452300695,0.4425210511275472,0.10799060382770674,-0.19125827562137324,-0.9526032741195573,0.07497405112935664,-1.0131388796789875,-0.12556687480580428,-0.5601975078743894,0.18865019452680507,0.3446240784108107,0.187875222385655,0.27435602993891467,-0.8277674070923472,-0.9984555543627663,-0.8695782456174427,-0.9641977461122934,-0.4211337918748484,-0.468108533284835,-0.9546577065275356,-0.32041514551767775,0.6925137254605563,0.8689925231126067,0.07080334370045059,-0.5931801483238058,-0.9112915355533823,-0.3088170329849968,0.8237506952845705,0.4011770993919699,0.7532353860480162,0.36949930626191646,0.748469755078653,-0.6618329531769281,0.9513623167959705,0.48547199642815986,1.4195348630326572,-0.6159723300237244,-0.274833892756702,1.4421888963163574,-0.2864631470702501,0.42766508082109955,-0.8057284208308467,0.6498697234153037,0.3113295208687966,-0.22234622939737061,0.9305801644704368,-0.2487403567507271,-0.8403053670240321,0.08601789151390137,-0.7853811847739912,-0.22881064539734666,-0.3573688862881191,0.04476768653579361,-0.4178501505722238,-0.8327717855761373,-0.36460504311519076,0.6646718129552555,0.8039711241982904,1.5047226625463055,1.4523311063153679,-1.0531582482530277,-0.27481335950024716,-1.0644511492408784,-0.7517664128443206,-0.17306514844273355,-1.6544683325879062,0.13184100846451907,0.4379988001426479,1.0581149371171905,-0.7419952936187368,-0.5357595653652373,-0.18863324712914378,-0.776286732128729,0.023015228405844922,-0.49153005821078327,0.029839840909812152,-0.36768122678361875,-0.9710686881291641,-0.8765613587942678,-0.8293961342795769,0.28533488699933357,0.49266404716402884,0.28350506865029995,0.7079804567547179,1.1497673691545374,-0.5133475582233951,1.6812991901602208,0.7391855646434858,0.27877455561271575,-0.2279079376732149,0.5365180101248773,0.8063156602296837,0.6198300110687995,-0.29862136527589533,-0.7543075043906875,-0.42644394616085174,-1.3397081990840776,-0.7633942735272699,-0.6496645738724611,-0.17794586735146545,-0.8489413491441267,-0.9230536611625133,-0.7296043565075944,-1.0007810561883546,-0.13300724635779634,-1.0785500424091892,-0.436802026729431,0.2424360904806123,0.6563756993999555,0.3233962008138456,0.666558447998285,1.143644944742914,0.31188080812494845,0.8205140292110248,1.8709166594376343,1.5836242590330591,0.18895219164826374,0.04132517972056877,0.9682385002055799,-0.14087869959956062,-0.4581493238687966,-0.03012454624785327,0.7314327500627624,-1.0476936652194206,0.15252836908460798,-0.8099868723917899,0.5123232694423412,0.08452384377379583,0.0017324616891090645,0.6072739074233708,0.7803730511411633,-0.4672390267046756,-0.5849225222739967,-1.0882770275480982,-0.9637736924596441,-1.0393416063346863,-0.5354413887419854,-0.47798301546290584,0.2081087247944466,-0.07151255594325878,1.4515518902576396,0.8400808053489683,0.8541844875675342,-0.9897442178894023,-0.37489836463152243,0.38648748769604874,0.551107157556403,0.4644445397137502,-1.0985523170659968,-2.0709624358791405,-1.4569726908059937,0.03227818522938822,0.30417930601754206,0.07981035996758279,-0.3032789107923006,0.482845222289511,0.13821889177190097,-1.0944007049579074,-0.31798987012722885,-0.23147328249047933,-0.2623710943259474,-0.11452690825323962,0.1173754614810986,-0.8757639728142749,0.23240068554045254,-0.1395917909172957,0.31568900415324047,0.697981329163124,1.7097262379228808,-0.07272396672418857,0.42813329458840643,0.5224007645451914,1.12119808169787,0.5004569576810902,-0.12554589212458983,1.2677510195499255,1.8876655227141705,1.6298867301561974,1.9175066513683823,1.575721716762816,1.4219439201565036,2.6667550183372883,0.9469193849154572,-0.255455155878725,-0.11473870359363351,0.46394543648943853,0.10363212534305817,-0.15598739983153953,-0.7308775457315776,-0.3048236588476097,-1.11122626851409,0.44074628836959867,0.14091142820687672,-0.39459291503062993,-0.65516315046599,0.5743469560634991,0.15794489266620523,1.4578226479252436,1.2606899402658096,0.009928291834749374,0.7880392802672629,0.8141213025735875,-0.3564432503096942,0.1878607923750887,0.740951348101224,0.7184825899443389,-0.478863699464131,-0.8109937827279821,-0.6773170751736147,-1.1158821596689588,-0.9422412525212874,0.013311598222069437,0.05902888141036723,-0.3629022687361834,0.7870622976930322,1.1982804242933012,0.33344744150324795,-0.12067079323112158,0.18092929772220057,-0.5252528678512259,0.9235342022372067,0.4848998958405751,0.0714936885488346,0.9815560385565564,0.6079085894687838,0.8312078813412104,0.11621311998961832,0.6124103646611817,0.10920404049154302,0.11152357978274484,0.6341957378481424,-0.3779307001823353,0.5785591033491637,-0.07025814565269761,-0.2980163995860677,0.23546425694369102,0.45559704465544815,0.1582256948723465,0.32682669272361414,0.12744467823156194,0.2777396592985485,-0.7049807502963285,0.035408137343351805,-0.10078451449055742,-0.7578434972047522,0.4285793605559545,-1.193771670995089,-0.679534189836095,0.6200030103184261,0.7398984932757405,0.6579432411449496,-0.19201370318088137,-0.14975939334168867,0.7828317880995388,0.10648209453277577,0.4181305811865897,-0.15939405113056807,-0.5452948763958811,0.15483234137063956,0.9988730011711748,0.657745855594722,1.1406324071575782,0.540883955882224,1.0298426756184642,0.2594431214479997,0.7919905543122847,0.30248411917426743,-0.0006063379221298486,-0.2863485197796429,1.0073831721863413,-0.8246634604925891,-0.6946060325498284,0.6937281374969969,0.5916453651373315,0.11195752115697023,0.8245583966254028,-1.0001068540152687,-0.08484691676460111,0.5155127176039709,0.08892082072898605,-0.7976672108362475,-0.21537238054764676,-0.0686264592489247,0.2729634007200082,0.41793701504735586,-0.8011024866811927,-0.5110712968559208,-0.36579687609342526,-0.5851733090929426,-0.5008788523744753,-0.35492716412633857,-0.06039474780223128,0.13045862578381462,0.15862348514101218,-1.1083482621156389,0.09671523874739661,-0.14712746359356232,0.31832524545401164,1.1626774270089868,0.6961290627142097,0.8190696905535928,0.5370008195441718,0.4690685509898647,0.4752172023173587,0.07065776913440562,0.082031889740223,0.2239326684976259,-0.06916093828255256,-0.6597426854174584,0.04540226974915212,-0.9865629360290785,1.3496660049888867,0.6768446794985894,-1.1087121896688892,-1.124126632641668,-0.4744929126297936,-0.34617688663325774,-0.709846045638507,-0.04376898204416053,0.049611509999626546,0.3024065976221994,-1.2046331656140625,-0.4668905488594283,0.31105023554375105,-0.17320208002139112,-1.1021396505832604,-0.7290095843864243,-0.027955524599193565,0.8148424163258806,-0.27707881736582723,-0.03874855356530678,-0.7458542683144388,0.11711112683022688,-0.692037744420788,-0.5650248640982073,0.3243443462198528,0.34497139690211603,0.2501414594918681,1.1010875664973543,0.5510750528417995,0.9406098543772707,-0.8143129771310647,0.10991564549943128,0.0822879328904332,-0.23201972529643763,0.4018293639652936,0.37902303425336425,0.7017490228954857,0.19171038768868737,0.409556277182002,-0.6107822828908596,-0.14991178566825816,0.07389403773385053,0.8471883651108669,0.41153847226664864,-0.5036332315239477,-0.20309078738984682,-0.12651337654388145,1.3002928994100984,-0.035391650761358064,-0.9080808377631421,-0.9965674990075405,1.230313016708626,0.15399260180257848,0.7806881857739324,0.6683570783229211,-0.3218616037803327,1.0105958237396717,1.6717968787709567,0.06476639265443733,-0.3555510199351798,0.4498878874319542,0.04068933918017435,-0.14864471569439713,0.32690559579758716,0.7612084491019361,-0.3662774701905068,-0.1598039109375839,-0.3190901790254929,-0.9545523466903639,-0.3828735323210125,-0.9049631807924007,0.12865509525449026,-0.3590878970860712,-0.018738198220736663,2.1937425656029665,1.7263813643413772,-0.8349770084421079,-0.7150217839355718,-0.6635344330751999,0.265283370289771,0.5927518334591457,-0.37589678262987636,0.8456574756192785,-0.07863808608141483,0.22033735209441463,0.956232158468355,0.3454696959989584,0.5805013949653965,-1.1783935662749374,-0.5980219853678596,-0.9144989519200392,-2.0476001620168036,-1.9495569636218932,-1.6904194307424956,-0.20057122141513312,0.7132664874442605,-0.14186871691542632,-0.07080147356789708,0.6736811198541032,0.5929293719326653,1.1908311757137988,-0.300009493432071,0.4329192552853331,0.6739046044875995,0.557422169627163,-0.9594912786082824,-0.6526286717984063,0.5866521216640265,0.33570110796081565,-0.11865027573348776,-0.3431571734194849,0.1058590808416028,-0.5977326211521613,1.1737837668873223,0.2932590790035963,1.1344403205073605,-0.1437818261562536,-1.1677034554959658,-1.443042119996072,-1.0340816309514917,-0.3096008171834168,-0.48923487260392223,-1.1924046121108502,-0.6164076572291516,0.6353468306188971,0.023502182475285436,0.7548764902780545,0.6054651167868457,1.6061078283568806,0.5686329314568439,0.9501915554683666,1.1847994277269682,0.008400887138234257,-0.08242081260903429,-0.10891770914163375,-0.029267677125430127,-0.08645561085035156,0.4856094967498529,-0.31499164453826284,-1.1207076654414747,-0.02556292242682197,0.0004923451822995201,0.1017968074885663,1.5165576586803695,0.9060899730386901,0.9911619245866327,0.2640040849830909,0.05617388972772485,-0.22096951548966515,-0.0050440056744073675,0.2185818990154947,-0.8110179823282797,0.4520878943520856,-0.367148264094209,1.0210482001943801,1.5254710238400688,0.5844182773292931,-0.0021742529272122777,0.05346364777860906,1.384297240380717,0.6432441949811002,0.2522021397025724,-0.7373977685290415,0.9467394764050322,0.8641885432225965,-0.21561812400393418,0.04014371125455994,0.08281076758297572,-0.380050042210562,0.3390514474771018,0.7489577466175295,0.9450261080334944,0.4789763975626158,1.460196393004287,0.4875437763543804,-0.10386111955869691,-0.6300802783240765,-1.3069103675752298,-1.4031046940255847,-1.1974577001232476,0.17998430448344288,1.3600004155913645,1.0920906864284607,0.9895729262839249,0.28455441523663794,0.5885320245839187,0.9426647859003446,1.241834973200117,0.3342068652081623,0.1574446348972278,-0.13319027534850483,0.8108738599365061,0.45661590058791546,1.1214086085041126,-0.215188878648553,-0.48469386871576275,0.2744157071536279,-0.2688779167882238,0.5264735447046307,1.3313814146651766,0.10608029342014598,0.5394900435754337,1.5482198284720143,1.1924693819550525,0.09347814120567245,0.819188029318141,0.7062081825394739,0.5826569418260477,1.0722090310960548,0.3834130302026304,0.22296038383294456,-0.03642283406618389,0.7068521541090412,-0.44458824661296054,0.39975363940639,0.014426555895996411,-0.21067760114604392,-0.3268814490070659,-0.5834158341557828,0.21339314425435468,-0.8888839108842008,0.3891556885324479,-0.24981131860401398,-0.09043805215745848,0.5240383218116434,0.7376006273748291,1.0302798321941502,0.7058647693521255,2.5363955314788065,2.1788265712160424,1.311416072817641,1.3443563339705047,1.3732676943248416,0.267894144156961,-0.11361902377526756,0.47668980319004894,0.11417980915285879,1.0898964472325325,0.3388991880532145,0.35783283079508665,-0.623679692627987,-1.038846381971696,-0.9060978954411059,-1.1607572116402705,0.9266746838932237,0.28905675794869584,0.8200858014494544,0.12184568340948942,-0.7566645191599919,-1.04253299447108,-0.08234781328211212,-0.7790928941209068,-1.0220003352969336,-0.8834618893904327,0.29432304785248237,0.10853242601445681,0.16990234453099085,0.5143317642994508,0.6831366578500462,0.8192795506976299,-0.7242326267600536,0.47329704986328874,0.3226944857913258,-0.1553836599648668,0.9578878583639722,0.26956478611989215,-0.595200519244539,-0.22290348820344388,-0.38773438801922444,-0.01605121102221933,-0.19088759429987978,-0.24416584635712738,-0.2525607685106381,0.38939407893412553,-0.5109053420653867,-0.32727436546733996,-0.5321054898157545,-0.17298076962772038,-0.6535492192184849,-0.8827370466248537,-1.075051736569763,-1.2478638079318856,-1.008702504798897,-0.03053272928280533,-0.2661672978172786,-0.6726423246817892,-0.2417797203689439,0.2333369155029473,0.7828233762973162,0.33141357580975445,0.02861518019549559,-0.5030025008295926,0.07279754361488688,-0.4855066578580774,0.5106253210817288,-0.6521686022010448,0.0346705585210387,-0.756830201380794,-0.14654586884043277,-0.3660346408718936,-0.0716641658553926,-0.9952257225502465,-0.37203648808522843,-0.386570142668591,-1.1026420650468485,0.3023204128089742,-0.8915548196864561,-1.212249934137998,-1.1316071116878998,-0.17303645010557608,-0.4234682150901062,-0.9865094165937289,0.24534716351359961,-1.127949118557769,0.29523244946241023,-0.10621796445531936,0.5395149386862121,-0.2922258804639827,0.04066955440102145,0.1465090266390113,-0.23580031280186398,0.6019846852439769,-0.30432152282436586,-0.17314071840724177,-0.562112494417745,-0.511831436818371,-0.2158023195153258,-0.4946767599260939,-0.8843136085824673,-0.6657710498739865,0.5627832782046757,-0.24993496969229992,-0.929940113571468,-0.144489215428113,-0.28792620842858796,-0.8110314012531494,-0.4819461769879009,-0.6969993916152364,-1.2483592232716525,-1.348907700181547,-1.1745025943519418,0.3495876635688603,0.660154913237866,0.6630405257572863,0.48180541257544046,-0.25587599191565946,0.2388007697687537,-0.6716979853383168,0.8209265589263065,-0.17427516099408147,-1.4332618062713176,-0.8682185743412401,0.7921395329964674,0.04157210200559748,-0.4557044405395083,-0.7957989594490293,0.5027188329269432,-0.25386194256331346,0.6644166523655918,-0.18527192653807908,0.16661796380242547,0.3158907330709896,-0.7813976436710578,-0.6849307354992071,-0.851832600852514,-0.8093780129435938,-1.0971470870452182,-1.2019939434004399,-1.0103781030285417,0.05483376656968135,-1.0228806991480606,-0.7577121480766535,0.5457807362777882,-0.3918600291055226,-0.2036810306874703,0.7342768734229885,-0.249080493781338,0.5115849402936862,-0.6728362410839235,0.1679523929012896,0.5256906754460478,-0.0926915010365953,-0.9397467528519451,-0.2584527195634538,0.05613784063876582,0.5837007450560542,0.4266317524836834,-0.05025968668079362,-0.952926331748161,0.24771208251500598,-0.6160228961123396,-0.6590901276164722,-1.3749944790663062,-0.9025075748812339,-0.5697787483479285,-1.3778478843666366,-0.9257261681061122,-0.6774383462276857,-0.14199585229473194,-0.1462079658543629,0.4974971255887826,-1.1023037793276722,0.003329252665614109,0.9376037116008528,-0.573678508724659,0.15314748003957374,0.29387724656462677,0.9446955952828318,-0.3123431796803425,0.46513421997244353,0.7454288418115731,0.763071347123611,-0.27288523713278195,-0.5286268986663943,-0.4810929646396224,0.2787754866426984,0.8896245004791844,-0.5240740644626506,0.6873438611798622,-0.08750057934683493,-0.3485820044758358,-0.7002279814102853,0.6580461824348375,-0.16595937144769304,-0.08731167592930868,-0.9430786102048524,-0.9434505855636012,-0.9338173233830486,-0.5095140155218058,0.8022949074170959,-0.3681969212454442,0.6175308052297325,-0.9346111524780368,0.5883267043800647,0.46852219673720114,0.3317856840237264,-0.8057438065559378,-0.5248673091527224,0.8660417094899501,-0.43088655903992473,-0.05517748664390699,-1.035231303556683,0.8983879986442534,-0.8021134748368156,0.4628051408624618,-0.3598319294909808,-0.4375011332742122,0.7920094754274943,0.42316288788468787,0.9051294977100203,-0.6050815306862299,-0.9402298811779531,-0.13295191544261295,0.4198087575703256,0.6630331694207273,-0.5097107462399136,-0.2988795733774204,0.06452328842792704,-0.8066552155916872,0.09639625383822444,0.8452143127074495,0.4209098416243547,-0.32253094742673877,-0.6721502248768499,0.37267419608418634,0.30888593851521035,-0.12436796183452209,-0.5162619369880542,0.13777847396557255,0.8415369841228842],[-0.6091819367688505,-0.01445862430767302,-0.6143786343155768,0.850396245993442,0.8437758128088348,0.8080054291287024,0.4658138408357821,-0.14127185400581238,0.7181009130828113,-0.14191855462303948,0.2692421865697708,0.2628590837139431,0.7496489242141855,-0.3314163659654155,0.35638759336317444,-0.04444493274357688,-0.7772726933640273,-0.14000890562257845,0.8721440581666537,-0.7410904285497892,-0.44007877805222634,0.005831810527942138,0.1748979198355468,0.9107144585120586,0.19516337892800134,0.18702957217031047,0.4046310187064735,-0.7957185600207246,-0.844220408286487,-0.6788535820961688,-0.5866871232514089,0.2007083573543032,0.49447689333555905,0.8358330810946999,-1.1285303150841721,-0.8562861047043832,0.40114136733652384,0.13790219089835828,-0.5486264207738961,-0.3850480469410348,-0.36247227037972984,-0.6036618544013345,-0.09932994235616413,-1.0867406831314916,0.31814084864022457,-0.5035836784949415,0.6785682462898174,-0.37363269862008763,1.1119730899611193,-0.3085039831453134,0.4187708500317717,0.8711074832555138,0.9687330123229199,0.9803400317772506,0.77072583255909,0.42858436897848146,-0.6242028311281917,0.1798413808063048,-0.218906309058867,0.2731187437692457,-0.9317834547438076,-0.3113500023194461,-0.06188785916870781,-0.39171115112181726,-1.0206057617007185,0.22206992407583087,0.04860012150165408,-0.06712535895772269,0.7618947798005403,0.23751248489800772,0.044741762919083876,-0.06315929116226175,0.7066425668255385,-0.7725049754391418,1.0398080723524747,-0.5223673166863997,-0.362944987476094,0.3353205911408607,-0.47277848895033653,-1.2571535285773225,-0.49582752843417527,-0.8659069542992156,0.22083441818225236,-0.33705048104559426,1.009762851405347,0.5277834179119436,-0.31284779471983887,0.06589013411635865,0.30920575366817077,-0.33969616851583534,0.30259154759325063,-0.15831250151762852,0.06114607522947549,-0.08342028458751609,0.35239846233132704,0.5529567487375774,-0.6093663563231414,0.37112436324385284,0.7359676545094387,0.6577701067027869,0.14370821226693922,-0.20811380091686243,0.4129018717833704,-0.480609801231242,-0.0971517985129637,0.6020251926229274,0.6070798332609114,-0.15119410976701922,-0.4005742671435335,0.15534347179543365,0.08077095859774129,-0.41231409351863485,0.2028473475687177,-0.5869233889505512,-0.8937194698200197,-0.6221485417203227,-0.18543926718544665,0.01613566116827926,-1.1990432398556676,0.4926031816950877,-0.0498535661905275,0.3172847306801388,0.6845715745164475,0.08826817029849482,-0.273732557828488,0.6154252812809,-0.36773734583248524,0.5751050227659679,0.750267640017698,-0.3492231129249466,0.2061375599267222,-0.6979477705276981,-0.7699425249496498,0.4820606913118894,-0.2015111164247678,-0.5981668681861447,-1.1900945854087852,-0.8174452477694297,1.0204816426902727,0.5928707501543578,0.9748564477618609,-0.9362037670821344,0.6889983290697359,-1.0191239699423655,-0.7339018463589287,-0.26148934960660486,0.3057023853364248,-0.18669126106808895,0.061401240123955605,0.6102369783462124,-1.3199480046745344,0.2009771860380708,-0.33689444489892617,-0.28821554303088576,-0.8220396168176559,0.7573377404948637,-0.25130946654085295,1.2815565863253833,-0.5300735650024802,0.9872640658137181,-0.6320317820488326,0.06535889629491212,-0.44698693143958146,0.14390544172915998,0.9295778780881013,0.09666359134050326,-0.10664149996148621,-0.23029845742934935,-0.15025991267017713,0.7752010643813162,-1.1802272376108718,0.17283739449260221,-0.4075676897629813,0.15776768953224965,0.022412852250417975,0.310849642073325,0.5128867518970609,0.1961674945566082,-0.07058364467114285,0.7460506747520895,-0.5885514158405634,-0.6823645074754072,0.508484586542163,0.5188123026178131,0.2100180447166011,1.147499759575129,0.29533923361517844,-0.4836330761197062,0.12720123866269092,-0.04999942579449092,-0.3689468751764237,-0.29531825060203065,0.8707996342197828,0.582416811292588,0.6253027722083073,-0.5336431943776725,-0.04561917591116502,-0.8283018944688266,-0.646474153467833,0.6210531997015716,-1.0283728340546685,1.0093325863347862,-0.25570954182569045,0.4163501157364326,0.011696369530911806,0.33304410395746453,0.2833957456758019,-0.5673764210433297,-0.38791388763781565,0.6016121916655136,0.5948030308386886,0.4687395692574988,-0.06156748578467478,1.6004886889599197,1.570632554839668,0.7819968230191273,-0.2891313025441822,-0.14563229743903247,-0.04578408882439862,0.36342485968477367,0.49038716166078483,-0.579651863336959,-0.3353024034733882,0.8059212838052898,0.3336813082335443,-0.8044971242692185,0.13683854732566633,0.15027571350083896,-0.40303355663448553,0.8483076013567817,-0.16981369494626747,0.6818638730858358,0.4956706689408574,0.34243912521310405,-0.12425516251258302,-0.053507907131528025,-0.4867688387907539,0.5215091505407426,0.47016867812106355,0.8232404378415139,-0.2846359712614267,0.1952832383624625,2.405095773607717,-0.06825248382883727,0.4970099211948859,-0.41085368900988545,0.18443013515245055,1.203206115992756,0.40219513720599137,0.3214208610337535,-0.11202069575473005,0.16258475459355087,0.14440380729993935,1.224618528258253,-0.4015742318428454,0.08776245043409112,-0.5164178785631879,0.4794191942959773,0.567519436651212,0.28849231729456615,0.5288817796459768,0.38109636900863264,0.09211500784745909,-0.20393547651720473,-0.18020960364976168,0.6112542425271855,-0.1913469883740121,0.6414662966077919,-0.03881587550342894,-0.4620416066742157,1.512774672179547,0.9679341107147487,0.18589345901328336,-0.03412167197475875,1.19698549237203,0.6904320543410005,1.4266025006626142,1.1673828839088571,0.40436624090441925,0.7341154545895854,-0.5118177569334916,1.0571580092562027,0.8608855923362695,0.4883835409539456,0.5414731837045299,0.04793948658965545,0.4089414807190225,-0.5449459054401334,0.4167558126407024,0.8638081487740463,-0.13661606534523524,1.5662686888597483,0.8178547162787265,0.3633141592674118,-0.277989102667717,-0.39952551735383485,-0.3596904587860997,-1.945341164251994,2.163473421036941,1.0320458466289983,0.5851369299994998,0.3327230097042569,1.372484774605498,0.8486619663826912,0.05259156392180569,0.7136318793437634,-0.6293470449225238,-0.59348301303218,0.9613881160982392,0.7313766685758911,0.21779792955326124,0.7088356281810495,-0.07602141159684084,-0.4164229424855237,-0.4200969342906468,1.0751330758768207,0.9300516750462657,0.5900818788040372,0.5688819730072825,-0.2028150038514906,0.5837181214969318,-0.5459208501951945,-0.8723287715696536,-1.1420173899999295,-1.4906094535824532,-2.542383674753488,1.198120873478434,1.5473966713954646,0.5488443651656211,-0.4135574961042474,1.3878807629401821,1.0862656628016365,0.8013167900318802,1.3534898814540333,0.7308410170823088,0.6576415353448817,0.5636103550459783,-0.2944070674922258,1.6147854824451777,0.1458837018989234,-0.22259659505468823,0.5071087214926846,-0.3730337193925281,0.7266066871016064,1.4269506100255926,-0.13937387696805273,-0.8347279374073757,0.4107739860911721,-0.4563955404672936,-1.2927798391532048,-0.73389080527325,-2.0307785653005594,-1.395794414518429,-3.849230140877239,1.3244324955262075,0.4644963153071722,-0.35433371005616077,1.3739331869083373,1.670745491163658,2.360426533751432,1.9085082964245705,2.370290171831509,-0.6862371768546902,-0.3865477790336333,-0.9387132116582284,0.33851534847206444,1.0688073466849723,1.0219646234913886,0.4136079166884056,-0.09060133399351636,-0.46011082707485723,0.5095281405905764,0.1692419704216235,-0.06213849767360908,-0.8725212661908806,-0.7823199516320998,-1.142396824329617,-2.3457261807876075,-2.6658310474943976,-2.80180821533153,-2.347663155745822,-4.15853113695756,1.9016887866390249,1.2566679329682682,0.1838254189688168,1.3725402204092652,0.9978372307524199,1.3022774493970217,2.0780530557417767,1.0598629974339762,-0.8079149909628598,-0.8562814989663547,-0.25182267674743153,0.7996783114038948,1.1534570635972894,1.0205431747497418,-0.037572657795926806,-0.49043775582860066,-0.25485900301045755,0.9087615201478578,0.30916555611476065,-0.5750989467315369,-0.4542671409326149,-2.0497127235442067,-1.9093169643952965,-3.0120467449506036,-2.93715334533936,-2.7814872899415684,-1.622418517922465,-2.8326155426627797,-0.2262301370916504,1.0083777032706498,0.28393346599505837,0.8180529471587886,0.8332565505918458,0.922800005844961,1.0038153352028174,2.1365469274364153,0.9625614079198181,-0.14568737354341005,0.13527512777431122,0.9361037697306572,2.441058953808791,0.2946897809332261,0.4495622552689059,0.6692098510603455,-0.22177510434520992,0.3109740491254441,0.7382788236602508,-1.551572594712315,-2.6282830689518923,-1.7402520719811985,-3.1795097238245114,-1.9474356744296282,-2.852946389641456,-3.249898802624979,-1.3776007528686098,-1.5599468546659052,-0.15629064382456728,1.7970479339499428,0.554711446334498,1.0589335653470233,1.469134425237273,0.9950750125053465,1.4076127348608807,0.44531268804051555,0.493933409096231,0.9345432406643635,-0.9740120401759302,1.3907029248854494,1.0876859135317647,0.33728561762518533,-1.003717815046831,-1.4393896157214634,-1.4955869511311382,0.29790657394298997,0.8237946837433932,-0.9957768170866231,-2.043677951946098,-2.3641102534600207,-2.9598582390199484,-3.078464408660395,-2.8419549332763054,-2.7796612962186,-0.8389190496063228,-0.031202380544742347,-0.18005132295465545,2.491407900282595,0.9166106799517056,1.4402470781141252,-0.7685010755010909,-0.625549627049328,0.5325290920886938,-0.12787166107744186,0.6518010526862492,0.7457249665105858,-0.9156007637151027,0.5231279741866255,1.0303996890233165,0.3983388714133601,0.7142779054089046,0.03900860851324585,-0.583275945076512,0.6953012243274191,1.4406117854947682,-0.38576015562745986,-3.1204468108156496,-2.3643696757276604,-2.5698891449945904,-2.2476249180533645,-1.4088491384359332,-0.5419877477838487,0.18754053505377904,-0.42960681252073163,0.5446320947796394,1.3007973244285973,-0.7721561128999346,-0.09239896709406174,-0.7386650906985351,0.8862797581490419,-0.28386251766980497,0.15923639736830844,-0.2749670508941003,0.6605774044998378,0.713211788076124,1.366674230580711,0.6966725839135878,0.21796579593192356,0.2574436820092667,0.10779620526109897,-0.7081938283656667,-0.4476199293515157,0.8919340497810667,-0.18061275387569306,-1.360376012987453,-2.1414262365158065,-1.552374321740641,-1.2845956057049803,-0.7191856740605072,-0.8038271415708804,0.40648149996732597,0.04018781440275452,1.0984185196025174,1.60740379816155,0.41921769267975106,0.9339676820744859,-0.5065838606153625,0.4225418133052135,1.2059139316480447,-0.9596210140466259,-0.17544997270885088,-0.6527792871518403,-0.48295179928740634,-0.11849484328816422,0.7035917860233339,0.494584357853454,-0.2657696887137742,0.9094749827142873,-0.8786771932430165,-0.06336822306316876,-0.3378852751048004,0.7296924012440604,-0.8794078565100526,-1.295835817290955,-0.700514434155602,-0.33531939145469086,-0.5234277860700868,-0.7765564014010546,0.15207168381293165,0.32423285778884287,0.33606935992648174,1.2853043412571221,0.8216491325250959,0.19648669763719717,0.21521942560070914,0.10456582511392755,0.5249381127780728,-0.7610169506873267,0.080118036280051,-0.00811970246348719,-0.44662948125299,1.2384857068697699,-0.752134085933512,0.45906251830427824,0.0460943311044587,-1.1286571181878537,0.7333248159533513,0.03867415853656402,-0.19746669996400898,-0.2948025642743815,-0.2716107301088146,-0.6454399484202301,-0.5522389557091528,-0.2600682982470134,0.34916128939630037,-0.7038175055214391,0.7200062326791561,0.5874873406298144,0.14925309493865857,0.8369142829895475,-0.4064816767930112,0.29590557222454444,-0.15401919972367772,-0.26025402622513627,0.5778430001644804,-1.4638358634162298,0.5635904196205981,0.07228557523965944,-0.8614283223265422,-0.33936894045546717,-0.519542782866765,0.5500101820790095,0.11475647857595878,0.4952033499102882,-0.19673623316820463,0.04846371660799628,-0.01147772816897113,0.5251186057978583,-0.26700440200231274,-0.14239857986890161,-0.3502479417393919,0.06410179479812285,-0.7270836425845285,0.7357567511612363,0.6670762982170454,-0.23678325631956337,0.5232310918363707,0.1851606675378637,0.0016334868142635526,0.6178297722358493,0.11307381099675272,0.5813169352628456,-0.8033837180891085,-0.775879280010695,-0.5472642643405863,0.8726321452361243,-0.28312138632965206,0.19069966506420372,0.14405924203146225,0.47628299851720407,0.6082456570995378,-0.3221029101501479,-0.505495951843339,-0.22692594606297847,0.6788271379870586,0.8223490571111672,1.2089949854453117,0.5870304532489684,0.4141099774637521,0.1236387303128536,1.1699410178583634,1.3559243871511952,0.8599684679592652,-0.11129102637625789,-0.04056935885749961,-0.1783867432201905,0.5353351781993325,0.5696603619986679,-0.2006942653089178,-0.7096339676334904,-1.2810089908388658,-1.1323751440366943,-0.531446934114369,-0.213462035857292,0.48662069357359955,0.3162122925291806,-0.34421684809863273,-0.4624321035819485,-0.649123506099566,-0.22942038535519874,0.1751837966636104,0.023706003676852785,0.45907592770338757,-0.11198410371491772,0.8297564070571678,0.10345449899365063,0.7481200805093924,0.3143956973922322,0.06239018295468233,-0.012886166069290531,1.6902372588133718,0.35761353076010927,0.8077316420317378,-0.45050567783199397,-0.641494500516325,0.1255078976015651,0.012449072476126121,-0.96426410419551,-0.00721809070305698,-0.5479308993692393,0.15577576863436965,0.3619113313513875,0.7998110091038593,-0.6086306752527266,0.4699182547807763,-1.341578535550688,-0.6317550177427487,1.286112673447111,0.2092297374328815,-0.32665093683760504,0.21538013637514847,0.5191942715385888,1.0884106224606196,0.06825827749023716,0.45350684589363577,0.5403374752848928,-0.11907985190241913,-0.8522726769706267,0.11606394500624931,-0.952319629101699,-0.36765514155913587,0.002833888333740342,0.28706161120212786,0.18169354169260177,-0.1025632053423615,0.446431538337429,-0.9332170687684974,-0.024531645507835244,-0.8169498122650403,0.6625683607550683,-0.41651004258329377,-0.399577074059506,-0.9212727169340206,-0.32046899950206,-0.8959551595837945,-1.1956889353439946,0.34843328902851045,0.38387502657347694,0.5773279133996464,0.3503784908366048,0.1803844059982835,-0.886858404117422,-0.7278121475794952,-0.48963819253223584,0.353887346756873,-0.5345286937848348,-0.4094428617111338,0.611127956296295,0.27375206998402385,-0.5386144679473704,0.3145587853129341,-0.21412764282953012,-1.5637840754878003,-1.1375173891504204,0.4222127803758904,-0.4877207615239439,0.13933115121000217,-0.6907665687378779,-0.5168736119641772,0.12215621018006285,-0.4417411786041418,0.9370645720875683,-0.7533768331689159,-0.9721133230398413,0.41441633978649944,0.6722041468197992,0.40822798113773157,0.6325859419878999,0.9107107318247745,-0.6438326481276782,0.9168075745263664,-0.9341433375110093,0.8441153972340847,0.2490039640060279,-0.8985667252715028,0.5070991377570899,-0.9144441020550851,0.3252508566092484,-0.9278504057725634,-0.541877136938633,0.31255907614420225,-0.4261239905306236,0.7924796727176688,0.3987185382935318,-0.637137438587859,-0.30280569454734346,-0.15937482166021522,-0.24932685005860228,-0.565251353114911,-0.3559074586326278,-0.11238018673436002,1.0033795753235835,-0.4887050803507183,-0.7568786852135196,0.5097877407683731,-0.7112504625553939,0.9027951795812235,-0.4392790997858029,0.6158180648260396,-0.9691730212551002,-0.2341806685985196,0.6316174843221545,0.6416522401304721,-0.16096248730077223,0.2832429497616111,0.6471485380959949,0.7848170262416465,-0.38184370595996303,0.054445432869529,-0.10085263352827163,-0.9226031741972536,0.8672014975959004,-0.2677185533226541,0.2421028003949945],[-0.820786551536989,-0.7706575882033744,-0.09598647393249915,-0.8245090311056542,-0.05841744558960354,-0.7665182384055689,-0.03218751127616208,-0.5306273049832455,0.8348254392536445,1.0469571472815011,-0.6575126665461433,0.9147895163910384,0.25705646032183593,0.20688937748955413,0.11506561097309442,-0.5416267731435753,-0.10677488716785313,-0.6482281194773665,0.10632968880380173,-0.5813406569345609,-0.4733146264108149,-0.3787429209248503,0.23811180337096857,0.4568897799373417,0.9924330519927678,-0.4305904049117679,-0.5343267566699237,0.4007178560353759,0.5991306204795483,-0.012073725515632103,0.19039512472634604,-0.06956725216118138,0.6326607238157611,1.1510429543010254,0.8533274808445771,1.059081178367661,0.2542182149877241,1.3922782099529656,1.0093041276806176,0.7888076620248757,0.2931967630611389,-0.5382143605036974,1.1754464725776093,-0.04135765795825135,-0.465899045535298,0.7375790015684547,0.808705917248798,0.6188416130895765,-0.6212470544860235,0.7754813281323335,0.17928262375055007,-0.14619481311012594,-0.5983892918541486,-0.004132024993801732,-0.7768583171442454,0.5793430355732032,0.8966457284025098,0.5927869272500595,0.5978565194529705,-0.5102013502364267,0.5103882073795135,0.4648040018793284,0.6919978128509852,-0.29461069029626674,-0.08578980140697136,0.8800034208494233,0.6287027780857786,0.032738628473778446,1.4404327162854609,0.770998935778697,0.7719195150530376,1.3548014445646335,1.0518793572384992,1.4010991755418212,0.7550618105728683,0.8275617064734406,1.4329521684664677,1.8340936738657947,0.4904902213060677,1.561124870439203,1.1616627659207313,0.880913009766217,-0.14858445909421727,0.25205429091531617,0.782914219740642,0.7904369959656616,0.9556015359302187,0.842452257915623,1.8562357833579044,0.10267197603897048,0.9300862712625595,2.449430706488909,2.102624973251181,0.8504778848505525,0.7057096862369012,0.8551498737404265,0.9123016918361995,-1.8014014167160601,-2.7231181009664813,-3.1643076252462308,-3.043277964598939,-2.291739725451039,-1.4143450936125854,-1.3680369872424747,-1.0029920194784918,-0.7923870527794858,-0.06655659702358124,0.8267947522337192,-0.1373633233721196,-0.4262009509948384,-0.5895184430725524,0.8756947195029297,-0.3692750448698201,-0.849332001475693,0.9073503405967979,1.6388355245675104,0.6576099397045511,0.32563457461014716,-0.7415716607798929,-0.8762315772170168,-1.1866125210433955,-1.4397645600913624,-1.3583372893563173,-0.6403269445229157,-0.2882046908299792,-0.6233836479706317,0.557065983879466,1.2899342365843232,1.4990375213619036,1.8797597012902476,2.0925088983771607,2.1200287470541896,2.0202022774085258,0.794114778471588,1.929189692541148,0.0602005637214677,1.3724524497188892,1.6458405093621744,-0.8884883066600631,0.9616059143368147,-0.43254262420147316,-0.8158066772118091,0.6530552859984544,0.13207725800066303,0.31583200695852715,0.7635239507251522,0.4532632330745516,1.7839985342718627,-0.00935000110345229,0.8191343764586627,0.5161422752671196,1.2775494518621158,2.813241737996934,3.59729036733882,2.857507939480785,1.8281006270403506,0.6787418807215775,0.3808933582420397,0.06958100569339952,-0.1271554297859803,-0.8474517139837278,-0.10483348097129648,-0.09560424572347291,0.6641312680538956,0.7750660408461848,1.5270176468471857,-0.3342433145443785,0.4633399980888748,0.6463982335027267,-0.1898374920708976,-0.33951454041601675,-0.710809243632796,0.5931027728290283,-0.1359013739033105,0.18265145125128732,0.011395694284657427,0.3992313688160453,0.5516986709115961,1.0987780461311472,-0.025127038782379783,-1.7971930770068112,-1.5352338010122764,-2.753472946071469,-1.2656891462099324,-1.67309844931814,-1.347970157913483,-0.4424623240189878,-0.23974003386363527,-0.590274537941572,-1.1645815142695606,0.2862797828721351,0.20574467358876866,0.30559906680717536,-0.6243268435136885,-0.6734993340339073,0.06616585467147607,-0.5752780300930536,-0.9325055554557202,-0.3800997500508567,0.6599856169909584,0.3742484093297087,-0.017601353992683495,-0.2352007929185096,-0.622394820717445,0.21233983572332388,-0.07083964246855033,-1.768153629541162,-2.015307719965771,-1.7507159041892812,-1.559993016816018,-1.0704695401817694,0.06206127443651826,-0.20839314353293914,-1.1501943599789004,0.4167132469194177,-0.34324612306429375,0.09272743470105786,-0.5671073569637511,-0.6577413531845937,-0.979409391560406,-1.0525912040343426,-0.6422941573274563,-0.5904584381234204,-0.8736700704213589,-0.5299216493187111,0.4569932213219816,3.422258531548198E-05,-0.3310171280756301,-0.22958127957210117,-0.21508390099502356,0.30575980304479544,-0.6647854184764377,-0.6681339262257568,-0.7579000438444785,0.09632314928756396,-1.240855765878816,-1.4885591295048868,-0.7572730166665796,-0.8271880513191362,-0.2740799249316943,-0.3766566416741763,-0.25403441431748003,-0.08949560197916404,-0.14286677963715505,-0.7472231322474014,0.0752991118424598,-0.4080683192125015,-1.3276661676911312,-1.5884519062563975,-1.0257095594739347,-0.1321446333245088,0.9455339526023376,-0.14442507328819157,-0.998857601456283,-0.6334466726177285,0.04465199136882049,0.21198768647715535,-0.9038919849047892,-0.9329486223234336,-0.7410867282785334,-1.5443835277297786,-1.250750586405392,0.6472792064098272,-0.3771087718787228,-0.48893088093184456,-1.0738136268047556,0.8611289698009339,-0.3164469695245084,0.3878590775839323,0.538235023447416,-0.7461688750607834,-0.11341483104164361,-0.3380164959417867,-1.3493572982742552,-0.8156392892278695,-1.252810985962807,-1.1676038314577453,-0.1299249299799405,-0.008001208357135147,-0.38088215677254467,-0.7394766923238911,-0.24669944775102157,-0.8227404975717544,-1.3979996451057706,-1.5218545006436213,-1.1640962251619955,-1.0457331328144392,-0.9681913345666802,0.03896735430474769,-0.29094117133339475,-1.0590048469230553,-0.6337189572312643,-0.8650137771475378,-0.7460592132362305,0.7182015663380712,0.413238256223894,-0.2862869778662509,0.3346475165451017,1.2022096519208916,0.23804886843951273,-0.9373780046871936,-0.9690512034024801,-1.5014568103850487,-1.2622934467702707,-0.9450271033630323,-0.10247179092679078,-0.6913992994439815,-0.23185102238087443,0.1156151602102449,-0.688111366507856,-1.3608450614524286,-1.0803277810363794,-1.1264190003338426,-1.6614924796409705,-0.6510376063555964,-0.8378764736033052,-0.9340505962134502,-1.1214203181296503,-0.02377305028040097,0.028296280859992265,-0.34929688511776985,0.6836063032609451,0.7841348188699617,1.0190736205500301,-0.41876230668873354,-0.5375058340307448,-0.41784253277291256,0.3169630389169843,0.15234556888353543,-1.983101898388435,-1.2914171771986613,-0.853263479470479,-0.4581767942011208,-0.3123957051885794,-0.8462166697482687,0.521524549191043,0.9735388825043574,-0.2070856794844881,-1.1249955291207274,-1.1515347812105392,-1.6774021989593504,-1.198820881843523,-1.1266728292192696,-0.85269993579493,0.3534108785481557,0.7603603698012419,0.5088917872512578,0.6078838542529981,0.5103111331381129,1.2270805406613563,0.17948889567821616,-0.7654526506955975,0.9512508962053298,0.3212797987335745,0.6882356238054956,-1.2903961273822437,-0.7712991680144836,-0.4963664779348682,-0.874521548693192,-0.661858136604845,-0.15751102987003085,-0.17430260049554216,-0.7116294507006351,-0.5187830438939733,0.11903865403301436,-0.8052284360576533,-1.079847307530648,-0.8781121574715647,-0.038213672036100904,-1.0897080625815863,-1.551002551139328,-0.501145640475363,-0.68789251810964,-0.1751561464924979,0.44825965058664186,1.0490547372124261,-0.35274035425592554,0.294393767518636,-0.4210326832571972,0.09816865314708706,-0.8162181569551836,-0.5555429919938784,0.3637481611380207,0.8106290832536237,-0.08775202525748375,1.1331254573109766,0.22899247581082413,-0.6751407527915265,-0.9221966664937384,0.5898751852587062,0.32140719993891065,-0.1774484656195254,-0.19345395280821928,-0.1722267852923339,0.3417565460037691,-0.9707574288573375,-0.5335257789897855,0.08998816134573791,0.4321316791462186,0.8463481096997126,0.43032168680765465,-0.2585962687875726,-0.834794400710879,-0.7451070030539847,0.728455437362841,0.7267894221302614,-1.328038659065388,-0.2814768174715827,0.8041516993677391,1.2460548894090457,1.4655766180973129,1.388387906534417,1.6139785105564148,0.12358369767223125,0.6754621079853281,0.07075404346993071,0.17535223834151156,0.6415053090967164,0.9306251438462261,-0.7856502616260466,-0.6733065376880174,-0.35512166229431635,-0.056885848675903364,0.27997943705527994,1.0017661514615228,0.13953290320188233,0.6176332629691265,0.9630708914593068,-0.5079201908823622,-0.3491401243485493,-0.19012217945671983,-0.11143639313812956,-0.43490777566598404,2.0911501700881185,1.6438554031758061,0.380420040988922,-0.2490956607764838,-0.8497172055081079,-0.9860884841857511,1.0177358047972678,0.6794134776352067,1.137930433718201,0.18087761580004805,-0.4162124701526827,0.45910530462011384,0.19418520108614026,0.6601124622658388,0.20348264002255637,-0.1446663109808384,-1.056143575267588,-0.6932225134253731,0.180938204346902,0.73245245840185,0.0838116773779367,1.543102938283729,0.007392586968783379,0.3198068475283282,-0.2850999998402314,-0.11501231668109979,0.43799599522160615,-0.5997750941632682,-0.6100442972994367,1.1986980229033022,0.61610285888087,0.23219797613506443,1.0647125585022754,-0.7605398513222846,-0.654386818673236,1.2365547817780282,0.9133763703707236,1.9515303165663282,0.1974932071274129,0.9097241459141674,0.28085252638759145,-0.5073177235249982,0.05721243468765636,0.5735284823320441,0.3218546138758087,0.932148554855507,-0.24155556125703237,0.027916468146317187,-0.03649894628227482,0.031231440444615285,-0.5113040453505819,-0.32583483334417696,-1.1461800324147602,-1.789718701983512,0.022956511582422838,0.49148385147743673,0.18957269850287423,-0.64630014810205,0.5066206888009583,-0.5827707545711319,0.17175370779036872,0.8562875085689051,-0.980743900810237,-0.609629244943762,1.4596515283719504,0.2105697065669012,1.0659464611068405,0.7878297979579135,1.3081437409868062,-0.4595909386699706,0.8024302947796991,0.26565432323259985,0.22099356714648888,-0.8120333925970109,0.1847202852328438,0.4956729624528274,0.45568526106021245,-0.003979505835384336,0.3519300788472536,-0.3197569350666123,-0.9192711024193055,-0.499786304322921,-1.0190989885005108,0.8123139677172748,0.265661247068781,-0.7197480888438647,-0.3459444292086089,-0.2956040008363678,-0.5998697843639632,-0.34142353470929293,1.1085353616629918,-0.2679829606387376,1.2309610465131908,1.587582526383931,0.18724054041430355,1.21834605880328,0.5926978499885229,0.5098959963800038,-0.656671663168761,-0.8139192727008489,0.2190596610623314,0.23955129950389437,-1.1045640988897434,-1.2028051617296063,0.7209403227324721,-0.8625117027659047,-0.8680634204045901,0.43476863344835176,-0.5764329478439787,-0.8410000581914141,-0.6419706686140944,0.5721071784680521,0.0716835877632957,0.6564130593655856,0.08104181616466075,0.7223497153025409,1.2099749796106152,0.9942381073184987,0.4017651040809006,0.37865086723554314,-0.02051960783121904,1.3993772294806524,0.08562017718994279,0.9416327063085266,0.8282690331985004,0.7579238105820107,0.8248217775121403,0.43588157525879867,0.7343378065336202,-0.9684338988326615,-0.14755034508916529,-0.3579865890541207,-1.0498285361806845,-0.1798634880100636,-0.21318332693603173,-0.667782368843086,-0.13763743192837213,-0.6473381007265079,-1.2259256855020413,-0.16410541222647582,-1.201803614208111,-0.3056608130450842,0.7294568274268496,1.1120167329137458,0.2962788998495845,0.27227221779947164,0.297244635986445,0.6327372375576353,0.41848546424162836,0.18549513324099656,-0.47000306529929653,0.2508855339473141,0.06909050209425308,-0.5594431067177326,0.08751743518947147,0.1838027532587915,-0.895967051139598,0.5883346873260653,0.01189760518796962,-0.16531434826893981,-0.7740412749495553,-0.9979428662168449,-0.7574007708605323,-0.4237743266613599,-0.1425950190439549,-0.6330048090655821,-0.1614116598555686,-0.19928152176190855,-1.1162077417698022,0.29823230139551293,0.862189336349904,-0.2112301015642906,-0.5118308541214547,0.6008226212967072,-0.025363118272612572,0.459949426829071,0.09454290624730612,-0.47283481025408275,-0.43920974754166625,0.760521230309077,0.6586308599512298,0.0039895553611223366,0.4177447270204382,-0.8409483227618759,-0.6950387108162033,0.33715034783725284,-1.1465045239357952,0.7356015225007801,0.29656447280625947,0.2588829955824991,-0.21518314466312347,-0.7004905938930578,-0.8132292811189349,-1.199994393353157,0.11629107975223704,0.6896851959437663,0.007914826800565909,0.09950567696258338,0.1614912595900264,0.3079493073561315,0.09423399647981745,0.21474939275223098,0.4795424558026886,0.5649040897392105,-0.26869533457230094,-0.33571773600797894,-0.4646108197299826,0.33780292832038905,-0.8342120615653803,0.850807135341503,-0.18290012063741343,-0.48736008936098063,0.07478170044544791,-0.8700014523239733,0.010246911661409076,-0.19302711322562213,0.7960376123470488,0.11633111483587423,-0.9325712912175831,0.14445157094006827,-0.10198431126269294,-0.09912260072685222,0.06596090466584281,0.417499159929431,0.2579635503335996,0.07368538912096963,0.07000846710754721,1.1437943257352858,1.1499509182089613,0.7061709812219498,-0.2077268869743524,0.1143375134918483,-0.8255218664688757,0.15914067583854802,0.3981350668752888,0.15409152998622666,0.3775891131325579,0.8883679647860869,-0.8058233749629138,-0.19676100383508996,0.2936591448088307,0.9913426865243677,-0.3193159843830169,-0.42211302886272706,0.8637186665361231,-0.7096232203245325,-0.4409868651963011,0.07634244165320012,-0.17816666209836146,-0.6886553603119296,-0.07964802203681047,-0.5998687272482242,-0.1562118311798742,0.5125561229405602,0.0942695638194038,-0.3899709752936802,-0.6770492791022162,-0.3475363432293319,0.02483288299318048,-0.6995887985512448,0.14439184895865523,-1.0364881269158999,-1.533594398154989,-0.37240419028072747,0.1260126071087923,-0.39075679541280806,0.8525923219273732,-0.3154307927091423,0.571416613863879,0.531629383465259,-0.0746527952478105,-0.03145064784899444,0.39540813001639785,-0.7118050107213058,-0.15171889356570967,0.23065804637146478,-0.8665377976069534,-0.23173809637875323,0.2854982055696127,0.5774695495014709,-0.19870733070324817,-0.21014176477006138,-0.4439952166311274,-1.3292713690842777,0.06921205563825783,0.13241783276562583,0.05672782664877748,-0.5629845560410353,-0.24316349580105878,0.1309128619206905,-0.09154413447585671,-0.8446751816314453,0.6845422839577808,0.4026680413165773,0.10177749954096288,0.3494883707009062,-0.5708767393017575,-0.9175179689287789,-0.235620563076242,-0.3858212714497704,0.5455931506317115,0.3080926561751175,0.7380054363211612,-0.3591379907272142,-0.42672922999125873,-0.3527540254666861,0.4372683667271111,-0.4971009565518665,0.5161072609075019,0.07120912054925313,0.919972030360608,0.11328998441345675,0.8422088011815223,0.7577678862281896,0.3122475902592369,-0.5961733612694684,-0.47017443905273393,0.3229306080470796,-0.18066124491572091,0.25137523801447936,-0.5050146210045527,-0.4465542861957549,0.24706732767814965,0.8518658977694153,-0.48518171607905214,-0.7004257439652608,0.3453628505776789,0.18047387855001992,0.7475047338028895,-0.09629280781351296,-0.46349524779553897,0.035404993655263804,-0.5072627442937692,-0.9380241823574729,0.012665894306022382,0.6350282745118354,0.6074134118408927,0.9981538541125492,0.2656177264463523,-0.623516901734622,-0.7104844780702568,-0.32927424480784884,-0.2648932674750917,-0.7244964455383378,0.9348217546155746,-0.29598486395511536,0.6501753067350802,-0.9019083734625555,0.024133341350104438,-0.18213901682072856,0.8179017872152361],[-0.019664930249926556,-0.33676303851775014,0.2370427819462045,0.26168778498224154,-0.3141904219263709,-0.43680268226554,-0.08798173964910368,0.16178105772968418,0.32655408754740045,-0.3047852941955015,-0.25711384247430524,0.41123948445558434,0.3730768292407255,-0.3031324299210938,1.010104990042337,-0.7409845105708939,0.5219940340103819,0.1533109019613725,-0.24285426986119654,0.1744176023841261,-0.32583385773781925,1.1753190481310611,0.4299259890331987,-0.4805124586501849,1.2456895020393477,0.21783416675715414,0.5358114509864871,-0.6419774893546792,1.127556852063481,1.1885116007447023,0.41824928359230146,-0.4238976614149207,-0.3889512488879391,0.8939693842194979,-0.04960293982704091,0.2986256104646226,0.019056308142483092,0.3691742838841639,0.20091368486264838,-0.6201966790381064,0.6652775440765647,0.42692088595854255,-0.20171382408773922,0.01723861028981443,1.2210762262359511,0.4101012654189888,0.6780742551731238,1.171382420416799,-0.5605397070888748,0.012645367767381597,-0.1717824049304126,0.9827825927088893,-0.39436937361091756,-0.12293918908295455,0.7645927651940385,0.3293718435794226,0.6072786638867156,-0.5999770701018439,-0.2710194130261984,0.3402722997348279,-0.6673345045309629,-0.6331818938631943,-0.8990011166225933,-0.9480690989299168,-0.33797164560916926,-2.2925436277028783,-1.4668292693312874,-0.8401257910417037,0.6530674867293259,0.8215126333586222,1.0951952998282504,-2.019046142230469,0.029890761336131885,-1.811683243928655,-1.2812565549678552,-0.7030412213121564,-0.12382964050268468,0.6683453326920813,1.48823676950692,0.8670106877589082,1.406368725510185,0.5908169898878066,-0.697959844409139,1.0914502795601855,0.05844219025565058,0.6410740459529581,0.64939905172625,-0.381674735100445,-1.323509260046693,-0.19892185709334534,-1.1710897487016585,-0.42008948454435635,-1.7064172927284345,-0.7935553465223286,-0.7432176580332215,-1.2515432062194316,-0.10382843928840577,1.551749387856721,-0.5488407914980981,-1.3260118238898686,-0.7544895003247784,-0.5437309860816519,0.470037422942424,-0.39519429587225186,-0.08229982875652285,0.16615596767945573,0.2449133523818874,0.9940280148574708,0.10582740557576123,1.4366609114580695,-0.4800079588829792,0.25172640481995406,0.36312072781482274,0.28782186667855464,0.2647882921687005,-1.165501507098354,-0.7239051296878769,-0.56923396777914,-1.6417666398868762,-1.8536526399842554,-0.7896247689533177,-0.7921561394619747,-0.6723314091733716,-0.44807785150923846,-0.6988854513595611,1.4974617709567286,-0.9617727778881654,-1.4914277269636733,-1.1843575709007126,-0.31063251413608406,-0.7363055254500154,-1.6762314526297932,-0.30344931247176044,0.5557828204782577,0.28649598144322663,1.427702116708174,1.1485474186309355,0.6027467171974211,-0.31290651273160086,-0.21120639580408526,0.6963644323708045,-0.5422807998712151,-0.17369194181932435,0.026209638407848252,-0.3615637853385554,-0.6625614933028998,-1.4036339300738478,-1.6606158432556406,-1.2492643967767172,-0.7021091930903356,0.007307189903318295,-1.3532198979271115,-0.4924975538172736,0.9087555612860176,-1.4042949282307475,-1.5811618879336098,-1.4160753104244754,0.039103607711388585,-0.05059761688892045,-1.7391744525294417,-1.563128797587277,-0.6785960941881439,0.865045732622827,-0.09022661080198612,1.6940641286248468,0.813607593594347,1.0098821622686953,0.1202797759274027,-0.18495524922201764,0.2316521231649338,-0.9630877644889044,-0.6131518061196444,-0.024195580334140716,-0.4350999237996461,-2.0077574519699297,-2.3605863329047385,-0.3645426998072566,0.0026419766953969135,-1.1393399183789656,-0.04178469590907291,0.3795759473943779,0.8395585844886541,-1.841782111613936,-1.1264670624712367,0.01607953513309409,1.0797180683076832,-0.8093878621931384,-1.4100261559692553,-0.47676804538869183,-0.34384265163758815,0.6864995026956667,-0.0806433684747268,0.403479166820011,0.4916329531099831,-0.5966155304237761,0.6003036929616021,-0.6922306501416122,0.27242752863792447,-0.08698594404003465,-0.2874786960914671,0.7641542780614999,-0.47293482747428334,-1.060761284398727,-0.5602071848252994,0.9455416423688991,0.09753190847990917,0.36486381536267326,0.21942602349024487,0.3916556918711839,0.9429807231077205,-0.3630017937430085,-1.3290470600464612,-0.08990097975894618,0.32081620059393495,-0.4255519034919848,-0.5163828913817196,-0.013621597500745267,-0.7321017755302821,0.05549945561577428,0.2641045228175085,1.3809021470084601,1.0933688195961364,0.9182117934277847,0.7313630369492261,1.1509746075701142,-0.1449119804003743,-0.4547008120742385,-0.9439742686526269,-0.27362241168744,-0.9149923723196584,-1.861269874465475,0.03922965630528947,0.22900367297214141,0.2263814482686189,-0.5653359262697757,0.1502411417938104,-0.5033991934336693,0.13775124412541645,-0.5058742756171201,-0.286479996312158,1.2237248624568196,0.39896482603194533,-0.2743543164412136,1.5815650501691203,0.814339234425728,2.2660075625413985,1.3392597493166198,-0.12937869082238815,0.8608337373594747,1.1275335332232392,0.9248749216988612,1.190706197200232,0.4224219342188502,-0.4754283479291259,-0.9377124771473393,-0.44655818379993545,-0.26765662919356337,-1.1122554567672487,0.651634724275268,-0.06554565892561647,0.6794063834815931,0.021422670181216772,0.41070903808033515,-0.31797147648440344,0.5627173078994318,1.7476409487170577,-0.9929746304467362,-0.807440863819466,1.502647459975302,1.716189252299626,1.3846900460473632,1.312915991531086,1.4442559887212199,1.678597323100828,0.6549787451050486,0.6727945255434236,0.5709278916915079,0.03886415231628139,-0.367071965475561,0.47770043711494714,0.7470958678125525,0.8813296722447663,-0.3477217306766323,0.3126748159356137,0.5914603650957102,0.12526420226179838,1.2209485533502056,0.19004236532782376,-0.09414863102365129,1.1812705936397236,0.626453737261382,-0.08001215106906598,0.7589259674971491,0.8385979222669765,0.11531166235771544,-0.7877217939461134,0.44823535101013384,0.640207958363171,0.735454851537813,0.5202951575247806,1.0354060854811082,2.087524178911946,1.42908196369957,0.671598776523336,0.048402288409898624,1.4973452025213536,-0.0730318088103614,0.06493510069969721,-0.3561011247742051,1.1187094751847646,0.46434541621084496,0.748933049355721,0.934744857703253,0.8431848937483983,-0.42838197414986623,0.20129728113959594,0.0027309112843285424,0.18297356745539126,0.5312849848366594,0.6278423988925037,0.7720896870518373,0.6411965154436241,0.004309378325665142,-1.2586574365536398,-0.008695651589169453,1.159310153381414,0.37980623374091793,-0.8322652140560274,0.691863495090547,1.4468203044154473,0.8415156604717593,0.8027249530350863,0.17287541211153098,0.9347015626525,1.029453149018129,-0.060151000130567574,0.01107555342835879,1.031054334718879,1.0246365417692538,-0.4570339348459687,1.3802717862793843,0.47779562572045364,0.0049968434497670655,0.4261249821882736,0.7785617754292112,0.17427786836747364,0.46891172538060394,0.6318371154544088,-0.5786600417229325,-0.2501533274654331,-0.6680533689308005,-1.2964819338748486,1.0971199858633784,0.09735393095830683,0.704170506972991,-0.9995725818897444,-0.1523961910194275,0.18917938690410674,-0.9824328808825277,0.3525716654652696,-0.15087526114603278,0.6948636976662266,-0.16439949315762895,